{"learner":{"attributes":{"best_iteration":"449","best_ntree_limit":"450","scikit_learn":"{\"n_estimators\": 450, \"objective\": \"reg:squarederror\", \"max_depth\": 3, \"max_leaves\": null, \"max_bin\": null, \"grow_policy\": null, \"learning_rate\": null, \"verbosity\": null, \"booster\": null, \"tree_method\": null, \"gamma\": null, \"min_child_weight\": null, \"max_delta_step\": null, \"subsample\": null, \"sampling_method\": null, \"colsample_bytree\": null, \"colsample_bylevel\": null, \"colsample_bynode\": null, \"reg_alpha\": null, \"reg_lambda\": null, \"scale_pos_weight\": null, \"base_score\": null, \"missing\": NaN, \"num_parallel_tree\": null, \"random_state\": null, \"n_jobs\": null, \"monotone_constraints\": null, \"interaction_constraints\": null, \"importance_type\": null, \"gpu_id\": null, \"validate_parameters\": null, \"predictor\": null, \"enable_categorical\": false, \"feature_types\": null, \"max_cat_to_onehot\": null, \"max_cat_threshold\": null, \"eval_metric\": null, \"early_stopping_rounds\": null, \"callbacks\": null, \"_estimator_type\": \"regressor\"}"},"feature_names":[],"feature_types":[],"gradient_booster":{"model":{"gbtree_model_param":{"num_parallel_tree":"1","num_trees":"450","size_leaf_vector":"0"},"tree_info":[0,0,0,0,0,0,0,0,0,0,0,0,0,0,0,0,0,0,0,0,0,0,0,0,0,0,0,0,0,0,0,0,0,0,0,0,0,0,0,0,0,0,0,0,0,0,0,0,0,0,0,0,0,0,0,0,0,0,0,0,0,0,0,0,0,0,0,0,0,0,0,0,0,0,0,0,0,0,0,0,0,0,0,0,0,0,0,0,0,0,0,0,0,0,0,0,0,0,0,0,0,0,0,0,0,0,0,0,0,0,0,0,0,0,0,0,0,0,0,0,0,0,0,0,0,0,0,0,0,0,0,0,0,0,0,0,0,0,0,0,0,0,0,0,0,0,0,0,0,0,0,0,0,0,0,0,0,0,0,0,0,0,0,0,0,0,0,0,0,0,0,0,0,0,0,0,0,0,0,0,0,0,0,0,0,0,0,0,0,0,0,0,0,0,0,0,0,0,0,0,0,0,0,0,0,0,0,0,0,0,0,0,0,0,0,0,0,0,0,0,0,0,0,0,0,0,0,0,0,0,0,0,0,0,0,0,0,0,0,0,0,0,0,0,0,0,0,0,0,0,0,0,0,0,0,0,0,0,0,0,0,0,0,0,0,0,0,0,0,0,0,0,0,0,0,0,0,0,0,0,0,0,0,0,0,0,0,0,0,0,0,0,0,0,0,0,0,0,0,0,0,0,0,0,0,0,0,0,0,0,0,0,0,0,0,0,0,0,0,0,0,0,0,0,0,0,0,0,0,0,0,0,0,0,0,0,0,0,0,0,0,0,0,0,0,0,0,0,0,0,0,0,0,0,0,0,0,0,0,0,0,0,0,0,0,0,0,0,0,0,0,0,0,0,0,0,0,0,0,0,0,0,0,0,0,0,0,0,0,0,0,0,0,0,0,0,0,0,0,0,0,0,0,0,0,0,0,0,0,0,0,0,0,0,0,0,0,0,0,0,0,0,0,0,0,0,0,0,0,0,0,0,0,0,0,0,0,0,0,0,0,0,0,0,0,0,0,0,0,0],"trees":[{"base_weights":[-5.020824E-1,-1.1055964E0,-1.431162E-1,-2.148025E0,-1.0150825E0,-1.6611676E0,-3.0899622E-2,-1.8463191E0,-9.217502E-1,-1.8161199E0,1.3217306E-1,-2.8170657E-1,2.2873342E-1],"categories":[],"categories_nodes":[],"categories_segments":[],"categories_sizes":[],"default_left":[1,1,1,0,1,1,1,0,0,0,0,0,0],"id":0,"left_children":[1,3,5,-1,7,9,11,-1,-1,-1,-1,-1,-1],"loss_changes":[1.3004306E2,1.8954926E1,6.434117E1,0E0,1.4435074E1,7.4649734E0,2.3051008E1,0E0,0E0,0E0,0E0,0E0,0E0],"parents":[2147483647,0,0,1,1,2,2,4,4,5,5,6,6],"right_children":[2,4,6,-1,8,10,12,-1,-1,-1,-1,-1,-1],"split_conditions":[-6.1691636E-1,-1.4065471E0,-1.7010505E0,-6.444075E-1,-1.600347E0,4.0813226E-1,6.29686E-1,-5.538958E-1,-2.7652508E-1,-5.44836E-1,3.965192E-2,-8.451197E-2,6.8620026E-2],"split_indices":[7,4,3,0,7,4,7,0,0,0,0,0,0],"split_type":[0,0,0,0,0,0,0,0,0,0,0,0,0],"sum_hessian":[6E2,2.23E2,3.77E2,1.6E1,2.07E2,2.5E1,3.52E2,1.9E1,1.88E2,2.3E1,2E0,1.79E2,1.73E2],"tree_param":{"num_deleted":"0","num_feature":"10","num_nodes":"13","size_leaf_vector":"0"}},{"base_weights":[-3.5477862E-1,-7.805015E-1,-1.0155984E-1,-1.3681082E0,-6.825824E-1,-1.1822474E0,-2.167475E-2,-1.4998634E0,-1.03794575E-1,-3.8150975E-1,-8.9051485E-1,-1.2939854E0,1.0573844E-1,-6.7549604E-1,4.1143004E-2],"categories":[],"categories_nodes":[],"categories_segments":[],"categories_sizes":[],"default_left":[1,1,1,1,1,1,1,0,0,0,0,0,0,0,0],"id":1,"left_children":[1,3,5,7,9,11,13,-1,-1,-1,-1,-1,-1,-1,-1],"loss_changes":[6.470915E1,1.1954651E1,3.260742E1,5.008301E0,1.1805199E1,3.878666E0,1.4526061E1,0E0,0E0,0E0,0E0,0E0,0E0,0E0,0E0],"parents":[2147483647,0,0,1,1,2,2,3,3,4,4,5,5,6,6],"right_children":[2,4,6,8,10,12,14,-1,-1,-1,-1,-1,-1,-1,-1],"split_conditions":[-6.1691636E-1,-8.9824134E-1,-1.7010505E0,1.2255723E0,1.9569239E-1,4.0813226E-1,-8.545787E-1,-4.4995904E-1,-3.1138374E-2,-1.1445293E-1,-2.6715446E-1,-3.8819563E-1,3.1721532E-2,-2.0264882E-1,1.2342902E-2],"split_indices":[7,3,3,8,1,4,0,0,0,0,0,0,0,0,0],"split_type":[0,0,0,0,0,0,0,0,0,0,0,0,0,0,0],"sum_hessian":[6E2,2.23E2,3.77E2,3E1,1.93E2,2.5E1,3.52E2,2.7E1,3E0,8E1,1.13E2,2.3E1,2E0,3E1,3.22E2],"tree_param":{"num_deleted":"0","num_feature":"10","num_nodes":"15","size_leaf_vector":"0"}},{"base_weights":[-2.5069028E-1,-7.01059E-1,-1.1996123E-1,-2.2956863E-1,-9.50269E-1,-3.283211E-2,-7.2192484E-1,5.5205423E-2,-5.686291E-1,-1.379446E0,-8.5043216E-1,-1.2496531E-1,6.466152E-1,-8.9157116E-1,1.9849932E-1],"categories":[],"categories_nodes":[],"categories_segments":[],"categories_sizes":[],"default_left":[1,1,1,1,1,1,1,0,0,0,0,0,0,0,0],"id":2,"left_children":[1,3,5,7,9,11,13,-1,-1,-1,-1,-1,-1,-1,-1],"loss_changes":[3.5300537E1,1.5644363E1,2.4469774E1,4.6660614E0,2.5974731E0,2.5684065E1,9.389627E0,0E0,0E0,0E0,0E0,0E0,0E0,0E0,0E0],"parents":[2147483647,0,0,1,1,2,2,3,3,4,4,5,5,6,6],"right_children":[2,4,6,8,10,12,14,-1,-1,-1,-1,-1,-1,-1,-1],"split_conditions":[-8.039067E-1,-3.8020086E-1,8.8682526E-1,-3.6545932E-2,-1.3479209E0,4.6575803E-1,1.2255723E0,1.6561627E-2,-1.7058873E-1,-4.1383383E-1,-2.5512967E-1,-3.7489593E-2,1.9398457E-1,-2.6747137E-1,5.9549797E-2],"split_indices":[7,8,0,4,2,0,8,0,0,0,0,0,0,0,0],"split_type":[0,0,0,0,0,0,0,0,0,0,0,0,0,0,0],"sum_hessian":[6E2,1.34E2,4.66E2,4.7E1,8.7E1,4.08E2,5.8E1,2.6E1,2.1E1,1.4E1,7.3E1,3.6E2,4.8E1,4.9E1,9E0],"tree_param":{"num_deleted":"0","num_feature":"10","num_nodes":"15","size_leaf_vector":"0"}},{"base_weights":[-1.7693813E-1,-3.907514E-1,1.0191874E-3,-5.1267517E-1,-1.9973192E-1,-7.0168376E-1,5.3661365E-2,-4.3922323E-1,-1.0578445E0,-9.240255E-1,-1.1639557E-1,1.3981363E-1,-2.3467313E-1],"categories":[],"categories_nodes":[],"categories_segments":[],"categories_sizes":[],"default_left":[1,1,1,1,1,0,1,0,0,0,0,0,0],"id":3,"left_children":[1,3,5,7,9,-1,11,-1,-1,-1,-1,-1,-1],"loss_changes":[2.2868229E1,6.255722E0,1.2207961E1,6.1826363E0,6.411325E0,0E0,7.658897E0,0E0,0E0,0E0,0E0,0E0,0E0],"parents":[2147483647,0,0,1,1,2,2,3,3,4,4,6,6],"right_children":[2,4,6,8,10,-1,12,-1,-1,-1,-1,-1,-1],"split_conditions":[-2.4293564E-1,2.7957028E-1,-1.3313441E0,2.000069E-1,-1.5033891E0,-2.1050514E-1,7.675078E-1,-1.3176697E-1,-3.1735337E-1,-2.7720764E-1,-3.4918673E-2,4.194409E-2,-7.0401944E-2],"split_indices":[7,2,4,2,7,0,1,0,0,0,0,0,0],"split_type":[0,0,0,0,0,0,0,0,0,0,0,0,0],"sum_hessian":[6E2,2.72E2,3.28E2,1.65E2,1.07E2,2.2E1,3.06E2,1.47E2,1.8E1,1E1,9.7E1,2.36E2,7E1],"tree_param":{"num_deleted":"0","num_feature":"10","num_nodes":"13","size_leaf_vector":"0"}},{"base_weights":[-1.2552093E-1,-2.3034258E-1,1.0419791E-1,6.055137E-3,-3.130243E-1,1.8677042E-1,-3.226804E-1,-4.8007086E-1,1.0861446E-1,-5.893924E-1,-2.3308265E-1,-2.873032E-1,2.9473534E-1,-4.4359633E-1,3.948016E-1],"categories":[],"categories_nodes":[],"categories_segments":[],"categories_sizes":[],"default_left":[1,1,1,1,1,1,1,0,0,0,0,0,0,0,0],"id":4,"left_children":[1,3,5,7,9,11,13,-1,-1,-1,-1,-1,-1,-1,-1],"loss_changes":[1.4495784E1,8.074301E0,6.7222185E0,5.4366717E0,6.6231785E0,8.222827E0,2.8645375E0,0E0,0E0,0E0,0E0,0E0,0E0,0E0,0E0],"parents":[2147483647,0,0,1,1,2,2,3,3,4,4,5,5,6,6],"right_children":[2,4,6,8,10,12,14,-1,-1,-1,-1,-1,-1,-1,-1],"split_conditions":[7.127929E-1,-3.8020086E-1,8.525443E-1,-4.8725402E-1,-1.1571107E0,-7.967512E-1,6.916849E-1,-1.4402126E-1,3.258434E-2,-1.7681773E-1,-6.99248E-2,-8.619097E-2,8.842061E-2,-1.330789E-1,1.1844048E-1],"split_indices":[7,8,0,5,7,0,9,0,0,0,0,0,0,0,0],"split_type":[0,0,0,0,0,0,0,0,0,0,0,0,0,0,0],"sum_hessian":[6E2,4.12E2,1.88E2,1.07E2,3.05E2,1.58E2,3E1,1.8E1,8.9E1,6.7E1,2.38E2,2.9E1,1.29E2,2.6E1,4E0],"tree_param":{"num_deleted":"0","num_feature":"10","num_nodes":"15","size_leaf_vector":"0"}},{"base_weights":[-8.848127E-2,-5.127935E-1,-5.3217165E-2,-6.736158E-1,-4.213832E-1,-3.1016436E-1,3.1240543E-3,-1.4199466E-1,-7.014463E-1,-4.818093E-1,-2.1342655E-1,-2.119771E-2,-5.277848E-1,4.2454597E-2,-3.8650998E-1],"categories":[],"categories_nodes":[],"categories_segments":[],"categories_sizes":[],"default_left":[1,1,1,1,1,1,1,0,0,0,0,0,0,0,0],"id":5,"left_children":[1,3,5,7,9,11,13,-1,-1,-1,-1,-1,-1,-1,-1],"loss_changes":[8.965467E0,3.9238644E-1,8.050024E0,1.22327805E-1,2.992816E-1,6.277318E0,7.0197134E0,0E0,0E0,0E0,0E0,0E0,0E0,0E0,0E0],"parents":[2147483647,0,0,1,1,2,2,3,3,4,4,5,5,6,6],"right_children":[2,4,6,8,10,12,14,-1,-1,-1,-1,-1,-1,-1,-1],"split_conditions":[-1.3313441E0,1.8562365E-1,-7.967512E-1,-1.5033891E0,-2.2922206E0,6.921185E-1,9.339183E-1,-4.2598397E-2,-2.104339E-1,-1.445428E-1,-6.4027965E-2,-6.359313E-3,-1.5833545E-1,1.2736379E-2,-1.15953E-1],"split_indices":[4,0,0,7,3,5,0,0,0,0,0,0,0,0,0],"split_type":[0,0,0,0,0,0,0,0,0,0,0,0,0,0,0],"sum_hessian":[6E2,4.5E1,5.55E2,1.4E1,3.1E1,9.9E1,4.56E2,1E0,1.3E1,2.3E1,8E0,4.3E1,5.6E1,4.15E2,4.1E1],"tree_param":{"num_deleted":"0","num_feature":"10","num_nodes":"15","size_leaf_vector":"0"}},{"base_weights":[-6.315072E-2,-3.1189853E-1,-1.34735685E-2,-6.234784E-2,-5.41054E-1,-3.5732672E-1,1.7070701E-2,-1.8376571E-1,5.8288944E-1,-6.037495E-1,-1.2076006E-1,-1.135127E0,-2.177676E-1,-2.0846975E-1,7.1444884E-2],"categories":[],"categories_nodes":[],"categories_segments":[],"categories_sizes":[],"default_left":[1,1,1,1,1,1,1,0,0,0,0,0,0,0,0],"id":6,"left_children":[1,3,5,7,9,11,13,-1,-1,-1,-1,-1,-1,-1,-1],"loss_changes":[7.4224043E0,5.6848574E0,5.2784767E0,3.9459386E0,1.2973204E0,4.2033195E0,5.6806674E0,0E0,0E0,0E0,0E0,0E0,0E0,0E0,0E0],"parents":[2147483647,0,0,1,1,2,2,3,3,4,4,5,5,6,6],"right_children":[2,4,6,8,10,12,14,-1,-1,-1,-1,-1,-1,-1,-1],"split_conditions":[-1.1571107E0,1.3881324E-1,-8.417666E-1,-3.3931077E-2,6.419493E-2,2.5513163E-1,-1.0416062E0,-5.5129714E-2,1.7486684E-1,-1.8112487E-1,-3.622802E-2,-3.4053808E-1,-6.533028E-2,-6.2540926E-2,2.1433465E-2],"split_indices":[7,5,0,5,6,3,5,0,0,0,0,0,0,0,0],"split_type":[0,0,0,0,0,0,0,0,0,0,0,0,0,0,0],"sum_hessian":[6E2,9.9E1,5.01E2,4.8E1,5.1E1,4E1,4.61E2,4.1E1,7E0,4.4E1,7E0,5E0,3.5E1,8.9E1,3.72E2],"tree_param":{"num_deleted":"0","num_feature":"10","num_nodes":"15","size_leaf_vector":"0"}},{"base_weights":[-4.5111652E-2,-1.1209711E-1,1.01502664E-1,-2.0899734E-1,3.630016E-2,-8.872325E-2,1.7244647E-1,-5.0721735E-1,-1.4283764E-1,7.1973704E-2,-6.683306E-1,-1.3590874E-1,2.3402758E-1,-8.6183E-2,2.715875E-1],"categories":[],"categories_nodes":[],"categories_segments":[],"categories_sizes":[],"default_left":[1,1,1,1,1,1,1,0,0,0,0,0,0,0,0],"id":7,"left_children":[1,3,5,7,9,11,13,-1,-1,-1,-1,-1,-1,-1,-1],"loss_changes":[5.9138155E0,5.9464145E0,2.5659213E0,4.8600874E0,4.170517E0,8.237226E-1,3.5618353E0,0E0,0E0,0E0,0E0,0E0,0E0,0E0,0E0],"parents":[2147483647,0,0,1,1,2,2,3,3,4,4,5,5,6,6],"right_children":[2,4,6,8,10,12,14,-1,-1,-1,-1,-1,-1,-1,-1],"split_conditions":[7.127929E-1,2.7957028E-1,-6.915485E-1,-6.5512574E-1,7.93678E-1,2.1186833E0,-1.0416062E0,-1.521652E-1,-4.2851295E-2,2.1592112E-2,-2.0049919E-1,-4.0772624E-2,7.0208274E-2,-2.58549E-2,8.147625E-2],"split_indices":[7,2,6,0,0,7,5,0,0,0,0,0,0,0,0],"split_type":[0,0,0,0,0,0,0,0,0,0,0,0,0,0,0],"sum_hessian":[6E2,4.12E2,1.88E2,2.49E2,1.63E2,5.1E1,1.37E2,4.4E1,2.05E2,1.56E2,7E0,4.5E1,6E0,3.8E1,9.9E1],"tree_param":{"num_deleted":"0","num_feature":"10","num_nodes":"15","size_leaf_vector":"0"}},{"base_weights":[-3.20588E-2,-8.018831E-2,1.446646E-1,-2.095354E-1,-1.2770308E-2,5.782231E-1,-7.88382E-2,-4.8209953E-1,-1.6096652E-1,1.7921334E-2,-3.658272E-1,-1.00911856E-1,6.486594E-1,-4.7483665E-1,2.5608327E-2],"categories":[],"categories_nodes":[],"categories_segments":[],"categories_sizes":[],"default_left":[1,1,1,1,1,1,1,0,0,0,0,0,0,0,0],"id":8,"left_children":[1,3,5,7,9,11,13,-1,-1,-1,-1,-1,-1,-1,-1],"loss_changes":[5.1234727E0,4.122037E0,1.2545885E1,2.0669756E0,3.3873558E0,2.1702318E0,3.5691767E0,0E0,0E0,0E0,0E0,0E0,0E0,0E0,0E0],"parents":[2147483647,0,0,1,1,2,2,3,3,4,4,5,5,6,6],"right_children":[2,4,6,8,10,12,14,-1,-1,-1,-1,-1,-1,-1,-1],"split_conditions":[6.916849E-1,-5.788257E-1,-1.13758534E-1,-1.0005138E0,1.0758244E-1,-1.4425137E0,-4.517969E-1,-1.4462987E-1,-4.828996E-2,5.3764004E-3,-1.0974816E-1,-3.0273559E-2,1.9459783E-1,-1.42451E-1,7.6824985E-3],"split_indices":[9,7,3,3,9,4,4,0,0,0,0,0,0,0,0],"split_type":[0,0,0,0,0,0,0,0,0,0,0,0,0,0,0],"sum_hessian":[6E2,4.72E2,1.28E2,1.61E2,3.11E2,4.3E1,8.5E1,2.3E1,1.38E2,2.87E2,2.4E1,4E0,3.9E1,1.7E1,6.8E1],"tree_param":{"num_deleted":"0","num_feature":"10","num_nodes":"15","size_leaf_vector":"0"}},{"base_weights":[-2.2886645E-2,-1.3886207E-1,3.0652722E-2,-4.208897E-1,-7.9078704E-2,4.292465E-2,-8.069017E-1,3.8418502E-1,-4.5805407E-1,-2.502651E-1,-6.5355003E-3,-1.3054821E-1,1.1169152E-1],"categories":[],"categories_nodes":[],"categories_segments":[],"categories_sizes":[],"default_left":[1,1,1,1,1,1,0,0,0,0,0,0,0],"id":9,"left_children":[1,3,5,7,9,11,-1,-1,-1,-1,-1,-1,-1],"loss_changes":[3.736017E0,3.1702235E0,4.269339E0,1.1633401E0,1.9604731E0,4.86976E0,0E0,0E0,0E0,0E0,0E0,0E0,0E0],"parents":[2147483647,0,0,1,1,2,2,3,3,4,4,5,5],"right_children":[2,4,6,8,10,12,-1,-1,-1,-1,-1,-1,-1],"split_conditions":[-6.5021884E-1,-9.59732E-1,1.3626806E0,-1.9568259E-1,-2.346716E-2,-7.416593E-1,-2.4207051E-1,1.1525551E-1,-1.3741623E-1,-7.507953E-2,-1.96065E-3,-3.9164465E-2,3.350746E-2],"split_indices":[6,7,5,5,4,5,0,0,0,0,0,0,0],"split_type":[0,0,0,0,0,0,0,0,0,0,0,0,0],"sum_hessian":[6E2,1.89E2,4.11E2,3.2E1,1.57E2,4.06E2,5E0,1E0,3.1E1,4.6E1,1.11E2,1.15E2,2.91E2],"tree_param":{"num_deleted":"0","num_feature":"10","num_nodes":"13","size_leaf_vector":"0"}},{"base_weights":[-1.6597908E-2,-7.040417E-2,8.3188094E-2,-8.8230245E-2,5.5342674E-1,-1.4037122E-1,2.4742702E-1,-5.209672E-1,-6.6588774E-2,-2.0607515E-1,6.499845E-1,3.8723487E-2,-2.6613024E-1,1.5229969E-1,8.6812687E-1],"categories":[],"categories_nodes":[],"categories_segments":[],"categories_sizes":[],"default_left":[1,1,1,1,1,1,1,0,0,0,0,0,0,0,0],"id":10,"left_children":[1,3,5,7,9,11,13,-1,-1,-1,-1,-1,-1,-1,-1],"loss_changes":[3.2326927E0,4.3969283E0,7.782048E0,3.5333986E0,9.406388E-1,2.0373552E0,7.0713377E0,0E0,0E0,0E0,0E0,0E0,0E0,0E0,0E0],"parents":[2147483647,0,0,1,1,2,2,3,3,4,4,5,5,6,6],"right_children":[2,4,6,8,10,12,14,-1,-1,-1,-1,-1,-1,-1,-1],"split_conditions":[5.4040127E-2,1.3749375E0,-7.416593E-1,-3.4383687E-1,-1.5033891E0,8.966936E-1,3.7983304E-1,-1.5629016E-1,-1.9976633E-2,-6.1822545E-2,1.9499536E-1,1.1617047E-2,-7.983907E-2,4.5689907E-2,2.6043808E-1],"split_indices":[0,6,5,1,7,6,2,0,0,0,0,0,0,0,0],"split_type":[0,0,0,0,0,0,0,0,0,0,0,0,0,0,0],"sum_hessian":[6E2,3.9E2,2.1E2,3.8E2,1E1,8.9E1,1.21E2,1.7E1,3.63E2,1E0,9E0,3.7E1,5.2E1,1.06E2,1.5E1],"tree_param":{"num_deleted":"0","num_feature":"10","num_nodes":"15","size_leaf_vector":"0"}},{"base_weights":[-1.1294391E-2,-4.3269645E-2,1.0603576E-1,-1.9265354E-1,-9.101116E-3,3.6281723E-1,-8.368447E-2,-2.903567E-1,3.8837146E-2,-2.320146E-1,1.3787735E-2,2.714941E-1,7.466221E-1,-3.0538198E-1,8.840164E-2],"categories":[],"categories_nodes":[],"categories_segments":[],"categories_sizes":[],"default_left":[1,1,1,1,1,1,1,0,0,0,0,0,0,0,0],"id":11,"left_children":[1,3,5,7,9,11,13,-1,-1,-1,-1,-1,-1,-1,-1],"loss_changes":[2.2593365E0,2.4125462E0,6.314809E0,2.001605E0,1.9726611E0,1.7250609E0,2.8883262E0,0E0,0E0,0E0,0E0,0E0,0E0,0E0,0E0],"parents":[2147483647,0,0,1,1,2,2,3,3,4,4,5,5,6,6],"right_children":[2,4,6,8,10,12,14,-1,-1,-1,-1,-1,-1,-1,-1],"split_conditions":[6.916849E-1,-9.59732E-1,9.728921E-2,7.0067394E-1,-1.5003045E0,3.3196563E-1,-7.578224E-2,-8.710701E-2,1.1651144E-2,-6.960438E-2,4.1363207E-3,8.144823E-2,2.2398664E-1,-9.16146E-2,2.6520493E-2],"split_indices":[9,7,3,2,1,2,4,0,0,0,0,0,0,0,0],"split_type":[0,0,0,0,0,0,0,0,0,0,0,0,0,0,0],"sum_hessian":[6E2,4.72E2,1.28E2,8.7E1,3.85E2,5.4E1,7.4E1,6.1E1,2.6E1,3.5E1,3.5E2,4.5E1,9E0,3.2E1,4.2E1],"tree_param":{"num_deleted":"0","num_feature":"10","num_nodes":"15","size_leaf_vector":"0"}},{"base_weights":[-7.740654E-3,5.9646353E-2,-5.428409E-2,3.187939E-1,4.220485E-5,-1.7856725E-1,2.8053084E-2,1.3830891E-1,6.185442E-1,4.9026817E-2,-3.4677052E-1,-7.013521E-2,-6.832237E-1,3.8332275E-1,-2.0710414E-2],"categories":[],"categories_nodes":[],"categories_segments":[],"categories_sizes":[],"default_left":[1,1,1,1,1,1,1,0,0,0,0,0,0,0,0],"id":12,"left_children":[1,3,5,7,9,11,13,-1,-1,-1,-1,-1,-1,-1,-1],"loss_changes":[1.8882279E0,3.799769E0,3.6480017E0,2.4030695E0,3.4316869E0,7.722453E0,3.73264E0,0E0,0E0,0E0,0E0,0E0,0E0,0E0,0E0],"parents":[2147483647,0,0,1,1,2,2,3,3,4,4,5,5,6,6],"right_children":[2,4,6,8,10,12,14,-1,-1,-1,-1,-1,-1,-1,-1],"split_conditions":[-8.9164E-3,-6.7122084E-1,-5.2519524E-1,4.0481406E-1,1.7439528E0,7.752876E-1,-1.243996E-1,4.1492674E-2,1.8556327E-1,1.4708046E-2,-1.0403116E-1,-2.1040564E-2,-2.0496713E-1,1.1499683E-1,-6.2131244E-3],"split_indices":[1,9,9,0,6,1,3,0,0,0,0,0,0,0,0],"split_type":[0,0,0,0,0,0,0,0,0,0,0,0,0,0,0],"sum_hessian":[6E2,2.45E2,3.55E2,4.5E1,2E2,1.41E2,2.14E2,2.9E1,1.6E1,1.76E2,2.4E1,1.17E2,2.4E1,2.5E1,1.89E2],"tree_param":{"num_deleted":"0","num_feature":"10","num_nodes":"15","size_leaf_vector":"0"}},{"base_weights":[-5.3843344E-3,-1.1557383E-1,1.6576491E-2,6.8756263E-3,-2.2873633E-1,-3.9022656E-3,1.675017E-1,-2.5103167E-1,9.730587E-2,-3.5986036E-1,-1.12332426E-1,-6.304592E-2,7.163964E-2,7.259828E-1,4.1285835E-2],"categories":[],"categories_nodes":[],"categories_segments":[],"categories_sizes":[],"default_left":[1,1,1,1,1,1,1,0,0,0,0,0,0,0,0],"id":13,"left_children":[1,3,5,7,9,11,13,-1,-1,-1,-1,-1,-1,-1,-1],"loss_changes":[1.456247E0,1.3872416E0,1.5522155E0,1.1672351E0,7.5327015E-1,1.9837627E0,4.1993775E0,0E0,0E0,0E0,0E0,0E0,0E0,0E0,0E0],"parents":[2147483647,0,0,1,1,2,2,3,3,4,4,5,5,6,6],"right_children":[2,4,6,8,10,12,14,-1,-1,-1,-1,-1,-1,-1,-1],"split_conditions":[-1.1571107E0,1.3881324E-1,8.222829E-1,-3.304944E-1,1.0615677E-1,1.1385992E-1,6.249007E-3,-7.53095E-2,2.9191762E-2,-1.07958116E-1,-3.369973E-2,-1.8913776E-2,2.1491893E-2,2.1779485E-1,1.2385751E-2],"split_indices":[7,5,2,9,3,4,3,0,0,0,0,0,0,0,0],"split_type":[0,0,0,0,0,0,0,0,0,0,0,0,0,0,0],"sum_hessian":[6E2,9.9E1,5.01E2,4.8E1,5.1E1,4.42E2,5.9E1,1.2E1,3.6E1,2.3E1,2.8E1,2.48E2,1.94E2,1E1,4.9E1],"tree_param":{"num_deleted":"0","num_feature":"10","num_nodes":"15","size_leaf_vector":"0"}},{"base_weights":[-3.6941855E-3,8.087268E-3,-2.004051E-1,6.3188013E-4,3.2632637E-1,-3.744075E-1,1.09476246E-1,-9.803128E-2,3.833286E-2,-1.7383648E-1,4.330684E-1,1.5007788E-2,-4.6177799E-1,1.8085246E-1,-1.887286E-1],"categories":[],"categories_nodes":[],"categories_segments":[],"categories_sizes":[],"default_left":[1,1,1,1,1,1,1,0,0,0,0,0,0,0,0],"id":14,"left_children":[1,3,5,7,9,11,13,-1,-1,-1,-1,-1,-1,-1,-1],"loss_changes":[1.3944626E0,1.3474282E0,1.8742719E0,2.0719101E0,7.693323E-1,7.5544524E-1,3.1083354E-1,0E0,0E0,0E0,0E0,0E0,0E0,0E0,0E0],"parents":[2147483647,0,0,1,1,2,2,3,3,4,4,5,5,6,6],"right_children":[2,4,6,8,10,12,14,-1,-1,-1,-1,-1,-1,-1,-1],"split_conditions":[1.6996608E0,1.3498037E0,5.016496E-1,-6.3815844E-1,-4.7652003E-1,-1.0626572E0,9.9111253E-1,-2.9409386E-2,1.1499858E-2,-5.2150946E-2,1.2992053E-1,4.5023365E-3,-1.385334E-1,5.425574E-2,-5.6618582E-2],"split_indices":[4,4,3,0,9,2,2,0,0,0,0,0,0,0,0],"split_type":[0,0,0,0,0,0,0,0,0,0,0,0,0,0,0],"sum_hessian":[6E2,5.67E2,3.3E1,5.55E2,1.2E1,2.1E1,1.2E1,1.53E2,4.02E2,2E0,1E1,4E0,1.7E1,1E1,2E0],"tree_param":{"num_deleted":"0","num_feature":"10","num_nodes":"15","size_leaf_vector":"0"}},{"base_weights":[-2.7132814E-3,-1.2704338E-1,1.4716909E-2,-1.5825087E-1,3.3527005E-1,3.3556372E-1,-1.6599515E-2,-1.7635779E-1,3.0492306E-1,-2.6945034E-1,5.2791387E-1,-6.332689E-2,4.5783836E-2],"categories":[],"categories_nodes":[],"categories_segments":[],"categories_sizes":[],"default_left":[1,1,1,1,0,1,1,0,0,0,0,0,0],"id":15,"left_children":[1,3,5,7,-1,9,11,-1,-1,-1,-1,-1,-1],"loss_changes":[1.3042952E0,1.120702E0,5.3107953E0,6.4084136E-1,0E0,5.611849E0,1.4079342E0,0E0,0E0,0E0,0E0,0E0,0E0],"parents":[2147483647,0,0,1,1,2,2,3,3,5,5,6,6],"right_children":[2,4,6,8,-1,10,12,-1,-1,-1,-1,-1,-1],"split_conditions":[-1.122886E0,1.2255723E0,-7.2621083E-1,2.8250914E0,1.0058102E-1,-1.515475E0,2.7957028E-1,-5.290734E-2,9.147692E-2,-8.0835104E-2,1.5837416E-1,-1.8998068E-2,1.3735152E-2],"split_indices":[3,8,3,7,0,1,2,0,0,0,0,0,0],"split_type":[0,0,0,0,0,0,0,0,0,0,0,0,0],"sum_hessian":[6E2,7.3E1,5.27E2,6.9E1,4E0,4.6E1,4.81E2,6.7E1,2E0,1.1E1,3.5E1,2.75E2,2.06E2],"tree_param":{"num_deleted":"0","num_feature":"10","num_nodes":"13","size_leaf_vector":"0"}},{"base_weights":[-1.5475065E-3,-1.9015212E-2,1.1244861E-1,5.544222E-1,-2.2286937E-2,1.3304263E-1,-2.230702E-1,-4.3568093E-2,6.0261533E-2,2.1291763E-1,-1.1490136E-2,2.8444016E-1,-6.5622383E-1],"categories":[],"categories_nodes":[],"categories_segments":[],"categories_sizes":[],"default_left":[1,1,1,0,1,1,1,0,0,0,0,0,0],"id":16,"left_children":[1,3,5,-1,7,9,11,-1,-1,-1,-1,-1,-1],"loss_changes":[1.1988798E0,9.916959E-1,5.824523E-1,0E0,9.161236E-1,8.798326E-1,1.2858063E0,0E0,0E0,0E0,0E0,0E0,0E0],"parents":[2147483647,0,0,1,1,2,2,4,4,5,5,6,6],"right_children":[2,4,6,-1,8,10,12,-1,-1,-1,-1,-1,-1],"split_conditions":[1.4157381E0,-1.2722971E0,1.1431239E0,1.6632667E-1,6.916849E-1,1.0758244E-1,-1.2089509E0,-1.3070429E-2,1.8078461E-2,6.387529E-2,-3.4470411E-3,8.533205E-2,-1.9686715E-1],"split_indices":[7,8,2,0,9,9,1,0,0,0,0,0,0],"split_type":[0,0,0,0,0,0,0,0,0,0,0,0,0],"sum_hessian":[6E2,5.21E2,7.9E1,2E0,5.19E2,7.5E1,4E0,4.13E2,1.06E2,4.8E1,2.7E1,2E0,2E0],"tree_param":{"num_deleted":"0","num_feature":"10","num_nodes":"13","size_leaf_vector":"0"}},{"base_weights":[-8.832073E-4,-2.2184344E-1,6.7114453E-3,-7.675288E-2,-4.803326E-1,2.3703286E-2,-9.572991E-2,8.226391E-2,-1.7423597E-1,-2.423397E-2,1.128681E-1,-2.2787577E-1,7.4718356E-2],"categories":[],"categories_nodes":[],"categories_segments":[],"categories_sizes":[],"default_left":[1,1,1,1,0,1,1,0,0,0,0,0,0],"id":17,"left_children":[1,3,5,7,-1,9,11,-1,-1,-1,-1,-1,-1],"loss_changes":[1.0100366E0,7.132199E-1,1.0153375E0,2.3135361E-1,0E0,2.1398935E0,1.8865213E0,0E0,0E0,0E0,0E0,0E0,0E0],"parents":[2147483647,0,0,1,1,2,2,3,3,5,5,6,6],"right_children":[2,4,6,8,-1,10,12,-1,-1,-1,-1,-1,-1],"split_conditions":[-1.600347E0,6.573345E-1,4.9641392E-1,3.449895E-1,-1.4409979E-1,1.3347808E-1,4.975114E-1,2.4679175E-2,-5.2270792E-2,-7.2701913E-3,3.386043E-2,-6.8362735E-2,2.2415508E-2],"split_indices":[7,2,4,3,0,4,3,0,0,0,0,0,0],"split_type":[0,0,0,0,0,0,0,0,0,0,0,0,0],"sum_hessian":[6E2,1.9E1,5.81E2,1.3E1,6E0,4.99E2,8.2E1,5E0,8E0,3.25E2,1.74E2,4.6E1,3.6E1],"tree_param":{"num_deleted":"0","num_feature":"10","num_nodes":"13","size_leaf_vector":"0"}},{"base_weights":[-9.3612575E-4,-5.3072333E-2,2.3109544E-2,-1.0311583E-1,8.911177E-2,8.362687E-3,2.9728374E-1,-1.2525937E-1,2.8067786E-1,3.6196104E-1,-1.6536925E-2,4.116536E-2,-1.1809159E-1,-5.321771E-3,3.4801364E-1],"categories":[],"categories_nodes":[],"categories_segments":[],"categories_sizes":[],"default_left":[1,1,1,1,1,1,1,0,0,0,0,0,0,0,0],"id":18,"left_children":[1,3,5,7,9,11,13,-1,-1,-1,-1,-1,-1,-1,-1],"loss_changes":[7.5467014E-1,1.3611127E0,1.6633153E0,1.2334532E0,1.447294E0,1.6308923E0,3.2422626E-1,0E0,0E0,0E0,0E0,0E0,0E0,0E0,0E0],"parents":[2147483647,0,0,1,1,2,2,3,3,4,4,5,5,6,6],"right_children":[2,4,6,8,10,12,14,-1,-1,-1,-1,-1,-1,-1,-1],"split_conditions":[-6.5021884E-1,7.0067394E-1,1.8203032E0,1.2749002E0,7.776499E-1,5.785017E-1,-7.2426265E-1,-3.757781E-2,8.420336E-2,1.08588316E-1,-4.9610776E-3,1.2349608E-2,-3.5427477E-2,-1.5965314E-3,1.044041E-1],"split_indices":[6,2,8,3,2,3,7,0,0,0,0,0,0,0,0],"split_type":[0,0,0,0,0,0,0,0,0,0,0,0,0,0,0],"sum_hessian":[6E2,1.89E2,4.11E2,1.4E2,4.9E1,3.91E2,2E1,1.33E2,7E0,1.3E1,3.6E1,3.11E2,8E1,3E0,1.7E1],"tree_param":{"num_deleted":"0","num_feature":"10","num_nodes":"15","size_leaf_vector":"0"}},{"base_weights":[-2.726214E-4,9.953014E-3,-1.238635E-1,-2.2077339E-2,8.2810625E-2,9.983914E-3,-2.9836434E-1,-3.6739302E-1,-5.21853E-3,-4.6529602E-2,1.5378283E-1,-1.57683E-1,2.0267776E-1,-1.22047365E-2,-3.4814516E-1],"categories":[],"categories_nodes":[],"categories_segments":[],"categories_sizes":[],"default_left":[1,1,1,1,1,1,1,0,0,0,0,0,0,0,0],"id":19,"left_children":[1,3,5,7,9,11,13,-1,-1,-1,-1,-1,-1,-1,-1],"loss_changes":[7.6077384E-1,1.2993404E0,1.0773772E0,2.2510462E0,1.5676812E0,9.0428513E-1,2.8065622E-1,0E0,0E0,0E0,0E0,0E0,0E0,0E0,0E0],"parents":[2147483647,0,0,1,1,2,2,3,3,4,4,5,5,6,6],"right_children":[2,4,6,8,10,12,14,-1,-1,-1,-1,-1,-1,-1,-1],"split_conditions":[1.7439528E0,5.4040127E-2,4.3736368E-1,-3.4383687E-1,-1.0726366E0,-1.18275404E-1,-8.376206E-1,-1.1021791E-1,-1.5655591E-3,-1.3958882E-2,4.6134852E-2,-4.7304902E-2,6.0803328E-2,-3.6614211E-3,-1.0444355E-1],"split_indices":[6,0,0,1,3,7,4,0,0,0,0,0,0,0,0],"split_type":[0,0,0,0,0,0,0,0,0,0,0,0,0,0,0],"sum_hessian":[6E2,5.55E2,4.5E1,3.86E2,1.69E2,2.6E1,1.9E1,1.7E1,3.69E2,6E1,1.09E2,1.4E1,1.2E1,3E0,1.6E1],"tree_param":{"num_deleted":"0","num_feature":"10","num_nodes":"15","size_leaf_vector":"0"}},{"base_weights":[-4.8070098E-4,-7.445383E-3,1.6727209E-1,-2.557118E-2,6.268329E-2,2.1367405E-1,-4.4998664E-1,-5.43415E-3,-2.0668632E-1,3.3560932E-1,2.0091949E-2,2.500303E-1,-1.1204443E-1],"categories":[],"categories_nodes":[],"categories_segments":[],"categories_sizes":[],"default_left":[1,1,1,1,1,1,0,0,0,0,0,0,0],"id":20,"left_children":[1,3,5,7,9,11,-1,-1,-1,-1,-1,-1,-1],"loss_changes":[7.0342064E-1,7.3632073E-1,7.835591E-1,1.6765525E0,1.3765469E0,3.0037832E-1,0E0,0E0,0E0,0E0,0E0,0E0,0E0],"parents":[2147483647,0,0,1,1,2,2,3,3,4,4,5,5],"right_children":[2,4,6,8,10,12,-1,-1,-1,-1,-1,-1,-1],"split_conditions":[1.6131167E0,7.2945905E-1,1.1431239E0,4.7880208E-1,7.643893E-1,7.552616E-1,-1.34996E-1,-1.630245E-3,-6.2005896E-2,1.006828E-1,6.027585E-3,7.500909E-2,-3.361333E-2],"split_indices":[7,2,2,2,2,3,0,0,0,0,0,0,0],"split_type":[0,0,0,0,0,0,0,0,0,0,0,0,0],"sum_hessian":[6E2,5.77E2,2.3E1,4.59E2,1.18E2,2.2E1,1E0,4.14E2,4.5E1,1.5E1,1.03E2,2E1,2E0],"tree_param":{"num_deleted":"0","num_feature":"10","num_nodes":"13","size_leaf_vector":"0"}},{"base_weights":[-4.205689E-4,-4.7584474E-2,2.166697E-2,1.2820527E-2,-4.5160273E-1,-6.870491E-3,1.9155712E-1,5.8281902E-2,-1.8996948E-1,-9.0724623E-1,-3.2161126E-1,-5.3488296E-2,8.035687E-2,4.043169E-1,6.3339435E-2],"categories":[],"categories_nodes":[],"categories_segments":[],"categories_sizes":[],"default_left":[1,1,1,1,1,1,1,0,0,0,0,0,0,0,0],"id":21,"left_children":[1,3,5,7,9,11,13,-1,-1,-1,-1,-1,-1,-1,-1],"loss_changes":[6.271135E-1,4.691497E0,1.9890918E0,1.5598826E0,1.1889639E0,1.4356527E0,1.5838852E0,0E0,0E0,0E0,0E0,0E0,0E0,0E0,0E0],"parents":[2147483647,0,0,1,1,2,2,3,3,4,4,5,5,6,6],"right_children":[2,4,6,8,10,12,14,-1,-1,-1,-1,-1,-1,-1,-1],"split_conditions":[-5.2519524E-1,7.752876E-1,9.841753E-1,7.285621E-1,-1.4747049E0,1.1712962E-1,5.324609E-1,1.7484572E-2,-5.6990847E-2,-2.7217388E-1,-9.648338E-2,-1.6046489E-2,2.4107063E-2,1.2129507E-1,1.900183E-2],"split_indices":[9,1,1,4,2,4,5,0,0,0,0,0,0,0,0],"split_type":[0,0,0,0,0,0,0,0,0,0,0,0,0,0,0],"sum_hessian":[6E2,1.91E2,4.09E2,1.67E2,2.4E1,3.51E2,5.8E1,1.37E2,3E1,4E0,2E1,2.29E2,1.22E2,2.1E1,3.7E1],"tree_param":{"num_deleted":"0","num_feature":"10","num_nodes":"15","size_leaf_vector":"0"}},{"base_weights":[-7.2668353E-4,-4.7927547E-2,2.104247E-2,-6.1837006E-2,1.8403883E-1,1.2588283E-1,-1.9051112E-3,8.53561E-2,-8.951308E-2,-2.5913466E-3,3.399959E-1,4.2030597E-1,5.6246668E-2,3.2206286E-2,-1.18390724E-1],"categories":[],"categories_nodes":[],"categories_segments":[],"categories_sizes":[],"default_left":[1,1,1,1,1,1,1,0,0,0,0,0,0,0,0],"id":22,"left_children":[1,3,5,7,9,11,13,-1,-1,-1,-1,-1,-1,-1,-1],"loss_changes":[6.1854976E-1,6.244205E-1,9.914429E-1,7.409115E-1,3.2105023E-1,1.4935442E0,1.350825E0,0E0,0E0,0E0,0E0,0E0,0E0,0E0,0E0],"parents":[2147483647,0,0,1,1,2,2,3,3,4,4,5,5,6,6],"right_children":[2,4,6,8,10,12,14,-1,-1,-1,-1,-1,-1,-1,-1],"split_conditions":[-6.5021884E-1,2.7360435E0,-4.406181E-1,-1.1236144E0,-2.9141462E-1,-9.95511E-2,4.7880208E-1,2.5606832E-2,-2.6853925E-2,-7.77404E-4,1.0199877E-1,1.260918E-1,1.6874E-2,9.661886E-3,-3.551722E-2],"split_indices":[6,9,6,8,7,1,2,0,0,0,0,0,0,0,0],"split_type":[0,0,0,0,0,0,0,0,0,0,0,0,0,0,0],"sum_hessian":[6E2,1.89E2,4.11E2,1.79E2,1E1,7.3E1,3.38E2,2.8E1,1.51E2,5E0,5E0,1.3E1,6E1,2.62E2,7.6E1],"tree_param":{"num_deleted":"0","num_feature":"10","num_nodes":"15","size_leaf_vector":"0"}},{"base_weights":[-1.4748184E-4,-2.3468532E-2,3.9488506E-2,-3.6669686E-3,-2.1203157E-1,1.647558E-1,-3.5038576E-3,-1.0944046E-1,4.1367482E-2,-2.937133E-1,1.1056869E-1,-1.216507E-1,2.2828168E-1,6.408388E-2,-8.3334774E-2],"categories":[],"categories_nodes":[],"categories_segments":[],"categories_sizes":[],"default_left":[1,1,1,1,1,1,1,0,0,0,0,0,0,0,0],"id":23,"left_children":[1,3,5,7,9,11,13,-1,-1,-1,-1,-1,-1,-1,-1],"loss_changes":[5.564628E-1,1.414349E0,1.2015522E0,1.6431544E0,9.810953E-1,1.0648414E0,9.0640414E-1,0E0,0E0,0E0,0E0,0E0,0E0,0E0,0E0],"parents":[2147483647,0,0,1,1,2,2,3,3,4,4,5,5,6,6],"right_children":[2,4,6,8,10,12,14,-1,-1,-1,-1,-1,-1,-1,-1],"split_conditions":[2.7957028E-1,2.000069E-1,4.7880208E-1,-5.2519524E-1,1.0936991E0,-3.4963542E-1,-4.4652233E-1,-3.283214E-2,1.2410245E-2,-8.811399E-2,3.3170607E-2,-3.6495212E-2,6.848451E-2,1.9225165E-2,-2.5000433E-2],"split_indices":[2,2,2,9,7,3,6,0,0,0,0,0,0,0,0],"split_type":[0,0,0,0,0,0,0,0,0,0,0,0,0,0,0],"sum_hessian":[6E2,3.78E2,2.22E2,3.43E2,3.5E1,5.6E1,1.66E2,1.02E2,2.41E2,2.8E1,7E0,1E1,4.6E1,9E1,7.6E1],"tree_param":{"num_deleted":"0","num_feature":"10","num_nodes":"15","size_leaf_vector":"0"}},{"base_weights":[-1.8501953E-4,-5.582363E-2,2.3173135E-2,-6.4313137E-3,-1.375567E-1,3.0379394E-2,-2.2677338E-1,-4.425223E-1,1.3817633E-2,-1.7328422E-1,1.9343397E-1,2.2818033E-2,3.0463845E-1,8.11875E-2,-6.741561E-1],"categories":[],"categories_nodes":[],"categories_segments":[],"categories_sizes":[],"default_left":[1,1,1,1,1,1,1,0,0,0,0,0,0,0,0],"id":24,"left_children":[1,3,5,7,9,11,13,-1,-1,-1,-1,-1,-1,-1,-1],"loss_changes":[7.8236246E-1,7.1769875E-1,7.705893E-1,9.951175E-1,8.258258E-1,8.4951663E-1,1.7080495E0,0E0,0E0,0E0,0E0,0E0,0E0,0E0,0E0],"parents":[2147483647,0,0,1,1,2,2,3,3,4,4,5,5,6,6],"right_children":[2,4,6,8,10,12,14,-1,-1,-1,-1,-1,-1,-1,-1],"split_conditions":[-6.3815844E-1,7.803445E-1,1.2207466E0,-1.5033891E0,1.7862561E0,1.0350988E0,-6.363574E-1,-1.327567E-1,4.14529E-3,-5.1985268E-2,5.803019E-2,6.84541E-3,9.139153E-2,2.4356252E-2,-2.0224684E-1],"split_indices":[0,1,2,7,7,2,1,0,0,0,0,0,0,0,0],"split_type":[0,0,0,0,0,0,0,0,0,0,0,0,0,0,0],"sum_hessian":[6E2,1.77E2,4.23E2,1.11E2,6.6E1,4.12E2,1.1E1,4E0,1.07E2,6E1,6E0,4.02E2,1E1,7E0,4E0],"tree_param":{"num_deleted":"0","num_feature":"10","num_nodes":"15","size_leaf_vector":"0"}},{"base_weights":[-4.6597823E-4,-1.2704347E-1,5.709345E-3,-2.9078132E-2,-3.68322E-1,4.4337254E-2,-2.2379734E-2,4.1759014E-4,-1.2354796E-1,-4.4861358E-1,-8.496493E-2,7.314772E-2,-9.0696014E-2,-8.859734E-2,1.5832193E-2],"categories":[],"categories_nodes":[],"categories_segments":[],"categories_sizes":[],"default_left":[1,1,1,1,1,1,1,0,0,0,0,0,0,0,0],"id":25,"left_children":[1,3,5,7,9,11,13,-1,-1,-1,-1,-1,-1,-1,-1],"loss_changes":[4.7050112E-1,6.5112406E-1,6.237951E-1,5.8567166E-2,1.4389312E-1,9.481041E-1,8.439935E-1,0E0,0E0,0E0,0E0,0E0,0E0,0E0,0E0],"parents":[2147483647,0,0,1,1,2,2,3,3,4,4,5,5,6,6],"right_children":[2,4,6,8,10,12,14,-1,-1,-1,-1,-1,-1,-1,-1],"split_conditions":[-2.2614799E0,-1.5079075E0,5.7600908E-2,3.9731512E0,1.0936991E0,1.6583413E0,-5.2519524E-1,1.2527705E-4,-3.706439E-2,-1.3458408E-1,-2.5489481E-2,2.1944318E-2,-2.7208805E-2,-2.6579203E-2,4.749658E-3],"split_indices":[3,4,1,0,7,6,9,0,0,0,0,0,0,0,0],"split_type":[0,0,0,0,0,0,0,0,0,0,0,0,0,0,0],"sum_hessian":[6E2,2.7E1,5.73E2,2E1,7E0,2.41E2,3.32E2,1.6E1,4E0,5E0,2E0,1.99E2,4.2E1,1.21E2,2.11E2],"tree_param":{"num_deleted":"0","num_feature":"10","num_nodes":"15","size_leaf_vector":"0"}},{"base_weights":[-6.9907284E-4,-5.4975697E-3,1.3209262E-1,3.7908232E-1,-9.494065E-3,-2.5380987E-1,2.3782322E-1,-2.4557065E-2,4.647216E-1,-2.2648892E-3,-1.9143492E-1,-3.1281912E-1,-1.1019734E-1,9.999692E-2,3.0391055E-1],"categories":[],"categories_nodes":[],"categories_segments":[],"categories_sizes":[],"default_left":[1,1,1,1,1,1,1,0,0,0,0,0,0,0,0],"id":26,"left_children":[1,3,5,7,9,11,13,-1,-1,-1,-1,-1,-1,-1,-1],"loss_changes":[3.836837E-1,8.9657974E-1,9.171975E-1,2.1881658E-1,7.571691E-1,7.900506E-3,1.2445563E-1,0E0,0E0,0E0,0E0,0E0,0E0,0E0,0E0],"parents":[2147483647,0,0,1,1,2,2,3,3,4,4,5,5,6,6],"right_children":[2,4,6,8,10,12,14,-1,-1,-1,-1,-1,-1,-1,-1],"split_conditions":[1.508534E0,-9.1136736E-1,-4.7652003E-1,3.046096E-1,1.1424943E0,-7.86363E-1,-8.566563E-1,-7.3671197E-3,1.3941649E-1,-6.7946676E-4,-5.743048E-2,-9.384574E-2,-3.3059206E-2,2.9999075E-2,9.117317E-2],"split_indices":[1,0,9,1,1,0,0,0,0,0,0,0,0,0,0],"split_type":[0,0,0,0,0,0,0,0,0,0,0,0,0,0,0],"sum_hessian":[6E2,5.8E2,2E1,5E0,5.75E2,4E0,1.6E1,1E0,4E0,5.54E2,2.1E1,2E0,2E0,6E0,1E1],"tree_param":{"num_deleted":"0","num_feature":"10","num_nodes":"15","size_leaf_vector":"0"}},{"base_weights":[-3.7584978E-4,-3.7609473E-2,1.5256134E-2,-5.897205E-2,9.548836E-2,4.294019E-3,1.7013839E-1,-4.4185645E-3,-1.2790118E-1,-1.0962182E-1,1.2844074E-1,-1.4494994E-2,7.6648094E-2,3.138671E-1,-1.6816294E-1],"categories":[],"categories_nodes":[],"categories_segments":[],"categories_sizes":[],"default_left":[1,1,1,1,1,1,1,0,0,0,0,0,0,0,0],"id":27,"left_children":[1,3,5,7,9,11,13,-1,-1,-1,-1,-1,-1,-1,-1],"loss_changes":[3.5037702E-1,5.117408E-1,7.1915233E-1,5.785248E-1,1.8305165E-1,5.4081726E-1,1.4142418E0,0E0,0E0,0E0,0E0,0E0,0E0,0E0,0E0],"parents":[2147483647,0,0,1,1,2,2,3,3,4,4,5,5,6,6],"right_children":[2,4,6,8,10,12,14,-1,-1,-1,-1,-1,-1,-1,-1],"split_conditions":[-6.3815844E-1,1.3498037E0,1.0421348E0,-7.417346E-1,-4.7652003E-1,6.916849E-1,-4.6190578E-1,-1.3255693E-3,-3.8370356E-2,-3.288655E-2,3.8532224E-2,-4.3484983E-3,2.2994429E-2,9.416013E-2,-5.0448883E-2],"split_indices":[0,4,1,6,9,9,0,0,0,0,0,0,0,0,0],"split_type":[0,0,0,0,0,0,0,0,0,0,0,0,0,0,0],"sum_hessian":[6E2,1.77E2,4.23E2,1.53E2,2.4E1,3.96E2,2.7E1,8.6E1,6.7E1,3E0,2.1E1,3.15E2,8.1E1,1.9E1,8E0],"tree_param":{"num_deleted":"0","num_feature":"10","num_nodes":"15","size_leaf_vector":"0"}},{"base_weights":[-2.1598792E-4,-6.354276E-2,8.659764E-3,-9.7931325E-2,1.05352126E-1,1.6849428E-1,-6.9437255E-3,2.0430404E-1,-1.114109E-1,-1.0224711E-1,1.7785661E-1,-9.1579966E-2,2.8160396E-1,-5.273533E-2,1.886431E-2],"categories":[],"categories_nodes":[],"categories_segments":[],"categories_sizes":[],"default_left":[1,1,1,1,1,1,1,0,0,0,0,0,0,0,0],"id":28,"left_children":[1,3,5,7,9,11,13,-1,-1,-1,-1,-1,-1,-1,-1],"loss_changes":[3.38356E-1,4.4011316E-1,1.3179895E0,2.7535003E-1,2.1385969E-1,1.4083844E0,5.706182E-1,0E0,0E0,0E0,0E0,0E0,0E0,0E0,0E0],"parents":[2147483647,0,0,1,1,2,2,3,3,4,4,5,5,6,6],"right_children":[2,4,6,8,10,12,14,-1,-1,-1,-1,-1,-1,-1,-1],"split_conditions":[-1.122886E0,6.916849E-1,-7.2621083E-1,-5.586201E-1,-5.586201E-1,-1.3913872E0,-6.2198326E-2,6.1291214E-2,-3.342327E-2,-3.0674135E-2,5.3356986E-2,-2.7473992E-2,8.4481195E-2,-1.58206E-2,5.659293E-3],"split_indices":[3,9,3,8,8,1,5,0,0,0,0,0,0,0,0],"split_type":[0,0,0,0,0,0,0,0,0,0,0,0,0,0,0],"sum_hessian":[6E2,7.3E1,5.27E2,6.1E1,1.2E1,4.6E1,4.81E2,2E0,5.9E1,3E0,9E0,1.4E1,3.2E1,1.73E2,3.08E2],"tree_param":{"num_deleted":"0","num_feature":"10","num_nodes":"15","size_leaf_vector":"0"}},{"base_weights":[1.0869012E-5,-1.7987918E-2,3.148815E-2,-2.7827498E-2,1.9548938E-1,-1.0565993E-2,1.6340426E-1,-8.7751925E-2,-4.7443444E-3,2.097928E-1,-1.6682625E-2,4.420598E-1,-1.8731516E-2,2.2207685E-1,-1.1109558E-1],"categories":[],"categories_nodes":[],"categories_segments":[],"categories_sizes":[],"default_left":[1,1,1,1,1,1,1,0,0,0,0,0,0,0,0],"id":29,"left_children":[1,3,5,7,9,11,13,-1,-1,-1,-1,-1,-1,-1,-1],"loss_changes":[3.410647E-1,8.099419E-1,1.216655E0,5.0723445E-1,5.5091262E-2,6.2550014E-1,8.7826955E-1,0E0,0E0,0E0,0E0,0E0,0E0,0E0,0E0],"parents":[2147483647,0,0,1,1,2,2,3,3,4,4,5,5,6,6],"right_children":[2,4,6,8,10,12,14,-1,-1,-1,-1,-1,-1,-1,-1],"split_conditions":[1.4143343E-1,1.4589987E0,3.61107E-2,-5.2519524E-1,-1.21738195E-1,-9.201627E-1,1.0758244E-1,-2.6325578E-2,-1.4233034E-3,6.293784E-2,-5.004788E-3,1.3261794E-1,-5.619455E-3,6.6623054E-2,-3.3328675E-2],"split_indices":[7,5,8,9,7,0,9,0,0,0,0,0,0,0,0],"split_type":[0,0,0,0,0,0,0,0,0,0,0,0,0,0,0],"sum_hessian":[6E2,3.82E2,2.18E2,3.66E2,1.6E1,1.66E2,5.2E1,1.01E2,2.65E2,1.5E1,1E0,2E0,1.64E2,4.3E1,9E0],"tree_param":{"num_deleted":"0","num_feature":"10","num_nodes":"15","size_leaf_vector":"0"}},{"base_weights":[3.2454586E-4,1.7167872E-2,-3.181767E-2,-9.198646E-2,3.435257E-2,-1.14545755E-1,2.013596E-2,-4.906987E-2,-6.1617637E-1,1.7924236E-2,1.6152848E-1,-1.2644543E-1,2.3302753E-1,-1.2874821E-1,5.7522874E-2],"categories":[],"categories_nodes":[],"categories_segments":[],"categories_sizes":[],"default_left":[1,1,1,1,1,1,1,0,0,0,0,0,0,0,0],"id":30,"left_children":[1,3,5,7,9,11,13,-1,-1,-1,-1,-1,-1,-1,-1],"loss_changes":[3.259167E-1,7.440947E-1,8.919975E-1,1.1845722E0,7.116412E-1,3.6034572E-1,7.198949E-1,0E0,0E0,0E0,0E0,0E0,0E0,0E0,0E0],"parents":[2147483647,0,0,1,1,2,2,3,3,4,4,5,5,6,6],"right_children":[2,4,6,8,10,12,14,-1,-1,-1,-1,-1,-1,-1,-1],"split_conditions":[5.649048E-1,-7.0630914E-1,7.682674E-1,-7.7125585E-1,3.6804515E-1,2.8250914E0,-1.6079424E-1,-1.4720961E-2,-1.8485291E-1,5.377271E-3,4.8458546E-2,-3.793363E-2,6.990826E-2,-3.8624465E-2,1.7256863E-2],"split_indices":[3,6,3,6,3,7,4,0,0,0,0,0,0,0,0],"split_type":[0,0,0,0,0,0,0,0,0,0,0,0,0,0,0],"sum_hessian":[6E2,3.94E2,2.06E2,5.3E1,3.41E2,7.9E1,1.27E2,5E1,3E0,3.03E2,3.8E1,7.7E1,2E0,2.5E1,1.02E2],"tree_param":{"num_deleted":"0","num_feature":"10","num_nodes":"15","size_leaf_vector":"0"}},{"base_weights":[2.3308587E-6,-4.713673E-2,9.392578E-3,-2.0207103E-1,-1.5219831E-2,7.111082E-3,3.8651103E-1,1.3820326E-1,-2.3197587E-1,-8.428537E-2,8.3880074E-2,1.5063884E-2,-8.9974664E-2],"categories":[],"categories_nodes":[],"categories_segments":[],"categories_sizes":[],"default_left":[1,1,1,1,1,1,0,0,0,0,0,0,0],"id":31,"left_children":[1,3,5,7,9,11,-1,-1,-1,-1,-1,-1,-1],"loss_changes":[2.6647386E-1,4.9142683E-1,4.291694E-1,2.0504922E-1,5.8199847E-1,3.874072E-1,0E0,0E0,0E0,0E0,0E0,0E0,0E0],"parents":[2147483647,0,0,1,1,2,2,3,3,4,4,5,5],"right_children":[2,4,6,8,10,12,-1,-1,-1,-1,-1,-1,-1],"split_conditions":[-1.1571107E0,-7.4169385E-1,3.813391E0,-4.7652003E-1,7.77806E-2,1.6583413E0,1.1595331E-1,4.146098E-2,-6.959277E-2,-2.5285613E-2,2.5164023E-2,4.5191655E-3,-2.6992401E-2],"split_indices":[7,0,6,9,3,6,0,0,0,0,0,0,0],"split_type":[0,0,0,0,0,0,0,0,0,0,0,0,0],"sum_hessian":[6E2,9.9E1,5.01E2,1.6E1,8.3E1,4.99E2,2E0,1E0,1.5E1,4.9E1,3.4E1,4.62E2,3.7E1],"tree_param":{"num_deleted":"0","num_feature":"10","num_nodes":"13","size_leaf_vector":"0"}},{"base_weights":[1.1015402E-4,2.5077473E-2,-1.7142855E-2,-1.9999458E-2,8.099077E-2,2.2006652E-1,-2.3929456E-2,2.3664208E-2,-1.6401038E-1,1.2097794E-1,-9.4239525E-2,9.045318E-2,2.913999E-1,-7.491774E-2,1.2179578E-2],"categories":[],"categories_nodes":[],"categories_segments":[],"categories_sizes":[],"default_left":[1,1,1,1,1,1,1,0,0,0,0,0,0,0,0],"id":32,"left_children":[1,3,5,7,9,11,13,-1,-1,-1,-1,-1,-1,-1,-1],"loss_changes":[2.593175E-1,6.216381E-1,5.7837117E-1,8.653432E-1,7.8216684E-1,6.6099524E-2,6.397873E-1,0E0,0E0,0E0,0E0,0E0,0E0,0E0,0E0],"parents":[2147483647,0,0,1,1,2,2,3,3,4,4,5,5,6,6],"right_children":[2,4,6,8,10,12,14,-1,-1,-1,-1,-1,-1,-1,-1],"split_conditions":[-8.9164E-3,-3.8506982E-1,-1.3823837E0,-5.8501077E-1,2.852813E-1,-4.137739E-1,3.9426544E-1,7.099263E-3,-4.9203116E-2,3.6293384E-2,-2.827186E-2,2.7135955E-2,8.741997E-2,-2.2475323E-2,3.6538735E-3],"split_indices":[1,1,5,1,3,0,5,0,0,0,0,0,0,0,0],"split_type":[0,0,0,0,0,0,0,0,0,0,0,0,0,0,0],"sum_hessian":[6E2,2.45E2,3.55E2,1.36E2,1.09E2,9E0,3.46E2,1.05E2,3.1E1,8.9E1,2E1,4E0,5E0,1.43E2,2.03E2],"tree_param":{"num_deleted":"0","num_feature":"10","num_nodes":"15","size_leaf_vector":"0"}},{"base_weights":[1.7968712E-4,7.96258E-3,-5.4510504E-2,1.2339437E-1,-1.5153592E-3,2.4143656E-1,-6.592599E-2,6.0134463E-2,5.541868E-1,-3.043997E-1,6.759876E-3,-3.8584656E-1,-5.612367E-2],"categories":[],"categories_nodes":[],"categories_segments":[],"categories_sizes":[],"default_left":[1,1,1,1,1,0,1,0,0,0,0,0,0],"id":33,"left_children":[1,3,5,7,9,-1,11,-1,-1,-1,-1,-1,-1],"loss_changes":[2.562484E-1,5.767542E-1,2.6929548E-1,1.0567499E0,1.2252E0,0E0,2.0727023E-1,0E0,0E0,0E0,0E0,0E0,0E0],"parents":[2147483647,0,0,1,1,2,2,3,3,4,4,6,6],"right_children":[2,4,6,8,10,-1,12,-1,-1,-1,-1,-1,-1],"split_conditions":[8.525443E-1,-5.8501077E-1,-2.9794836E0,3.61107E-2,-4.683137E-1,7.243097E-2,-2.905151E0,1.804034E-2,1.6625606E-1,-9.131991E-2,2.0279628E-3,-1.1575397E-1,-1.6837101E-2],"split_indices":[0,1,5,8,1,0,5,0,0,0,0,0,0],"split_type":[0,0,0,0,0,0,0,0,0,0,0,0,0],"sum_hessian":[6E2,5.26E2,7.4E1,3.9E1,4.87E2,2E0,7.2E1,3.5E1,4E0,1.2E1,4.75E2,1E0,7.1E1],"tree_param":{"num_deleted":"0","num_feature":"10","num_nodes":"13","size_leaf_vector":"0"}},{"base_weights":[1.8374961E-4,-2.8475096E-2,1.360403E-2,-5.2630906E-3,-3.7621662E-1,-1.6673078E-3,1.04483806E-1,6.36494E-2,-3.8275886E-2,-2.50129E-1,-6.7110306E-1,9.796956E-3,-1.296933E-1,7.196253E-2,4.413211E-1],"categories":[],"categories_nodes":[],"categories_segments":[],"categories_sizes":[],"default_left":[1,1,1,1,1,1,1,0,0,0,0,0,0,0,0],"id":34,"left_children":[1,3,5,7,9,11,13,-1,-1,-1,-1,-1,-1,-1,-1],"loss_changes":[2.3153783E-1,1.5478014E0,5.6919503E-1,4.142101E-1,2.7831578E-1,5.179094E-1,6.1454976E-1,0E0,0E0,0E0,0E0,0E0,0E0,0E0,0E0],"parents":[2147483647,0,0,1,1,2,2,3,3,4,4,5,5,6,6],"right_children":[2,4,6,8,10,12,14,-1,-1,-1,-1,-1,-1,-1,-1],"split_conditions":[-5.2519524E-1,9.798964E-1,9.841753E-1,-5.586201E-1,-3.3620888E-1,7.889023E-1,-2.4282584E-1,1.9094821E-2,-1.1482766E-2,-7.503871E-2,-2.0133093E-1,2.9390869E-3,-3.890799E-2,2.158876E-2,1.3239634E-1],"split_indices":[9,1,1,8,0,1,6,0,0,0,0,0,0,0,0],"split_type":[0,0,0,0,0,0,0,0,0,0,0,0,0,0,0],"sum_hessian":[6E2,1.91E2,4.09E2,1.8E2,1.1E1,3.51E2,5.8E1,5.8E1,1.22E2,9E0,2E0,3.23E2,2.8E1,5.4E1,4E0],"tree_param":{"num_deleted":"0","num_feature":"10","num_nodes":"15","size_leaf_vector":"0"}},{"base_weights":[-1.2219766E-4,-7.30735E-3,4.6762448E-2,-4.427067E-2,5.316826E-3,-9.01186E-2,1.0023662E-1,-2.9402582E-2,-5.164158E-1,-2.5251105E-3,1.03022486E-1,8.861287E-2,-2.113469E-1,-1.0013367E-1,1.3429853E-1],"categories":[],"categories_nodes":[],"categories_segments":[],"categories_sizes":[],"default_left":[1,1,1,1,1,1,1,0,0,0,0,0,0,0,0],"id":35,"left_children":[1,3,5,7,9,11,13,-1,-1,-1,-1,-1,-1,-1,-1],"loss_changes":[2.0280258E-1,2.4381697E-1,5.946012E-1,9.1846204E-1,2.9907876E-1,5.1707625E-1,4.0929765E-1,0E0,0E0,0E0,0E0,0E0,0E0,0E0,0E0],"parents":[2147483647,0,0,1,1,2,2,3,3,4,4,5,5,6,6],"right_children":[2,4,6,8,10,12,14,-1,-1,-1,-1,-1,-1,-1,-1],"split_conditions":[1.4157381E0,-6.672453E-1,-1.1059966E0,-6.779797E-1,1.8203032E0,-6.6560176E-3,-6.7122084E-1,-8.820775E-3,-1.5492474E-1,-7.575332E-4,3.0906746E-2,2.6583862E-2,-6.340407E-2,-3.0040102E-2,4.0289562E-2],"split_indices":[7,0,2,0,8,6,9,0,0,0,0,0,0,0,0],"split_type":[0,0,0,0,0,0,0,0,0,0,0,0,0,0,0],"sum_hessian":[6E2,5.21E2,7.9E1,1.32E2,3.89E2,2.2E1,5.7E1,1.29E2,3E0,3.61E2,2.8E1,9E0,1.3E1,8E0,4.9E1],"tree_param":{"num_deleted":"0","num_feature":"10","num_nodes":"15","size_leaf_vector":"0"}},{"base_weights":[-3.520357E-4,2.6140365E-1,-1.6624114E-3,-4.002762E-3,1.365845E-1,8.636314E-4,-2.0428178E-1,2.704304E-1,4.0589076E-2],"categories":[],"categories_nodes":[],"categories_segments":[],"categories_sizes":[],"default_left":[1,0,1,1,1,0,0,0,0],"id":36,"left_children":[1,-1,3,5,7,-1,-1,-1,-1],"loss_changes":[2.0657651E-1,0E0,1.9435093E-1,5.752119E-1,1.1750941E-1,0E0,0E0,0E0,0E0],"parents":[2147483647,0,0,2,2,3,3,4,4],"right_children":[2,-1,4,6,8,-1,-1,-1,-1],"split_conditions":[-1.2722971E0,7.84211E-2,1.642608E0,1.4487042E0,4.0114224E-1,2.5908943E-4,-6.1284535E-2,8.112912E-2,1.2176723E-2],"split_indices":[8,0,3,3,7,0,0,0,0],"split_type":[0,0,0,0,0,0,0,0,0],"sum_hessian":[6E2,2E0,5.98E2,5.89E2,9E0,5.76E2,1.3E1,3E0,6E0],"tree_param":{"num_deleted":"0","num_feature":"10","num_nodes":"9","size_leaf_vector":"0"}},{"base_weights":[-6.2226514E-5,-1.7405719E-1,1.689505E-3,-3.2918984E-1,-7.719269E-2,6.308764E-2,-3.6817156E-3,-1.6593874E-2,-8.819392E-2,1.5388203E-2,2.0490362E-1,-1.1541861E-1,2.3188875E-3],"categories":[],"categories_nodes":[],"categories_segments":[],"categories_sizes":[],"default_left":[1,1,1,0,1,1,1,0,0,0,0,0,0],"id":37,"left_children":[1,3,5,-1,7,9,11,-1,-1,-1,-1,-1,-1],"loss_changes":[1.8347435E-1,6.4750016E-2,1.9678292E-1,0E0,1.8698294E-3,3.2154495E-1,3.6836603E-1,0E0,0E0,0E0,0E0,0E0,0E0],"parents":[2147483647,0,0,1,1,2,2,4,4,5,5,6,6],"right_children":[2,4,6,-1,8,10,12,-1,-1,-1,-1,-1,-1],"split_conditions":[-3.0033622E0,3.9153237E0,-1.7205439E0,-9.8756954E-2,-9.839715E-1,-2.0791192E0,-1.1567692E0,-4.9781622E-3,-2.6458178E-2,4.616461E-3,6.1471086E-2,-3.4625586E-2,6.956663E-4],"split_indices":[1,0,5,0,7,5,5,0,0,0,0,0,0],"split_type":[0,0,0,0,0,0,0,0,0,0,0,0,0],"sum_hessian":[6E2,5E0,5.95E2,1E0,4E0,4.7E1,5.48E2,1E0,3E0,3.6E1,1.1E1,2.7E1,5.21E2],"tree_param":{"num_deleted":"0","num_feature":"10","num_nodes":"13","size_leaf_vector":"0"}},{"base_weights":[-2.0668421E-4,-2.1534186E-2,1.2980229E-2,-7.285378E-2,-4.3694561E-4,2.7186593E-1,1.01387035E-2,-4.5405185E-1,-4.144356E-2,-8.659202E-2,4.5037832E-2,9.600366E-2,3.997264E-1,-1.599215E-1,1.5810724E-2],"categories":[],"categories_nodes":[],"categories_segments":[],"categories_sizes":[],"default_left":[1,1,1,1,1,1,1,0,0,0,0,0,0,0,0],"id":38,"left_children":[1,3,5,7,9,11,13,-1,-1,-1,-1,-1,-1,-1,-1],"loss_changes":[1.6930711E-1,2.4898961E-1,2.7089816E-1,7.8340805E-1,6.464327E-1,5.156812E-2,3.5846037E-1,0E0,0E0,0E0,0E0,0E0,0E0,0E0,0E0],"parents":[2147483647,0,0,1,1,2,2,3,3,4,4,5,5,6,6],"right_children":[2,4,6,8,10,12,14,-1,-1,-1,-1,-1,-1,-1,-1],"split_conditions":[-5.203254E-1,-4.7652003E-1,-9.196779E-1,-1.4747049E0,2.9955274E-1,7.4742067E-1,-7.9501987E-1,-1.3621557E-1,-1.2433069E-2,-2.5977606E-2,1.351135E-2,2.8801098E-2,1.1991792E-1,-4.7976453E-2,4.7432175E-3],"split_indices":[6,9,0,2,1,7,0,0,0,0,0,0,0,0,0],"split_type":[0,0,0,0,0,0,0,0,0,0,0,0,0,0,0],"sum_hessian":[6E2,2.29E2,3.71E2,6.6E1,1.63E2,3E0,3.68E2,4E0,6.2E1,5.6E1,1.07E2,2E0,1E0,1.1E1,3.57E2],"tree_param":{"num_deleted":"0","num_feature":"10","num_nodes":"15","size_leaf_vector":"0"}},{"base_weights":[-2.3723896E-4,-1.4229655E-1,1.6764171E-3,-2.681507E-1,-5.5653382E-2,9.748711E-3,-3.35368E-2,-3.8574964E-1,-1.6476393E-2,-2.0511284E-2,-8.395839E-2,-1.353815E-2,3.387521E-2,-5.6254867E-2,2.3018521E-1],"categories":[],"categories_nodes":[],"categories_segments":[],"categories_sizes":[],"default_left":[1,1,1,1,1,1,1,0,0,0,0,0,0,0,0],"id":39,"left_children":[1,3,5,7,9,11,13,-1,-1,-1,-1,-1,-1,-1,-1],"loss_changes":[1.6362199E-1,7.2311714E-2,1.6917229E-1,8.243413E-2,4.2460896E-3,2.723845E-1,6.779784E-1,0E0,0E0,0E0,0E0,0E0,0E0,0E0,0E0],"parents":[2147483647,0,0,1,1,2,2,3,3,4,4,5,5,6,6],"right_children":[2,4,6,8,10,12,14,-1,-1,-1,-1,-1,-1,-1,-1],"split_conditions":[-3.2073522E0,-9.839715E-1,7.881243E-1,3.0905027E0,7.4742067E-1,-6.2198326E-2,-1.12932436E-1,-1.157249E-1,-4.942918E-3,-6.1533856E-3,-2.5187517E-2,-4.061445E-3,1.0162563E-2,-1.6876461E-2,6.9055565E-2],"split_indices":[3,7,1,0,7,5,6,0,0,0,0,0,0,0,0],"split_type":[0,0,0,0,0,0,0,0,0,0,0,0,0,0,0],"sum_hessian":[6E2,7E0,5.93E2,2E0,5E0,4.83E2,1.1E2,1E0,1E0,3E0,2E0,2.46E2,2.37E2,1.02E2,8E0],"tree_param":{"num_deleted":"0","num_feature":"10","num_nodes":"15","size_leaf_vector":"0"}},{"base_weights":[-3.220254E-4,-2.7371466E-3,1.09126315E-1,1.3801325E-3,-2.1920691E-1,-7.948518E-2,1.314677E-1,-1.1535375E-1,5.116484E-3,1.3078079E-2,-6.2897515E-1,2.513309E-1,4.0119734E-2],"categories":[],"categories_nodes":[],"categories_segments":[],"categories_sizes":[],"default_left":[1,1,1,1,1,0,1,0,0,0,0,0,0],"id":40,"left_children":[1,3,5,7,9,-1,11,-1,-1,-1,-1,-1,-1],"loss_changes":[1.5916163E-1,5.252585E-1,6.52297E-2,2.531262E-1,1.055239E0,0E0,1.2130779E-1,0E0,0E0,0E0,0E0,0E0,0E0],"parents":[2147483647,0,0,1,1,2,2,3,3,4,4,6,6],"right_children":[2,4,6,8,10,-1,12,-1,-1,-1,-1,-1,-1],"split_conditions":[1.5834911E0,1.4487042E0,-8.1083226E-1,-1.600347E0,-1.18275404E-1,-2.3845555E-2,4.0114224E-1,-3.4606125E-2,1.5349453E-3,3.9234236E-3,-1.8869255E-1,7.539928E-2,1.203592E-2],"split_indices":[3,3,7,7,7,0,7,0,0,0,0,0,0],"split_type":[0,0,0,0,0,0,0,0,0,0,0,0,0],"sum_hessian":[6E2,5.88E2,1.2E1,5.78E2,1E1,1E0,1.1E1,1.7E1,5.61E2,7E0,3E0,4E0,7E0],"tree_param":{"num_deleted":"0","num_feature":"10","num_nodes":"13","size_leaf_vector":"0"}},{"base_weights":[-4.820695E-4,-1.9176623E-3,1.7102413E-1,-1.0466737E-2,2.9178722E-2,-3.6108367E-2,1.6795285E-2,1.20644845E-1,-1.7957186E-2],"categories":[],"categories_nodes":[],"categories_segments":[],"categories_sizes":[],"default_left":[1,1,0,1,1,0,0,0,0],"id":41,"left_children":[1,3,-1,5,7,-1,-1,-1,-1],"loss_changes":[1.48302E-1,1.5901506E-1,0E0,3.2845744E-1,5.583291E-1,0E0,0E0,0E0,0E0],"parents":[2147483647,0,0,1,1,3,3,4,4],"right_children":[2,4,-1,6,8,-1,-1,-1,-1],"split_conditions":[2.8250914E0,6.916849E-1,5.1307242E-2,1.1712962E-1,-1.13758534E-1,-1.0832511E-2,5.0385855E-3,3.6193457E-2,-5.3871563E-3],"split_indices":[7,9,0,4,3,0,0,0,0],"split_type":[0,0,0,0,0,0,0,0,0],"sum_hessian":[6E2,5.96E2,4E0,4.68E2,1.28E2,2.41E2,2.27E2,4.3E1,8.5E1],"tree_param":{"num_deleted":"0","num_feature":"10","num_nodes":"9","size_leaf_vector":"0"}},{"base_weights":[-2.1045607E-4,3.6538588E-3,-6.2806346E-2,-2.7148926E-3,1.5440671E-1,-4.405543E-1,1.4675649E-4,1.8367613E-2,-2.7300375E-2,-1.7181113E-1,1.7704439E-1,-5.5081975E-1,-1.8343742E-1,-1.08977534E-1,7.4803025E-2],"categories":[],"categories_nodes":[],"categories_segments":[],"categories_sizes":[],"default_left":[1,1,1,1,1,1,1,0,0,0,0,0,0,0,0],"id":42,"left_children":[1,3,5,7,9,11,13,-1,-1,-1,-1,-1,-1,-1,-1],"loss_changes":[1.456055E-1,5.4480016E-1,8.3237886E-1,2.8298777E-1,2.0026892E-1,4.0714502E-2,2.6070303E-1,0E0,0E0,0E0,0E0,0E0,0E0,0E0,0E0],"parents":[2147483647,0,0,1,1,2,2,3,3,4,4,5,5,6,6],"right_children":[2,4,6,8,10,12,14,-1,-1,-1,-1,-1,-1,-1,-1],"split_conditions":[1.2207466E0,1.0350988E0,1.304838E0,2.622257E-1,-9.1459686E-1,4.0114224E-1,-1.1571107E0,5.510284E-3,-8.190113E-3,-5.1543344E-2,5.311332E-2,-1.6524594E-1,-5.503123E-2,-3.2693263E-2,2.2440908E-2],"split_indices":[2,2,2,3,9,7,7,0,0,0,0,0,0,0,0],"split_type":[0,0,0,0,0,0,0,0,0,0,0,0,0,0,0],"sum_hessian":[6E2,5.66E2,3.4E1,5.44E2,2.2E1,4E0,3E1,2.93E2,2.51E2,1E0,2.1E1,2E0,2E0,1.2E1,1.8E1],"tree_param":{"num_deleted":"0","num_feature":"10","num_nodes":"15","size_leaf_vector":"0"}},{"base_weights":[-5.3274736E-4,-9.758391E-3,3.363513E-2,3.5340902E-3,-7.941552E-2,8.931042E-2,3.40866E-3,-1.1204804E-1,1.09022735E-2,-2.4137212E-2,-1.5887961E-1,-3.5098884E-2,1.4094853E-1,-1.5269078E-1,4.5294948E-2],"categories":[],"categories_nodes":[],"categories_segments":[],"categories_sizes":[],"default_left":[1,1,1,1,1,1,1,0,0,0,0,0,0,0,0],"id":43,"left_children":[1,3,5,7,9,11,13,-1,-1,-1,-1,-1,-1,-1,-1],"loss_changes":[1.8977584E-1,4.3916488E-1,2.1510261E-1,3.410221E-1,3.3000576E-1,2.9403892E-1,5.56144E-1,0E0,0E0,0E0,0E0,0E0,0E0,0E0,0E0],"parents":[2147483647,0,0,1,1,2,2,3,3,4,4,5,5,6,6],"right_children":[2,4,6,8,10,12,14,-1,-1,-1,-1,-1,-1,-1,-1],"split_conditions":[7.682674E-1,5.808664E-1,-3.191169E-1,-9.749317E-1,4.4269568E-1,-7.2611165E-1,-6.2703475E-2,-3.3614412E-2,3.2706822E-3,-7.241164E-3,-4.7663886E-2,-1.0529665E-2,4.2284563E-2,-4.5807235E-2,1.3588485E-2],"split_indices":[3,3,7,8,7,0,4,0,0,0,0,0,0,0,0],"split_type":[0,0,0,0,0,0,0,0,0,0,0,0,0,0,0],"sum_hessian":[6E2,4.73E2,1.27E2,3.98E2,7.5E1,4.4E1,8.3E1,2.3E1,3.75E2,4.5E1,3E1,1.3E1,3.1E1,1.7E1,6.6E1],"tree_param":{"num_deleted":"0","num_feature":"10","num_nodes":"15","size_leaf_vector":"0"}},{"base_weights":[-5.155303E-4,5.765479E-3,-4.6024278E-2,-3.2564052E-3,8.0530144E-2,-8.5512064E-2,-3.0642746E-3,-2.4909047E-2,3.6567654E-2,1.9257325E-1,-1.9653535E-2,-3.6508727E-3,-1.7626612E-1,9.157909E-2,-5.4201752E-2],"categories":[],"categories_nodes":[],"categories_segments":[],"categories_sizes":[],"default_left":[1,1,1,1,1,1,1,0,0,0,0,0,0,0,0],"id":44,"left_children":[1,3,5,7,9,11,13,-1,-1,-1,-1,-1,-1,-1,-1],"loss_changes":[1.7205572E-1,3.5708234E-1,1.2357481E-1,4.0877694E-1,6.4360344E-1,2.8166738E-1,1.7919739E-1,0E0,0E0,0E0,0E0,0E0,0E0,0E0,0E0],"parents":[2147483647,0,0,1,1,2,2,3,3,4,4,5,5,6,6],"right_children":[2,4,6,8,10,12,14,-1,-1,-1,-1,-1,-1,-1,-1],"split_conditions":[5.48729E-1,3.492778E-1,4.2420632E-1,1.4143343E-1,-1.7021717E-1,1.5925494E-1,-1.18275404E-1,-7.4727144E-3,1.0970296E-2,5.7771977E-2,-5.8960607E-3,-1.0952619E-3,-5.2879836E-2,2.7473727E-2,-1.6260527E-2],"split_indices":[4,4,3,7,7,2,7,0,0,0,0,0,0,0,0],"split_type":[0,0,0,0,0,0,0,0,0,0,0,0,0,0,0],"sum_hessian":[6E2,5.28E2,7.2E1,4.72E2,5.6E1,3.7E1,3.5E1,3.06E2,1.66E2,2.6E1,3E1,2E1,1.7E1,1.2E1,2.3E1],"tree_param":{"num_deleted":"0","num_feature":"10","num_nodes":"15","size_leaf_vector":"0"}},{"base_weights":[-3.3989054E-4,-4.289695E-2,5.6251893E-3,2.6123887E-1,-5.0641805E-2,7.997941E-2,-1.6367891E-3,-3.007346E-2,-1.4325929E-1,2.168321E-2,2.93507E-1,-8.985822E-2,5.900405E-3],"categories":[],"categories_nodes":[],"categories_segments":[],"categories_sizes":[],"default_left":[1,1,1,0,1,1,1,0,0,0,0,0,0],"id":45,"left_children":[1,3,5,-1,7,9,11,-1,-1,-1,-1,-1,-1],"loss_changes":[1.5280892E-1,1.8753578E-1,2.8522912E-1,0E0,1.3475586E-1,5.786847E-1,3.210323E-1,0E0,0E0,0E0,0E0,0E0,0E0],"parents":[2147483647,0,0,1,1,2,2,4,4,5,5,6,6],"right_children":[2,4,6,-1,8,10,12,-1,-1,-1,-1,-1,-1],"split_conditions":[-1.122886E0,-1.6765285E0,-7.2621083E-1,7.837167E-2,-1.936867E-1,-7.5517815E-1,-4.683137E-1,-9.022038E-3,-4.2977788E-2,6.5049636E-3,8.805211E-2,-2.6957467E-2,1.7701215E-3],"split_indices":[3,7,3,0,1,3,1,0,0,0,0,0,0],"split_type":[0,0,0,0,0,0,0,0,0,0,0,0,0],"sum_hessian":[6E2,7.3E1,5.27E2,1E0,7.2E1,4.6E1,4.81E2,6E1,1.2E1,3.7E1,9E0,3.7E1,4.44E2],"tree_param":{"num_deleted":"0","num_feature":"10","num_nodes":"13","size_leaf_vector":"0"}},{"base_weights":[-7.862698E-5,-2.5274254E-2,1.17204925E-2,-4.5191595E-1,-1.8404784E-2,2.1585064E-2,-7.5225875E-2,-2.5573415E-1,-1.060813E-2,3.2671403E-2,-4.0963057E-2,4.0192217E-2,-1.0792148E-1],"categories":[],"categories_nodes":[],"categories_segments":[],"categories_sizes":[],"default_left":[1,1,1,0,1,1,1,0,0,0,0,0,0],"id":46,"left_children":[1,3,5,-1,7,9,11,-1,-1,-1,-1,-1,-1],"loss_changes":[1.7896526E-1,5.543966E-1,3.532761E-1,0E0,3.4885842E-1,2.5721383E-1,1.628315E-1,0E0,0E0,0E0,0E0,0E0,0E0],"parents":[2147483647,0,0,1,1,2,2,4,4,5,5,6,6],"right_children":[2,4,6,-1,8,10,12,-1,-1,-1,-1,-1,-1],"split_conditions":[-5.2519524E-1,-1.5393906E0,1.3070387E0,-1.3557479E-1,-1.600347E0,7.65683E-1,-9.839715E-1,-7.6720245E-2,-3.1824391E-3,9.801421E-3,-1.2288918E-2,1.2057666E-2,-3.2376446E-2],"split_indices":[9,2,6,0,7,2,7,0,0,0,0,0,0],"split_type":[0,0,0,0,0,0,0,0,0,0,0,0,0],"sum_hessian":[6E2,1.91E2,4.09E2,2E0,1.89E2,3.68E2,4.1E1,5E0,1.84E2,3.13E2,5.5E1,9E0,3.2E1],"tree_param":{"num_deleted":"0","num_feature":"10","num_nodes":"13","size_leaf_vector":"0"}},{"base_weights":[-4.5151994E-4,-1.6916193E-3,1.8505621E-1,7.803878E-2,-4.300561E-3,-9.220447E-3,1.7601797E-1,-1.582912E-1,-1.5961701E-3],"categories":[],"categories_nodes":[],"categories_segments":[],"categories_sizes":[],"default_left":[1,1,0,1,1,0,0,0,0],"id":47,"left_children":[1,3,-1,5,7,-1,-1,-1,-1],"loss_changes":[1.3857189E-1,1.2472676E-1,0E0,1.6406515E-1,2.4128883E-1,0E0,0E0,0E0,0E0],"parents":[2147483647,0,0,1,1,3,3,4,4],"right_children":[2,4,-1,6,8,-1,-1,-1,-1],"split_conditions":[1.7584774E0,-8.7916404E-1,5.5516865E-2,7.818643E-1,-8.6635196E-1,-2.7661342E-3,5.2805394E-2,-4.7487363E-2,-4.7885106E-4],"split_indices":[3,0,0,3,0,0,0,0,0],"split_type":[0,0,0,0,0,0,0,0,0],"sum_hessian":[6E2,5.97E2,3E0,1.8E1,5.79E2,1E1,8E0,9E0,5.7E2],"tree_param":{"num_deleted":"0","num_feature":"10","num_nodes":"9","size_leaf_vector":"0"}},{"base_weights":[-2.202326E-4,-3.2864034E-2,6.2829554E-3,-1.0400642E-1,5.360925E-3,3.000434E-2,-1.8133318E-2,-5.9411142E-2,-4.34767E-1,6.965293E-2,-1.1005228E-1,1.961709E-2,2.21858E-1,-1.5365224E-1,-2.251592E-3],"categories":[],"categories_nodes":[],"categories_segments":[],"categories_sizes":[],"default_left":[1,1,1,1,1,1,1,0,0,0,0,0,0,0,0],"id":48,"left_children":[1,3,5,7,9,11,13,-1,-1,-1,-1,-1,-1,-1,-1],"loss_changes":[1.2779205E-1,2.72499E-1,2.9129633E-1,4.904325E-1,4.973951E-1,5.0381994E-1,5.334181E-1,0E0,0E0,0E0,0E0,0E0,0E0,0E0,0E0],"parents":[2147483647,0,0,1,1,2,2,3,3,4,4,5,5,6,6],"right_children":[2,4,6,8,10,12,14,-1,-1,-1,-1,-1,-1,-1,-1],"split_conditions":[-1.1571107E0,-1.14365414E-1,2.622257E-1,-2.4373673E-1,7.9673207E-1,1.6231793E-1,3.6804515E-1,-1.7823344E-2,-1.304301E-1,2.089588E-2,-3.3015687E-2,5.8851275E-3,6.65574E-2,-4.6095673E-2,-6.754776E-4],"split_indices":[7,2,3,2,2,3,3,0,0,0,0,0,0,0,0],"split_type":[0,0,0,0,0,0,0,0,0,0,0,0,0,0,0],"sum_hessian":[6E2,9.9E1,5.01E2,3.4E1,6.5E1,2.54E2,2.47E2,3.1E1,3E0,4.2E1,2.3E1,2.42E2,1.2E1,2.5E1,2.22E2],"tree_param":{"num_deleted":"0","num_feature":"10","num_nodes":"15","size_leaf_vector":"0"}},{"base_weights":[-3.782893E-4,-1.4043503E-1,1.0323125E-3,-2.8847194E-1,-5.313325E-2,4.734617E-2,-3.0188668E-3,-1.2488365E-3,-6.579214E-2,1.0383017E-2,1.4606366E-1,8.0146675E-4,-8.662206E-2],"categories":[],"categories_nodes":[],"categories_segments":[],"categories_sizes":[],"default_left":[1,1,1,0,1,1,1,0,0,0,0,0,0],"id":49,"left_children":[1,3,5,-1,7,9,11,-1,-1,-1,-1,-1,-1],"loss_changes":[1.1888111E-1,6.221585E-2,1.1196788E-1,0E0,3.201834E-3,1.7363107E-1,1.7541566E-1,0E0,0E0,0E0,0E0,0E0,0E0],"parents":[2147483647,0,0,1,1,2,2,4,4,5,5,6,6],"right_children":[2,4,6,-1,8,10,12,-1,-1,-1,-1,-1,-1],"split_conditions":[-3.0033622E0,3.9153237E0,-1.7205439E0,-8.6541586E-2,-9.839715E-1,-9.9344355E-1,1.0433404E0,-3.7465096E-4,-1.9737644E-2,3.1149054E-3,4.38191E-2,2.4044003E-4,-2.598662E-2],"split_indices":[1,0,5,0,7,2,0,0,0,0,0,0,0],"split_type":[0,0,0,0,0,0,0,0,0,0,0,0,0],"sum_hessian":[6E2,5E0,5.95E2,1E0,4E0,4.7E1,5.48E2,1E0,3E0,3.5E1,1.2E1,5.25E2,2.3E1],"tree_param":{"num_deleted":"0","num_feature":"10","num_nodes":"13","size_leaf_vector":"0"}},{"base_weights":[-4.0701148E-4,1.8836446E-1,-1.3517651E-3,5.5342138E-2,2.2720456E-1,1.4638004E-2,-1.2459481E-2,-1.10156955E-2,5.552984E-2,2.4770694E-2,-3.4977056E-2],"categories":[],"categories_nodes":[],"categories_segments":[],"categories_sizes":[],"default_left":[1,1,1,0,0,1,1,0,0,0,0],"id":50,"left_children":[1,3,5,-1,-1,7,9,-1,-1,-1,-1],"loss_changes":[1.0743849E-1,2.9258132E-3,1.0657066E-1,0E0,0E0,2.586723E-1,2.976364E-1,0E0,0E0,0E0,0E0],"parents":[2147483647,0,0,1,1,2,2,5,5,6,6],"right_children":[2,4,6,-1,-1,8,10,-1,-1,-1,-1],"split_conditions":[-1.2722971E0,-8.112947E-1,-8.9164E-3,1.6602643E-2,6.816137E-2,-3.4383687E-1,-3.191169E-1,-3.3047087E-3,1.6658952E-2,7.4312086E-3,-1.0493117E-2],"split_indices":[8,0,1,0,0,1,7,0,0,0,0],"split_type":[0,0,0,0,0,0,0,0,0,0,0],"sum_hessian":[6E2,2E0,5.98E2,1E0,1E0,2.45E2,3.53E2,1.51E2,9.4E1,1.33E2,2.2E2],"tree_param":{"num_deleted":"0","num_feature":"10","num_nodes":"11","size_leaf_vector":"0"}},{"base_weights":[-1.2673713E-4,-3.9812555E-3,4.8758443E-2,1.7414725E-1,-5.906734E-3,-2.3068427E-3,1.8512477E-1,-8.161897E-4,2.0930317E-1,-7.262393E-3,1.4412594E-1,-5.8818817E-2,1.01490684E-1,3.164681E-1,-1.5667886E-1],"categories":[],"categories_nodes":[],"categories_segments":[],"categories_sizes":[],"default_left":[1,1,1,1,1,1,1,0,0,0,0,0,0,0,0],"id":51,"left_children":[1,3,5,7,9,11,13,-1,-1,-1,-1,-1,-1,-1,-1],"loss_changes":[1.1343983E-1,1.9241294E-1,3.0682483E-1,3.707683E-2,1.1352307E-1,1.9954108E-1,5.8830726E-1,0E0,0E0,0E0,0E0,0E0,0E0,0E0,0E0],"parents":[2147483647,0,0,1,1,2,2,3,3,4,4,5,5,6,6],"right_children":[2,4,6,8,10,12,14,-1,-1,-1,-1,-1,-1,-1,-1],"split_conditions":[1.8203032E0,-9.1136736E-1,1.4143343E-1,3.046096E-1,2.8250914E0,8.0414057E-1,8.0414057E-1,-2.4485693E-4,6.279095E-2,-2.1787179E-3,4.3237783E-2,-1.7645646E-2,3.0447206E-2,9.494043E-2,-4.700366E-2],"split_indices":[8,0,7,1,7,5,5,0,0,0,0,0,0,0,0],"split_type":[0,0,0,0,0,0,0,0,0,0,0,0,0,0,0],"sum_hessian":[6E2,5.57E2,4.3E1,5E0,5.52E2,3.2E1,1.1E1,1E0,4E0,5.48E2,4E0,2.1E1,1.1E1,8E0,3E0],"tree_param":{"num_deleted":"0","num_feature":"10","num_nodes":"15","size_leaf_vector":"0"}},{"base_weights":[1.8472633E-4,-2.8510809E-2,5.9006005E-3,1.7672269E-2,-8.096561E-2,3.8765363E-2,-5.6886054E-3,-1.0357487E-1,1.10970944E-1,-3.0406585E-1,-4.090055E-2,-2.4488679E-1,5.9205234E-2,2.3873325E-2,-3.537889E-2],"categories":[],"categories_nodes":[],"categories_segments":[],"categories_sizes":[],"default_left":[1,1,1,1,1,1,1,0,0,0,0,0,0,0,0],"id":52,"left_children":[1,3,5,7,9,11,13,-1,-1,-1,-1,-1,-1,-1,-1],"loss_changes":[9.8744296E-2,2.4368322E-1,1.9142053E-1,6.223525E-1,4.076742E-1,7.740121E-1,3.2734978E-1,0E0,0E0,0E0,0E0,0E0,0E0,0E0,0E0],"parents":[2147483647,0,0,1,1,2,2,3,3,4,4,5,5,6,6],"right_children":[2,4,6,8,10,12,14,-1,-1,-1,-1,-1,-1,-1,-1],"split_conditions":[-1.1571107E0,3.53873E-2,-3.191169E-1,-6.0502094E-1,1.0078116E-1,-8.417666E-1,2.233107E-1,-3.1072462E-2,3.3291284E-2,-9.121976E-2,-1.2270166E-2,-7.346604E-2,1.7761571E-2,7.1619977E-3,-1.0613667E-2],"split_indices":[7,4,7,3,4,0,1,0,0,0,0,0,0,0,0],"split_type":[0,0,0,0,0,0,0,0,0,0,0,0,0,0,0],"sum_hessian":[6E2,9.9E1,5.01E2,5.3E1,4.6E1,1.3E2,3.71E2,2.3E1,3E1,6E0,4E1,8E0,1.22E2,1.86E2,1.85E2],"tree_param":{"num_deleted":"0","num_feature":"10","num_nodes":"15","size_leaf_vector":"0"}},{"base_weights":[-1.3762007E-4,-3.6136765E-2,4.9079754E-3,-1.4297551E-2,-1.3751327E-1,4.6115644E-2,-2.553474E-3,-1.4028057E-1,1.7056407E-3,5.0430372E-2,-1.989394E-1,1.9052986E-2,2.0013818E-1,5.9574633E-3,-5.1040407E-2],"categories":[],"categories_nodes":[],"categories_segments":[],"categories_sizes":[],"default_left":[1,1,1,1,1,1,1,0,0,0,0,0,0,0,0],"id":53,"left_children":[1,3,5,7,9,11,13,-1,-1,-1,-1,-1,-1,-1,-1],"loss_changes":[1.09341264E-1,1.6186866E-1,1.6246134E-1,1.2523936E-1,1.6011304E-1,3.338158E-1,1.8517989E-1,0E0,0E0,0E0,0E0,0E0,0E0,0E0,0E0],"parents":[2147483647,0,0,1,1,2,2,3,3,4,4,5,5,6,6],"right_children":[2,4,6,8,10,12,14,-1,-1,-1,-1,-1,-1,-1,-1],"split_conditions":[-1.122886E0,-1.936867E-1,-4.477697E-1,-3.304944E-1,-5.586201E-1,1.0936991E0,6.8929836E-2,-4.2084172E-2,5.1169225E-4,1.5129113E-2,-5.968182E-2,5.715896E-3,6.0041457E-2,1.7872391E-3,-1.5312123E-2],"split_indices":[3,1,3,9,8,7,0,0,0,0,0,0,0,0,0],"split_type":[0,0,0,0,0,0,0,0,0,0,0,0,0,0,0],"sum_hessian":[6E2,7.3E1,5.27E2,6.1E1,1.2E1,8E1,4.47E2,6E0,5.5E1,3E0,9E0,6.9E1,1.1E1,3.81E2,6.6E1],"tree_param":{"num_deleted":"0","num_feature":"10","num_nodes":"15","size_leaf_vector":"0"}},{"base_weights":[-1.5271906E-4,-1.9819844E-3,8.273882E-2,1.1813797E-3,-1.6830978E-1,-5.0530434E-2,9.805545E-2,-7.8475714E-2,3.8771075E-3,-2.027674E-2,-4.2229843E-1,1.8441525E-1,3.1823643E-2],"categories":[],"categories_nodes":[],"categories_segments":[],"categories_sizes":[],"default_left":[1,1,1,1,1,0,1,0,0,0,0,0,0],"id":54,"left_children":[1,3,5,7,9,-1,11,-1,-1,-1,-1,-1,-1],"loss_changes":[9.129398E-2,3.1010437E-1,3.1490862E-2,1.2463515E-1,4.0502295E-1,0E0,6.276842E-2,0E0,0E0,0E0,0E0,0E0,0E0],"parents":[2147483647,0,0,1,1,2,2,3,3,4,4,6,6],"right_children":[2,4,6,8,10,-1,12,-1,-1,-1,-1,-1,-1],"split_conditions":[1.5834911E0,1.4487042E0,-8.1083226E-1,-1.427208E0,-1.18275404E-1,-1.5159131E-2,4.0114224E-1,-2.3542715E-2,1.1631323E-3,-6.0830223E-3,-1.2668954E-1,5.5324577E-2,9.547093E-3],"split_indices":[3,3,7,7,7,0,7,0,0,0,0,0,0],"split_type":[0,0,0,0,0,0,0,0,0,0,0,0,0],"sum_hessian":[6E2,5.88E2,1.2E1,5.78E2,1E1,1E0,1.1E1,1.8E1,5.6E2,7E0,3E0,4E0,7E0],"tree_param":{"num_deleted":"0","num_feature":"10","num_nodes":"13","size_leaf_vector":"0"}},{"base_weights":[-2.8233885E-4,-1.8152758E-2,8.086937E-3,-3.5686243E-1,-1.2709171E-2,2.2784094E-3,1.10424675E-1,-2.399071E-2,9.0087354E-2,-2.6130069E-2,2.7124874E-2,1.907183E-1,6.8394676E-2],"categories":[],"categories_nodes":[],"categories_segments":[],"categories_sizes":[],"default_left":[1,1,1,0,1,1,1,0,0,0,0,0,0],"id":55,"left_children":[1,3,5,-1,7,9,11,-1,-1,-1,-1,-1,-1],"loss_changes":[9.003385E-2,3.4947342E-1,2.4346535E-1,0E0,2.2250484E-1,2.7528453E-1,6.120017E-2,0E0,0E0,0E0,0E0,0E0,0E0],"parents":[2147483647,0,0,1,1,2,2,4,4,5,5,6,6],"right_children":[2,4,6,-1,8,10,12,-1,-1,-1,-1,-1,-1],"split_conditions":[-5.2519524E-1,-1.5393906E0,1.8203032E0,-1.0705873E-1,1.0642073E0,-1.2482763E-1,-1.5393906E0,-7.197213E-3,2.7026208E-2,-7.839021E-3,8.137463E-3,5.721549E-2,2.0518404E-2],"split_indices":[9,2,8,0,2,4,2,0,0,0,0,0,0],"split_type":[0,0,0,0,0,0,0,0,0,0,0,0,0],"sum_hessian":[6E2,1.91E2,4.09E2,2E0,1.89E2,3.88E2,2.1E1,1.71E2,1.8E1,1.81E2,2.07E2,6E0,1.5E1],"tree_param":{"num_deleted":"0","num_feature":"10","num_nodes":"13","size_leaf_vector":"0"}},{"base_weights":[-2.1294768E-4,3.190391E-3,-5.5340953E-2,-1.5641457E-3,1.1571353E-1,-3.1445578E-1,-1.1763047E-2,3.846037E-3,-4.3017387E-2,1.8924652E-1,4.459227E-2,-3.8173786E-1,-1.423551E-1,-2.662012E-2,1.3577634E-1],"categories":[],"categories_nodes":[],"categories_segments":[],"categories_sizes":[],"default_left":[1,1,1,1,1,1,1,0,0,0,0,0,0,0,0],"id":56,"left_children":[1,3,5,7,9,11,13,-1,-1,-1,-1,-1,-1,-1,-1],"loss_changes":[1.12935744E-1,3.035234E-1,3.9150983E-1,1.2239238E-1,1.1184552E-1,3.5541356E-3,7.156649E-2,0E0,0E0,0E0,0E0,0E0,0E0,0E0,0E0],"parents":[2147483647,0,0,1,1,2,2,3,3,4,4,5,5,6,6],"right_children":[2,4,6,8,10,12,14,-1,-1,-1,-1,-1,-1,-1,-1],"split_conditions":[1.2207466E0,1.0350988E0,1.304838E0,5.48729E-1,-1.18275404E-1,4.0114224E-1,1.2668383E0,1.1538111E-3,-1.2905217E-2,5.6773957E-2,1.3377681E-2,-1.1452136E-1,-4.270653E-2,-7.986036E-3,4.0732905E-2],"split_indices":[2,2,2,4,7,7,7,0,0,0,0,0,0,0,0],"split_type":[0,0,0,0,0,0,0,0,0,0,0,0,0,0,0],"sum_hessian":[6E2,5.66E2,3.4E1,5.44E2,2.2E1,4E0,3E1,4.82E2,6.2E1,1E1,1.2E1,2E0,2E0,2.8E1,2E0],"tree_param":{"num_deleted":"0","num_feature":"10","num_nodes":"15","size_leaf_vector":"0"}},{"base_weights":[-2.5901568E-4,1.5640235E-1,-1.0431978E-3,4.1204274E-2,1.9339925E-1,-6.1349366E-3,2.4123346E-2,-1.1912835E-2,3.8878113E-2,-7.510725E-2,5.2707907E-2],"categories":[],"categories_nodes":[],"categories_segments":[],"categories_sizes":[],"default_left":[1,1,1,0,0,1,1,0,0,0,0],"id":57,"left_children":[1,3,5,-1,-1,7,9,-1,-1,-1,-1],"loss_changes":[7.3996626E-2,4.817046E-3,7.690474E-2,0E0,0E0,1.302435E-1,2.9044148E-1,0E0,0E0,0E0,0E0],"parents":[2147483647,0,0,1,1,2,2,5,5,6,6],"right_children":[2,4,6,-1,-1,8,10,-1,-1,-1,-1],"split_conditions":[-1.2722971E0,-8.112947E-1,9.205599E-1,1.23612825E-2,5.8019776E-2,9.894482E-1,-1.1059966E0,-3.5738505E-3,1.1663434E-2,-2.2532174E-2,1.5812373E-2],"split_indices":[8,0,7,0,0,5,2,0,0,0,0],"split_type":[0,0,0,0,0,0,0,0,0,0,0],"sum_hessian":[6E2,2E0,5.98E2,1E0,1E0,4.98E2,1E2,4.42E2,5.6E1,2.2E1,7.8E1],"tree_param":{"num_deleted":"0","num_feature":"10","num_nodes":"11","size_leaf_vector":"0"}},{"base_weights":[-6.191927E-5,-1.5170976E-2,9.279869E-3,-3.117599E-2,2.423191E-2,-1.5765819E-1,1.1522831E-2,-2.100257E-2,-1.8574642E-1,-3.243397E-1,3.9947033E-2,-3.952328E-1,5.4365396E-4,1.6262138E-2,-6.7562945E-2],"categories":[],"categories_nodes":[],"categories_segments":[],"categories_sizes":[],"default_left":[1,1,1,1,1,1,1,0,0,0,0,0,0,0,0],"id":58,"left_children":[1,3,5,7,9,11,13,-1,-1,-1,-1,-1,-1,-1,-1],"loss_changes":[8.496929E-2,1.4580351E-1,1.4110684E-1,2.5399047E-1,3.79972E-1,1.8813857E-1,1.3902941E-1,0E0,0E0,0E0,0E0,0E0,0E0,0E0,0E0],"parents":[2147483647,0,0,1,1,2,2,3,3,4,4,5,5,6,6],"right_children":[2,4,6,8,10,12,14,-1,-1,-1,-1,-1,-1,-1,-1],"split_conditions":[-5.203254E-1,7.0067394E-1,-1.2066481E0,5.176135E-1,-2.0003057E-1,-8.1083226E-1,1.2207466E0,-6.300771E-3,-5.5723928E-2,-9.730191E-2,1.1984111E-2,-1.1856984E-1,1.6309619E-4,4.8786416E-3,-2.0268884E-2],"split_indices":[6,2,9,2,4,7,2,0,0,0,0,0,0,0,0],"split_type":[0,0,0,0,0,0,0,0,0,0,0,0,0,0,0],"sum_hessian":[6E2,2.29E2,3.71E2,1.63E2,6.6E1,4E0,3.67E2,1.54E2,9E0,2E0,6.4E1,1E0,3E0,3.47E2,2E1],"tree_param":{"num_deleted":"0","num_feature":"10","num_nodes":"15","size_leaf_vector":"0"}},{"base_weights":[-5.1112997E-4,-1.4566759E-3,1.4097577E-1,7.054464E-2,-3.1772943E-3,3.677994E-4,1.967894E-1,-3.446946E-2,1.9925407E-3],"categories":[],"categories_nodes":[],"categories_segments":[],"categories_sizes":[],"default_left":[1,1,0,1,1,0,0,0,0],"id":59,"left_children":[1,3,-1,5,7,-1,-1,-1,-1],"loss_changes":[8.0608554E-2,7.430843E-2,0E0,1.2396003E-1,9.470725E-2,0E0,0E0,0E0,0E0],"parents":[2147483647,0,0,1,1,3,3,4,4],"right_children":[2,4,-1,6,8,-1,-1,-1,-1],"split_conditions":[1.7584774E0,-9.1136736E-1,4.2292733E-2,3.9963368E-1,-8.064468E-1,1.10339824E-4,5.903682E-2,-1.0340838E-2,5.9776223E-4],"split_indices":[3,0,0,9,0,0,0,0,0],"split_type":[0,0,0,0,0,0,0,0,0],"sum_hessian":[6E2,5.97E2,3E0,1.3E1,5.84E2,9E0,4E0,8.2E1,5.02E2],"tree_param":{"num_deleted":"0","num_feature":"10","num_nodes":"9","size_leaf_vector":"0"}},{"base_weights":[-2.052126E-4,3.0974078E-3,-4.011938E-2,-3.1950397E-3,3.3282E-2,-6.401101E-2,1.0213553E-1,3.462184E-3,-1.024841E-1,-2.9720148E-2,1.05344884E-1,-1.1149012E-1,1.41758E-2,-1.8623565E-1,2.5473112E-1],"categories":[],"categories_nodes":[],"categories_segments":[],"categories_sizes":[],"default_left":[1,1,1,1,1,1,1,0,0,0,0,0,0,0,0],"id":60,"left_children":[1,3,5,7,9,11,13,-1,-1,-1,-1,-1,-1,-1,-1],"loss_changes":[7.93489E-2,1.0571018E-1,1.6287804E-1,3.0507097E-1,4.3898207E-1,1.5007007E-1,3.5546923E-1,0E0,0E0,0E0,0E0,0E0,0E0,0E0,0E0],"parents":[2147483647,0,0,1,1,2,2,3,3,4,4,5,5,6,6],"right_children":[2,4,6,8,10,12,14,-1,-1,-1,-1,-1,-1,-1,-1],"split_conditions":[1.7439528E0,5.571995E-1,1.8203032E0,3.3579022E-1,-5.264131E-1,-7.594572E-1,-2.9141462E-1,1.0386553E-3,-3.074523E-2,-8.916045E-3,3.1603467E-2,-3.344704E-2,4.25274E-3,-5.5870697E-2,7.641934E-2],"split_indices":[6,6,8,6,2,5,7,0,0,0,0,0,0,0,0],"split_type":[0,0,0,0,0,0,0,0,0,0,0,0,0,0,0],"sum_hessian":[6E2,5.55E2,4.5E1,4.6E2,9.5E1,3.9E1,6E0,4.32E2,2.8E1,5.1E1,4.4E1,2.4E1,1.5E1,2E0,4E0],"tree_param":{"num_deleted":"0","num_feature":"10","num_nodes":"15","size_leaf_vector":"0"}},{"base_weights":[-1.6971765E-4,2.3736102E-3,-4.136678E-2,-9.503204E-4,8.103311E-2,-2.4155402E-1,-7.744102E-3,-1.3617004E-2,1.2386603E-2,-1.3085811E-1,9.6612625E-2,1.5628938E-2,-7.689521E-2],"categories":[],"categories_nodes":[],"categories_segments":[],"categories_sizes":[],"default_left":[1,1,1,1,1,0,1,0,0,0,0,0,0],"id":61,"left_children":[1,3,5,7,9,-1,11,-1,-1,-1,-1,-1,-1],"loss_changes":[6.306955E-2,1.483241E-1,2.3370849E-1,9.2238024E-2,8.856928E-2,0E0,5.1306203E-2,0E0,0E0,0E0,0E0,0E0,0E0],"parents":[2147483647,0,0,1,1,2,2,3,3,4,4,6,6],"right_children":[2,4,6,8,10,-1,12,-1,-1,-1,-1,-1,-1],"split_conditions":[1.2207466E0,1.0350988E0,1.304838E0,-2.8120345E-1,-9.1459686E-1,-7.246621E-2,-7.348876E-2,-4.0851017E-3,3.715981E-3,-3.9257433E-2,2.8983789E-2,4.6886816E-3,-2.3068562E-2],"split_indices":[2,2,2,6,9,0,1,0,0,0,0,0,0],"split_type":[0,0,0,0,0,0,0,0,0,0,0,0,0],"sum_hessian":[6E2,5.66E2,3.4E1,5.44E2,2.2E1,4E0,3E1,2.79E2,2.65E2,1E0,2.1E1,2.3E1,7E0],"tree_param":{"num_deleted":"0","num_feature":"10","num_nodes":"13","size_leaf_vector":"0"}},{"base_weights":[-2.8767448E-4,-1.02327324E-1,7.40053E-4,-2.2058856E-1,-3.4557365E-2,4.0269732E-2,-2.953635E-3,1.6393125E-2,-5.139327E-2,-7.271498E-3,9.405659E-2,-4.3434154E-2,2.1333308E-3],"categories":[],"categories_nodes":[],"categories_segments":[],"categories_sizes":[],"default_left":[1,1,1,0,1,1,1,0,0,0,0,0,0],"id":62,"left_children":[1,3,5,-1,7,9,11,-1,-1,-1,-1,-1,-1],"loss_changes":[6.310197E-2,4.0464394E-2,8.714108E-2,0E0,5.1314845E-3,1.310957E-1,1.12526625E-1,0E0,0E0,0E0,0E0,0E0,0E0],"parents":[2147483647,0,0,1,1,2,2,4,4,5,5,6,6],"right_children":[2,4,6,-1,8,10,12,-1,-1,-1,-1,-1,-1],"split_conditions":[-3.0033622E0,3.9153237E0,-1.6854715E0,-6.617657E-2,-9.839715E-1,2.2800304E-1,-7.416593E-1,4.917938E-3,-1.5417982E-2,-2.1814494E-3,2.8216979E-2,-1.3030247E-2,6.399993E-4],"split_indices":[1,0,5,0,7,7,5,0,0,0,0,0,0],"split_type":[0,0,0,0,0,0,0,0,0,0,0,0,0],"sum_hessian":[6E2,5E0,5.95E2,1E0,4E0,5E1,5.45E2,1E0,3E0,2.7E1,2.3E1,6E1,4.85E2],"tree_param":{"num_deleted":"0","num_feature":"10","num_nodes":"13","size_leaf_vector":"0"}},{"base_weights":[-3.0624948E-4,-5.529883E-3,1.903991E-2,2.947556E-3,-4.9963675E-2,8.713346E-2,4.0852744E-3,-4.419259E-3,4.814821E-2,-2.39997E-3,-1.118679E-1,1.5010644E-1,4.7896206E-3,-5.1332656E-2,3.580901E-2],"categories":[],"categories_nodes":[],"categories_segments":[],"categories_sizes":[],"default_left":[1,1,1,1,1,1,1,0,0,0,0,0,0,0,0],"id":63,"left_children":[1,3,5,7,9,11,13,-1,-1,-1,-1,-1,-1,-1,-1],"loss_changes":[6.0840696E-2,1.7869586E-1,1.2998824E-1,1.3307373E-1,2.2350548E-1,1.185461E-1,1.8819293E-1,0E0,0E0,0E0,0E0,0E0,0E0,0E0,0E0],"parents":[2147483647,0,0,1,1,2,2,3,3,4,4,5,5,6,6],"right_children":[2,4,6,8,10,12,14,-1,-1,-1,-1,-1,-1,-1,-1],"split_conditions":[7.682674E-1,5.808664E-1,-3.2602602E-1,8.1408644E-1,-7.7420795E-1,5.7428145E-1,-4.7652003E-1,-1.3257777E-3,1.4444464E-2,-7.1999105E-4,-3.356037E-2,4.5031935E-2,1.4368863E-3,-1.5399798E-2,1.0742703E-2],"split_indices":[3,3,5,5,6,7,9,0,0,0,0,0,0,0,0],"split_type":[0,0,0,0,0,0,0,0,0,0,0,0,0,0,0],"sum_hessian":[6E2,4.73E2,1.27E2,3.98E2,7.5E1,2.2E1,1.05E2,3.43E2,5.5E1,4.3E1,3.2E1,1.2E1,1E1,3.8E1,6.7E1],"tree_param":{"num_deleted":"0","num_feature":"10","num_nodes":"15","size_leaf_vector":"0"}},{"base_weights":[-1.80021E-4,-2.2772765E-2,4.320884E-3,1.0588139E-1,-3.6660336E-2,3.1788975E-2,-5.363634E-3,3.412343E-1,4.3888763E-3,-1.08031824E-1,1.2019764E-2,5.869624E-2,-9.061827E-2,1.2308701E-3,-1.0103523E-1],"categories":[],"categories_nodes":[],"categories_segments":[],"categories_sizes":[],"default_left":[1,1,1,1,1,1,1,0,0,0,0,0,0,0,0],"id":64,"left_children":[1,3,5,7,9,11,13,-1,-1,-1,-1,-1,-1,-1,-1],"loss_changes":[6.121277E-2,1.82551E-1,1.3371015E-1,2.3736797E-1,3.1746626E-1,4.367863E-1,2.3482166E-1,0E0,0E0,0E0,0E0,0E0,0E0,0E0,0E0],"parents":[2147483647,0,0,1,1,2,2,3,3,4,4,5,5,6,6],"right_children":[2,4,6,8,10,12,14,-1,-1,-1,-1,-1,-1,-1,-1],"split_conditions":[-1.1571107E0,-9.18862E-1,-3.191169E-1,1.6944468E-1,-2.8710768E-1,8.4060323E-1,1.5678387E0,1.0237029E-1,1.3166629E-3,-3.240955E-2,3.6059292E-3,1.7608874E-2,-2.7185481E-2,3.6926105E-4,-3.031057E-2],"split_indices":[7,6,7,4,6,6,9,0,0,0,0,0,0,0,0],"split_type":[0,0,0,0,0,0,0,0,0,0,0,0,0,0,0],"sum_hessian":[6E2,9.9E1,5.01E2,9E0,9E1,1.3E2,3.71E2,2E0,7E0,3.6E1,5.4E1,1.07E2,2.3E1,3.48E2,2.3E1],"tree_param":{"num_deleted":"0","num_feature":"10","num_nodes":"15","size_leaf_vector":"0"}},{"base_weights":[-6.717555E-5,-8.112764E-3,1.4003727E-2,1.8819033E-3,-8.718413E-2,-5.7517528E-3,7.5987905E-2,-1.2603444E-2,7.582704E-2,-1.05251774E-1,1.8880166E-1,-1.2033925E-2,2.0019741E-1,1.13988966E-1,-9.881557E-2],"categories":[],"categories_nodes":[],"categories_segments":[],"categories_sizes":[],"default_left":[1,1,1,1,1,1,1,0,0,0,0,0,0,0,0],"id":65,"left_children":[1,3,5,7,9,11,13,-1,-1,-1,-1,-1,-1,-1,-1],"loss_changes":[6.815204E-2,3.0284595E-1,2.686085E-1,3.6620793E-1,2.3428741E-1,2.1847513E-1,3.6332792E-1,0E0,0E0,0E0,0E0,0E0,0E0,0E0,0E0],"parents":[2147483647,0,0,1,1,2,2,3,3,4,4,5,5,6,6],"right_children":[2,4,6,8,10,12,14,-1,-1,-1,-1,-1,-1,-1,-1],"split_conditions":[1.4143343E-1,1.3070387E0,3.61107E-2,4.7199094E-1,2.7001867E0,1.8797505E0,1.0758244E-1,-3.7810334E-3,2.2748113E-2,-3.1575534E-2,5.6640502E-2,-3.6101777E-3,6.0059227E-2,3.419669E-2,-2.9644672E-2],"split_indices":[7,6,8,0,4,6,9,0,0,0,0,0,0,0,0],"split_type":[0,0,0,0,0,0,0,0,0,0,0,0,0,0,0],"sum_hessian":[6E2,3.82E2,2.18E2,3.4E2,4.2E1,1.66E2,5.2E1,2.85E2,5.5E1,4E1,2E0,1.62E2,4E0,4.3E1,9E0],"tree_param":{"num_deleted":"0","num_feature":"10","num_nodes":"15","size_leaf_vector":"0"}},{"base_weights":[1.2774068E-4,-1.036982E-1,1.5258548E-3,-1.9739826E-1,-3.9565135E-2,-1.2259664E-2,1.2003229E-2,-2.9751736E-1,1.4199615E-3,5.3305826E-3,-6.334564E-2,4.3438002E-3,-6.4550295E-2,1.2444209E-1,2.62491E-3],"categories":[],"categories_nodes":[],"categories_segments":[],"categories_sizes":[],"default_left":[1,1,1,1,1,1,1,0,0,0,0,0,0,0,0],"id":66,"left_children":[1,3,5,7,9,11,13,-1,-1,-1,-1,-1,-1,-1,-1],"loss_changes":[8.73997E-2,4.02641E-2,8.594216E-2,6.0138963E-2,6.743527E-3,2.2340927E-1,3.5609013E-1,0E0,0E0,0E0,0E0,0E0,0E0,0E0,0E0],"parents":[2147483647,0,0,1,1,2,2,3,3,4,4,5,5,6,6],"right_children":[2,4,6,8,10,12,14,-1,-1,-1,-1,-1,-1,-1,-1],"split_conditions":[-3.2073522E0,-9.839715E-1,-6.2198326E-2,3.0905027E0,3.0905027E0,-3.0456385E-1,1.3881324E-1,-8.9255214E-2,4.2598846E-4,1.5991748E-3,-1.9003693E-2,1.3031401E-3,-1.9365089E-2,3.7332628E-2,7.8747305E-4],"split_indices":[3,7,5,0,0,5,5,0,0,0,0,0,0,0,0],"split_type":[0,0,0,0,0,0,0,0,0,0,0,0,0,0,0],"sum_hessian":[6E2,7E0,5.93E2,2E0,5E0,2.56E2,3.37E2,1E0,1E0,2E0,3E0,1.95E2,6.1E1,2.5E1,3.12E2],"tree_param":{"num_deleted":"0","num_feature":"10","num_nodes":"15","size_leaf_vector":"0"}},{"base_weights":[-5.397988E-5,-2.804443E-2,3.8690264E-3,1.8889076E-1,-3.360369E-2,1.722043E-3,1.04620695E-1,1.2871574E-1,-3.9988965E-2,-4.4679098E-2,5.488548E-3,1.3903597E-1,-1.19766E-1],"categories":[],"categories_nodes":[],"categories_segments":[],"categories_sizes":[],"default_left":[1,1,1,0,1,1,1,0,0,0,0,0,0],"id":67,"left_children":[1,3,5,-1,7,9,11,-1,-1,-1,-1,-1,-1],"loss_changes":[6.610235E-2,9.559135E-2,1.1403267E-1,0E0,8.0808364E-2,9.0776145E-2,1.0159738E-1,0E0,0E0,0E0,0E0,0E0,0E0],"parents":[2147483647,0,0,1,1,2,2,4,4,5,5,6,6],"right_children":[2,4,6,-1,8,10,12,-1,-1,-1,-1,-1,-1],"split_conditions":[-1.122886E0,-1.6765285E0,2.1186833E0,5.6667227E-2,-2.9794836E0,-8.417666E-1,1.1431239E0,3.8614724E-2,-1.199669E-2,-1.340373E-2,1.6465645E-3,4.1710794E-2,-3.59298E-2],"split_indices":[3,7,7,0,5,0,2,0,0,0,0,0,0],"split_type":[0,0,0,0,0,0,0,0,0,0,0,0,0],"sum_hessian":[6E2,7.3E1,5.27E2,1E0,7.2E1,5.17E2,1E1,2E0,7E1,3.8E1,4.79E2,9E0,1E0],"tree_param":{"num_deleted":"0","num_feature":"10","num_nodes":"13","size_leaf_vector":"0"}},{"base_weights":[9.085444E-5,6.353454E-2,-1.4198641E-3,-4.718653E-3,1.5532525E-1,-7.525556E-2,5.121136E-4,-1.3333419E-1,1.8938431E-1,-2.2500753E-3,1.8729033E-1,-1.4361785E-1,9.019262E-2,-4.6300897E-3,2.8963715E-2],"categories":[],"categories_nodes":[],"categories_segments":[],"categories_sizes":[],"default_left":[1,1,1,1,1,1,1,0,0,0,0,0,0,0,0],"id":68,"left_children":[1,3,5,7,9,11,13,-1,-1,-1,-1,-1,-1,-1,-1],"loss_changes":[5.7693396E-2,8.8443056E-2,8.39161E-2,2.499333E-1,3.0642867E-2,1.8260956E-1,8.411255E-2,0E0,0E0,0E0,0E0,0E0,0E0,0E0,0E0],"parents":[2147483647,0,0,1,1,2,2,3,3,4,4,5,5,6,6],"right_children":[2,4,6,8,10,12,14,-1,-1,-1,-1,-1,-1,-1,-1],"split_conditions":[-9.1136736E-1,-9.352602E-1,-8.6635196E-1,3.9963368E-1,-1.18275404E-1,9.205599E-1,7.9157734E-1,-4.000026E-2,5.6815296E-2,-6.750226E-4,5.61871E-2,-4.308536E-2,2.7057787E-2,-1.389027E-3,8.689115E-3],"split_indices":[0,0,0,9,7,7,5,0,0,0,0,0,0,0,0],"split_type":[0,0,0,0,0,0,0,0,0,0,0,0,0,0,0],"sum_hessian":[6E2,1.3E1,5.87E2,8E0,5E0,1.4E1,5.73E2,5E0,3E0,1E0,4E0,1E1,4E0,4.86E2,8.7E1],"tree_param":{"num_deleted":"0","num_feature":"10","num_nodes":"15","size_leaf_vector":"0"}},{"base_weights":[1.6941929E-4,-2.9112712E-2,2.8214792E-3,-1.2820369E-1,2.1233023E-3,4.953868E-3,-7.947703E-2,-3.4611085E-1,-5.0011173E-2,4.130744E-2,-7.942247E-2,3.2560702E-3,1.3352135E-1,3.8059928E-2,-1.1499255E-1],"categories":[],"categories_nodes":[],"categories_segments":[],"categories_sizes":[],"default_left":[1,1,1,1,1,1,1,0,0,0,0,0,0,0,0],"id":69,"left_children":[1,3,5,7,9,11,13,-1,-1,-1,-1,-1,-1,-1,-1],"loss_changes":[4.6754573E-2,1.550326E-1,9.726553E-2,1.8715511E-1,1.2789746E-1,1.1721903E-1,6.281801E-2,0E0,0E0,0E0,0E0,0E0,0E0,0E0,0E0],"parents":[2147483647,0,0,1,1,2,2,3,3,4,4,5,5,6,6],"right_children":[2,4,6,8,10,12,14,-1,-1,-1,-1,-1,-1,-1,-1],"split_conditions":[-1.0119473E0,4.543708E-1,1.3558755E0,-7.4931186E-1,4.4269568E-1,1.2208209E0,-5.586201E-1,-1.0383326E-1,-1.5003352E-2,1.2392232E-2,-2.382674E-2,9.768211E-4,4.0056407E-2,1.1417978E-2,-3.4497768E-2],"split_indices":[9,1,5,0,7,5,8,0,0,0,0,0,0,0,0],"split_type":[0,0,0,0,0,0,0,0,0,0,0,0,0,0,0],"sum_hessian":[6E2,4.9E1,5.51E2,1.1E1,3.8E1,5.38E2,1.3E1,2E0,9E0,2.6E1,1.2E1,5.32E2,6E0,3E0,1E1],"tree_param":{"num_deleted":"0","num_feature":"10","num_nodes":"15","size_leaf_vector":"0"}},{"base_weights":[-6.8283094E-5,-7.501009E-2,9.4114913E-4,-1.5951586E-1,-2.0255527E-2,-1.7966413E-1,1.5486861E-3,-2.4668527E-1,7.41148E-3,1.2537082E-2,-3.97861E-2,9.56231E-2,4.2420643E-4],"categories":[],"categories_nodes":[],"categories_segments":[],"categories_sizes":[],"default_left":[1,1,1,1,1,0,1,0,0,0,0,0,0],"id":70,"left_children":[1,3,5,7,9,-1,11,-1,-1,-1,-1,-1,-1],"loss_changes":[4.553545E-2,3.3785537E-2,6.545453E-2,4.5481168E-2,4.3415525E-3,0E0,6.2689796E-2,0E0,0E0,0E0,0E0,0E0,0E0],"parents":[2147483647,0,0,1,1,2,2,3,3,4,4,6,6],"right_children":[2,4,6,8,10,-1,12,-1,-1,-1,-1,-1,-1],"split_conditions":[-3.2073522E0,-9.839715E-1,-3.0033622E0,3.0905027E0,3.0905027E0,-5.3899243E-2,-2.52459E0,-7.400558E-2,2.2234442E-3,3.7611246E-3,-1.1935831E-2,2.8686931E-2,1.2726194E-4],"split_indices":[3,7,1,0,0,0,5,0,0,0,0,0,0],"split_type":[0,0,0,0,0,0,0,0,0,0,0,0,0],"sum_hessian":[6E2,7E0,5.93E2,2E0,5E0,1E0,5.92E2,1E0,1E0,2E0,3E0,6E0,5.86E2],"tree_param":{"num_deleted":"0","num_feature":"10","num_nodes":"13","size_leaf_vector":"0"}},{"base_weights":[-2.2258742E-4,1.8818357E-3,-3.4307882E-2,1.9281094E-4,1.3697629E-1,1.8149184E-2,-1.1428986E-1,-1.7084477E-2,8.070039E-3,-6.799963E-2,1.824722E-1,5.4378778E-2,-1.6573709E-2,-1.5605499E-1,-3.2593846E-2],"categories":[],"categories_nodes":[],"categories_segments":[],"categories_sizes":[],"default_left":[1,1,1,1,1,1,1,0,0,0,0,0,0,0,0],"id":71,"left_children":[1,3,5,7,9,11,13,-1,-1,-1,-1,-1,-1,-1,-1],"loss_changes":[4.3174226E-2,1.2935045E-1,1.4892095E-1,7.6488376E-2,7.7687025E-2,2.8577171E-2,4.26822E-2,0E0,0E0,0E0,0E0,0E0,0E0,0E0,0E0],"parents":[2147483647,0,0,1,1,2,2,3,3,4,4,5,5,6,6],"right_children":[2,4,6,8,10,12,14,-1,-1,-1,-1,-1,-1,-1,-1],"split_conditions":[1.2207466E0,1.088141E0,-3.6177248E-2,-5.2519524E-1,-1.5033891E0,-4.6455383E-1,-2.9141462E-1,-5.1253433E-3,2.4210117E-3,-2.039989E-2,5.4741662E-2,1.6313635E-2,-4.972113E-3,-4.6816498E-2,-9.778154E-3],"split_indices":[2,2,6,9,7,7,7,0,0,0,0,0,0,0,0],"split_type":[0,0,0,0,0,0,0,0,0,0,0,0,0,0,0],"sum_hessian":[6E2,5.66E2,3.4E1,5.6E2,6E0,2.1E1,1.3E1,1.75E2,3.85E2,1E0,5E0,1E1,1.1E1,8E0,5E0],"tree_param":{"num_deleted":"0","num_feature":"10","num_nodes":"15","size_leaf_vector":"0"}},{"base_weights":[-1.7847308E-4,-1.1687893E-2,6.9882507E-3,-6.540704E-3,-2.0361736E-1,1.4085154E-1,-1.0405733E-3,4.1821808E-2,-1.8133108E-2,-2.3400295E-1,-2.5844723E-2,7.0414385E-3,3.184826E-1,-3.328826E-2,1.0542729E-2],"categories":[],"categories_nodes":[],"categories_segments":[],"categories_sizes":[],"default_left":[1,1,1,1,1,1,1,0,0,0,0,0,0,0,0],"id":72,"left_children":[1,3,5,7,9,11,13,-1,-1,-1,-1,-1,-1,-1,-1],"loss_changes":[4.965506E-2,2.2687247E-1,3.988843E-1,1.2746249E-1,2.6362583E-2,4.969029E-1,1.3146164E-1,0E0,0E0,0E0,0E0,0E0,0E0,0E0,0E0],"parents":[2147483647,0,0,1,1,2,2,3,3,4,4,5,5,6,6],"right_children":[2,4,6,8,10,12,14,-1,-1,-1,-1,-1,-1,-1,-1],"split_conditions":[-1.2482763E-1,-1.4771548E-1,-3.3276238E-2,-5.586201E-1,1.2668383E0,-8.889518E-2,-3.0110168E-1,1.2546543E-2,-5.4399325E-3,-7.020089E-2,-7.7534174E-3,2.1124317E-3,9.5544785E-2,-9.986478E-3,3.1628187E-3],"split_indices":[4,4,4,8,7,5,8,0,0,0,0,0,0,0,0],"split_type":[0,0,0,0,0,0,0,0,0,0,0,0,0,0,0],"sum_hessian":[6E2,2.3E2,3.7E2,2.25E2,5E0,2E1,3.5E2,4.3E1,1.82E2,4E0,1E0,1.2E1,8E0,9.2E1,2.58E2],"tree_param":{"num_deleted":"0","num_feature":"10","num_nodes":"15","size_leaf_vector":"0"}},{"base_weights":[-9.168454E-5,-5.403259E-3,1.9578455E-2,6.7362827E-3,-3.1927336E-2,9.989692E-3,9.114782E-2,-8.3899505E-2,1.2934372E-2,-2.649805E-1,-1.8572738E-2,-3.8852824E-3,8.4205404E-2,-2.9926304E-2,1.7518905E-1],"categories":[],"categories_nodes":[],"categories_segments":[],"categories_sizes":[],"default_left":[1,1,1,1,1,1,1,0,0,0,0,0,0,0,0],"id":73,"left_children":[1,3,5,7,9,11,13,-1,-1,-1,-1,-1,-1,-1,-1],"loss_changes":[6.289791E-2,1.528384E-1,8.693095E-2,1.8422176E-1,4.5881587E-1,1.1771766E-1,1.5787104E-1,0E0,0E0,0E0,0E0,0E0,0E0,0E0,0E0],"parents":[2147483647,0,0,1,1,2,2,3,3,4,4,5,5,6,6],"right_children":[2,4,6,8,10,12,14,-1,-1,-1,-1,-1,-1,-1,-1],"split_conditions":[7.682674E-1,2.852813E-1,9.205599E-1,-9.749317E-1,-2.7850318E-1,-4.5394152E-1,-3.2214623E-2,-2.5169853E-2,3.8803117E-3,-7.949415E-2,-5.5718217E-3,-1.1655848E-3,2.5261622E-2,-8.977892E-3,5.2556716E-2],"split_indices":[3,3,7,8,4,0,2,0,0,0,0,0,0,0,0],"split_type":[0,0,0,0,0,0,0,0,0,0,0,0,0,0,0],"sum_hessian":[6E2,4.73E2,1.27E2,3.25E2,1.48E2,1.13E2,1.4E1,2E1,3.05E2,7E0,1.41E2,9.6E1,1.7E1,6E0,8E0],"tree_param":{"num_deleted":"0","num_feature":"10","num_nodes":"15","size_leaf_vector":"0"}},{"base_weights":[-1.2852934E-4,-8.6459685E-3,1.0558627E-2,8.908191E-3,-3.376972E-2,-8.139639E-3,3.2187592E-2,-1.3718643E-2,4.7008812E-2,-2.7754474E-1,-2.6296608E-2,-1.15999594E-1,6.2491028E-3,1.2055904E-1,-3.919821E-3],"categories":[],"categories_nodes":[],"categories_segments":[],"categories_sizes":[],"default_left":[1,1,1,1,1,1,1,0,0,0,0,0,0,0,0],"id":74,"left_children":[1,3,5,7,9,11,13,-1,-1,-1,-1,-1,-1,-1,-1],"loss_changes":[5.4798637E-2,1.4804463E-1,1.0824322E-1,1.7134E-1,2.4410406E-1,2.2420841E-1,3.961397E-1,0E0,0E0,0E0,0E0,0E0,0E0,0E0,0E0],"parents":[2147483647,0,0,1,1,2,2,3,3,4,4,5,5,6,6],"right_children":[2,4,6,8,10,12,14,-1,-1,-1,-1,-1,-1,-1,-1],"split_conditions":[1.269387E-1,8.613687E-3,3.714239E-1,-1.4467394E-1,-1.8496675E0,2.0541131E-1,2.3156884E-1,-4.115593E-3,1.4102644E-2,-8.326343E-2,-7.888983E-3,-3.479988E-2,1.8747309E-3,3.616771E-2,-1.1759464E-3],"split_indices":[4,3,2,1,7,4,4,0,0,0,0,0,0,0,0],"split_type":[0,0,0,0,0,0,0,0,0,0,0,0,0,0,0],"sum_hessian":[6E2,3.34E2,2.66E2,1.97E2,1.37E2,1.43E2,1.23E2,1.24E2,7.3E1,3E0,1.34E2,1.6E1,1.27E2,3.5E1,8.8E1],"tree_param":{"num_deleted":"0","num_feature":"10","num_nodes":"15","size_leaf_vector":"0"}},{"base_weights":[-2.2158498E-4,-1.2875821E-2,5.7048416E-3,-2.8743622E-1,-8.47289E-3,2.281265E-2,-1.2549229E-2,-1.6406898E-1,-2.5074247E-3,4.3819193E-2,-3.371885E-2,-5.995708E-3,-1.2400979E-1],"categories":[],"categories_nodes":[],"categories_segments":[],"categories_sizes":[],"default_left":[1,1,1,0,1,1,1,0,0,0,0,0,0],"id":75,"left_children":[1,3,5,-1,7,9,11,-1,-1,-1,-1,-1,-1],"loss_changes":[4.514509E-2,2.2966772E-1,1.28324E-1,0E0,1.7594719E-1,2.5323418E-1,1.4461783E-1,0E0,0E0,0E0,0E0,0E0,0E0],"parents":[2147483647,0,0,1,1,2,2,4,4,5,5,6,6],"right_children":[2,4,6,-1,8,10,12,-1,-1,-1,-1,-1,-1],"split_conditions":[-5.2519524E-1,-1.5393906E0,1.3208695E-1,-8.623087E-2,-1.427208E0,8.140341E-1,7.838454E-1,-4.9220696E-2,-7.5222744E-4,1.3145759E-2,-1.0115655E-2,-1.7987125E-3,-3.720294E-2],"split_indices":[9,2,2,0,7,6,1,0,0,0,0,0,0],"split_type":[0,0,0,0,0,0,0,0,0,0,0,0,0],"sum_hessian":[6E2,1.91E2,4.09E2,2E0,1.89E2,2.11E2,1.98E2,6E0,1.83E2,1.54E2,5.7E1,1.88E2,1E1],"tree_param":{"num_deleted":"0","num_feature":"10","num_nodes":"13","size_leaf_vector":"0"}},{"base_weights":[-4.415947E-4,-1.321867E-3,1.0475124E-1,-2.0050402E-3,1.00459814E-1,1.6348831E-1,1.1097074E-2,5.7701127E-5,-3.707339E-2,-1.6709566E-2,3.3355176E-2],"categories":[],"categories_nodes":[],"categories_segments":[],"categories_sizes":[],"default_left":[1,1,1,1,0,0,1,0,0,0,0],"id":76,"left_children":[1,3,5,7,-1,-1,9,-1,-1,-1,-1],"loss_changes":[5.5790067E-2,4.1713532E-2,2.5690615E-2,4.2970277E-2,0E0,0E0,2.4141197E-3,0E0,0E0,0E0,0E0],"parents":[2147483647,0,0,1,1,2,2,3,3,6,6],"right_children":[2,4,6,8,-1,-1,10,-1,-1,-1,-1],"split_conditions":[2.8250914E0,1.7584774E0,-3.7326002E-1,1.2207466E0,3.0137945E-2,4.9046498E-2,2.7877092E-1,1.7310338E-5,-1.1122017E-2,-5.01287E-3,1.00065535E-2],"split_indices":[7,3,0,2,0,0,0,0,0,0,0],"split_type":[0,0,0,0,0,0,0,0,0,0,0],"sum_hessian":[6E2,5.96E2,4E0,5.93E2,3E0,2E0,2E0,5.61E2,3.2E1,1E0,1E0],"tree_param":{"num_deleted":"0","num_feature":"10","num_nodes":"11","size_leaf_vector":"0"}},{"base_weights":[-1.8752091E-4,-6.839138E-2,8.479298E-4,3.9475936E-2,-2.1309452E-1,-3.3781175E-3,2.1969602E-2,1.483723E-1,-1.18877865E-1,-2.6333642E-1,-3.1184405E-2,-5.0442587E-3,7.793417E-2,-2.6935995E-2,4.9135722E-2],"categories":[],"categories_nodes":[],"categories_segments":[],"categories_sizes":[],"default_left":[1,1,1,1,1,1,1,0,0,0,0,0,0,0,0],"id":77,"left_children":[1,3,5,7,9,11,13,-1,-1,-1,-1,-1,-1,-1,-1],"loss_changes":[4.2501654E-2,1.4889076E-1,5.3006094E-2,1.21103115E-1,2.8346047E-2,6.7454614E-2,1.3285248E-1,0E0,0E0,0E0,0E0,0E0,0E0,0E0,0E0],"parents":[2147483647,0,0,1,1,2,2,3,3,4,4,5,5,6,6],"right_children":[2,4,6,8,10,12,14,-1,-1,-1,-1,-1,-1,-1,-1],"split_conditions":[-1.6616464E0,4.0114224E-1,9.205599E-1,1.1077471E0,1.1077471E0,1.7573751E0,-2.2291839E-1,4.4511694E-2,-3.5663363E-2,-7.900093E-2,-9.3553215E-3,-1.5132776E-3,2.3380252E-2,-8.080799E-3,1.4740718E-2],"split_indices":[2,7,7,0,0,5,4,0,0,0,0,0,0,0,0],"split_type":[0,0,0,0,0,0,0,0,0,0,0,0,0,0,0],"sum_hessian":[6E2,8E0,5.92E2,5E0,3E0,4.94E2,9.8E1,3E0,2E0,2E0,1E0,4.85E2,9E0,3.5E1,6.3E1],"tree_param":{"num_deleted":"0","num_feature":"10","num_nodes":"15","size_leaf_vector":"0"}},{"base_weights":[-2.1609182E-4,1.0955866E-2,-7.6223183E-3,2.506442E-1,7.888552E-3,-2.7205977E-3,-1.06938384E-1,-1.7186871E-1,1.1695808E-2,3.011431E-1,-4.4742404E-3,-2.1950762E-1,-2.5581736E-2],"categories":[],"categories_nodes":[],"categories_segments":[],"categories_sizes":[],"default_left":[1,1,1,0,1,1,1,0,0,0,0,0,0],"id":78,"left_children":[1,3,5,-1,7,9,11,-1,-1,-1,-1,-1,-1],"loss_changes":[4.9811486E-2,1.7447068E-1,1.7593776E-1,0E0,1.64893E-1,1.8571986E-1,1.5007499E-1,0E0,0E0,0E0,0E0,0E0,0E0],"parents":[2147483647,0,0,1,1,2,2,4,4,5,5,6,6],"right_children":[2,4,6,-1,8,10,12,-1,-1,-1,-1,-1,-1],"split_conditions":[-7.1543805E-2,-1.8496675E0,1.7627428E-1,7.519326E-2,-1.5033891E0,-5.624567E-1,1.918025E-1,-5.1560614E-2,3.5087424E-3,9.034294E-2,-1.3422722E-3,-6.585229E-2,-7.6745213E-3],"split_indices":[1,7,0,0,7,3,1,0,0,0,0,0,0],"split_type":[0,0,0,0,0,0,0,0,0,0,0,0,0],"sum_hessian":[6E2,2.39E2,3.61E2,2E0,2.37E2,3.45E2,1.6E1,4E0,2.33E2,1E0,3.44E2,6E0,1E1],"tree_param":{"num_deleted":"0","num_feature":"10","num_nodes":"13","size_leaf_vector":"0"}},{"base_weights":[-8.034373E-5,1.1520127E-1,-6.5758E-4,2.9640079E-2,1.4316183E-1,9.51904E-3,-6.981809E-3,-1.2787049E-1,1.6345248E-2,-2.704337E-2,1.5771693E-2],"categories":[],"categories_nodes":[],"categories_segments":[],"categories_sizes":[],"default_left":[1,1,1,0,0,1,1,0,0,0,0],"id":79,"left_children":[1,3,5,-1,-1,7,9,-1,-1,-1,-1],"loss_changes":[4.0069137E-2,2.9336922E-3,3.8617663E-2,0E0,0E0,2.1779548E-1,1.693207E-1,0E0,0E0,0E0,0E0],"parents":[2147483647,0,0,1,1,2,2,5,5,6,6],"right_children":[2,4,6,-1,-1,8,10,-1,-1,-1,-1],"split_conditions":[-1.2722971E0,-8.112947E-1,-3.191169E-1,8.892024E-3,4.294855E-2,-8.417666E-1,-3.2028034E-1,-3.8361147E-2,4.9035745E-3,-8.113012E-3,4.731508E-3],"split_indices":[8,0,7,0,0,0,0,0,0,0,0],"split_type":[0,0,0,0,0,0,0,0,0,0,0],"sum_hessian":[6E2,2E0,5.98E2,1E0,1E0,2.29E2,3.69E2,1E1,2.19E2,1.96E2,1.73E2],"tree_param":{"num_deleted":"0","num_feature":"10","num_nodes":"11","size_leaf_vector":"0"}},{"base_weights":[-3.1277716E-5,6.0166664E-2,-1.993078E-3,1.09761834E-1,2.2089329E-2,-4.5054606E-3,3.6306333E-2,1.6458279E-2,1.9895083E-1,7.775512E-2,-1.08681045E-1,-2.165783E-3,-4.6302944E-2,-5.863314E-4,1.6550395E-1],"categories":[],"categories_nodes":[],"categories_segments":[],"categories_sizes":[],"default_left":[1,1,1,1,1,1,1,0,0,0,0,0,0,0,0],"id":80,"left_children":[1,3,5,7,9,11,13,-1,-1,-1,-1,-1,-1,-1,-1],"loss_changes":[7.109582E-2,3.3456035E-2,5.6261458E-2,6.329882E-2,9.580375E-2,5.3490087E-2,1.7168905E-1,0E0,0E0,0E0,0E0,0E0,0E0,0E0,0E0],"parents":[2147483647,0,0,1,1,2,2,3,3,4,4,5,5,6,6],"right_children":[2,4,6,8,10,12,14,-1,-1,-1,-1,-1,-1,-1,-1],"split_conditions":[-8.7916404E-1,-5.984671E-1,1.8203032E0,-1.18275404E-1,4.0114224E-1,1.820708E0,5.7428145E-1,4.937484E-3,5.968525E-2,2.3326539E-2,-3.2604314E-2,-6.497349E-4,-1.3890884E-2,-1.7589943E-4,4.9651187E-2],"split_indices":[0,8,8,7,7,6,7,0,0,0,0,0,0,0,0],"split_type":[0,0,0,0,0,0,0,0,0,0,0,0,0,0,0],"sum_hessian":[6E2,1.8E1,5.82E2,7E0,1.1E1,5.47E2,3.5E1,4E0,3E0,8E0,3E0,5.19E2,2.8E1,2.8E1,7E0],"tree_param":{"num_deleted":"0","num_feature":"10","num_nodes":"15","size_leaf_vector":"0"}},{"base_weights":[1.2831095E-4,-2.2813812E-2,3.492911E-3,-8.877151E-3,-9.074221E-2,-7.654277E-4,3.5305433E-2,1.19211376E-1,-1.2741212E-2,-1.343414E-1,4.094135E-2,-3.0759424E-3,5.0681792E-2,1.4373074E-1,6.4087436E-3],"categories":[],"categories_nodes":[],"categories_segments":[],"categories_sizes":[],"default_left":[1,1,1,1,1,1,1,0,0,0,0,0,0,0,0],"id":81,"left_children":[1,3,5,7,9,11,13,-1,-1,-1,-1,-1,-1,-1,-1],"loss_changes":[4.647152E-2,7.2089985E-2,7.1147986E-2,3.3690117E-2,8.013699E-2,5.5311367E-2,1.9333306E-1,0E0,0E0,0E0,0E0,0E0,0E0,0E0,0E0],"parents":[2147483647,0,0,1,1,2,2,3,3,4,4,5,5,6,6],"right_children":[2,4,6,8,10,12,14,-1,-1,-1,-1,-1,-1,-1,-1],"split_conditions":[-1.0005138E0,-1.936867E-1,1.4157381E0,-1.6765285E0,6.308415E-1,2.1808672E0,-4.2057586E-1,3.5763413E-2,-3.8223637E-3,-4.0302422E-2,1.2282406E-2,-9.2278275E-4,1.5204539E-2,4.3119226E-2,1.9226231E-3],"split_indices":[3,1,7,7,8,6,3,0,0,0,0,0,0,0,0],"split_type":[0,0,0,0,0,0,0,0,0,0,0,0,0,0,0],"sum_hessian":[6E2,7.6E1,5.24E2,6.4E1,1.2E1,4.63E2,6.1E1,1E0,6.3E1,9E0,3E0,4.44E2,1.9E1,1.2E1,4.9E1],"tree_param":{"num_deleted":"0","num_feature":"10","num_nodes":"15","size_leaf_vector":"0"}},{"base_weights":[1.9505185E-4,-4.356057E-3,1.7046854E-2,-6.02592E-2,-2.5236588E-3,4.920098E-2,-3.8151135E-4,1.9047964E-1,-1.13486685E-1,-9.21633E-3,3.2511305E-2,-3.3844423E-2,1.11189716E-1,-7.267098E-2,2.0434873E-2],"categories":[],"categories_nodes":[],"categories_segments":[],"categories_sizes":[],"default_left":[1,1,1,1,1,1,1,0,0,0,0,0,0,0,0],"id":82,"left_children":[1,3,5,7,9,11,13,-1,-1,-1,-1,-1,-1,-1,-1],"loss_changes":[4.6167582E-2,4.840298E-2,7.174918E-2,2.2180986E-1,1.0815928E-1,2.3541772E-1,1.2788868E-1,0E0,0E0,0E0,0E0,0E0,0E0,0E0,0E0],"parents":[2147483647,0,0,1,1,2,2,3,3,4,4,5,5,6,6],"right_children":[2,4,6,8,10,12,14,-1,-1,-1,-1,-1,-1,-1,-1],"split_conditions":[7.682674E-1,-1.5033891E0,-7.676643E-1,-7.847367E-1,6.8741333E-1,-4.7652003E-1,-6.6309005E-1,5.7143893E-2,-3.4046005E-2,-2.764899E-3,9.753392E-3,-1.0153327E-2,3.3356916E-2,-2.1801295E-2,6.130462E-3],"split_indices":[3,7,0,3,2,9,0,0,0,0,0,0,0,0,0],"split_type":[0,0,0,0,0,0,0,0,0,0,0,0,0,0,0],"sum_hessian":[6E2,4.73E2,1.27E2,1.4E1,4.59E2,4.4E1,8.3E1,2E0,1.2E1,3.86E2,7.3E1,1.9E1,2.5E1,1.8E1,6.5E1],"tree_param":{"num_deleted":"0","num_feature":"10","num_nodes":"15","size_leaf_vector":"0"}},{"base_weights":[1.9913746E-4,-8.2607265E-4,6.087166E-2,8.5249194E-4,-7.01877E-2,2.0130453E-1,2.290084E-2,-2.952025E-3,2.1556502E-2,-4.0177566E-1,-1.3775116E-2,-2.1655848E-2,8.401066E-2],"categories":[],"categories_nodes":[],"categories_segments":[],"categories_sizes":[],"default_left":[1,1,1,1,1,0,1,0,0,0,0,0,0],"id":83,"left_children":[1,3,5,7,9,-1,11,-1,-1,-1,-1,-1,-1],"loss_changes":[3.7433736E-2,6.89852E-2,4.8713468E-2,4.5670744E-2,2.5634578E-1,0E0,2.6324984E-2,0E0,0E0,0E0,0E0,0E0,0E0],"parents":[2147483647,0,0,1,1,2,2,3,3,4,4,6,6],"right_children":[2,4,6,8,10,-1,12,-1,-1,-1,-1,-1,-1],"split_conditions":[1.642608E0,1.4487042E0,-2.9141462E-1,7.7477026E-1,3.67626E-1,6.039136E-2,-6.932157E-1,-8.8560756E-4,6.4669508E-3,-1.205327E-1,-4.132535E-3,-6.496755E-3,2.52032E-2],"split_indices":[3,3,7,3,1,0,0,0,0,0,0,0,0],"split_type":[0,0,0,0,0,0,0,0,0,0,0,0,0],"sum_hessian":[6E2,5.91E2,9E0,5.78E2,1.3E1,1E0,8E0,4.89E2,8.9E1,1E0,1.2E1,5E0,3E0],"tree_param":{"num_deleted":"0","num_feature":"10","num_nodes":"13","size_leaf_vector":"0"}},{"base_weights":[7.2864925E-5,-6.482219E-4,8.6156055E-2,-1.15851965E-2,4.329546E-3,1.12805836E-1,-1.0221541E-2,-2.4491353E-2,2.42675E-2,-1.4979984E-1,6.2123896E-3,1.2885211E-1,3.2333493E-2],"categories":[],"categories_nodes":[],"categories_segments":[],"categories_sizes":[],"default_left":[1,1,1,1,1,1,0,0,0,0,0,0,0],"id":84,"left_children":[1,3,5,7,9,11,-1,-1,-1,-1,-1,-1,-1],"loss_changes":[3.736199E-2,3.2551866E-2,1.3995256E-2,8.712308E-2,1.20203435E-1,9.988882E-4,0E0,0E0,0E0,0E0,0E0,0E0,0E0],"parents":[2147483647,0,0,1,1,2,2,3,3,4,4,5,5],"right_children":[2,4,6,8,10,12,-1,-1,-1,-1,-1,-1,-1],"split_conditions":[2.8250914E0,-6.5021884E-1,1.1538169E0,7.0067394E-1,-1.2066481E0,-1.9319838E-1,-3.0664625E-3,-7.3474064E-3,7.2802505E-3,-4.4939954E-2,1.863717E-3,3.8655635E-2,9.700049E-3],"split_indices":[7,6,5,2,9,0,0,0,0,0,0,0,0],"split_type":[0,0,0,0,0,0,0,0,0,0,0,0,0],"sum_hessian":[6E2,5.96E2,4E0,1.86E2,4.1E2,3E0,1E0,1.37E2,4.9E1,4E0,4.06E2,2E0,1E0],"tree_param":{"num_deleted":"0","num_feature":"10","num_nodes":"13","size_leaf_vector":"0"}},{"base_weights":[5.4577355E-5,2.0083208E-3,-3.1597625E-2,8.558857E-4,9.408085E-2,-1.549174E-1,-1.0688058E-2,-1.5624308E-2,8.367954E-3,1.1700999E-1,-2.1746993E-2,-2.0935209E-1,-4.884359E-2,2.9549474E-2,-3.4296174E-2],"categories":[],"categories_nodes":[],"categories_segments":[],"categories_sizes":[],"default_left":[1,1,1,1,1,1,1,0,0,0,0,0,0,0,0],"id":85,"left_children":[1,3,5,7,9,11,13,-1,-1,-1,-1,-1,-1,-1,-1],"loss_changes":[3.7229463E-2,6.0082495E-2,8.8593945E-2,6.958273E-2,2.1135446E-2,1.8644959E-2,3.0461337E-2,0E0,0E0,0E0,0E0,0E0,0E0,0E0,0E0],"parents":[2147483647,0,0,1,1,2,2,3,3,4,4,5,5,6,6],"right_children":[2,4,6,8,10,12,14,-1,-1,-1,-1,-1,-1,-1,-1],"split_conditions":[1.2207466E0,1.088141E0,1.304838E0,-5.2519524E-1,-4.7652003E-1,4.0114224E-1,-4.7652003E-1,-4.6872925E-3,2.5103863E-3,3.5102997E-2,-6.524098E-3,-6.280563E-2,-1.4653077E-2,8.864842E-3,-1.0288852E-2],"split_indices":[2,2,2,9,9,7,9,0,0,0,0,0,0,0,0],"split_type":[0,0,0,0,0,0,0,0,0,0,0,0,0,0,0],"sum_hessian":[6E2,5.66E2,3.4E1,5.6E2,6E0,4E0,3E1,1.75E2,3.85E2,5E0,1E0,2E0,2E0,1.1E1,1.9E1],"tree_param":{"num_deleted":"0","num_feature":"10","num_nodes":"15","size_leaf_vector":"0"}},{"base_weights":[-4.9121154E-5,-7.518647E-2,7.0737756E-4,-1.4752752E-1,-3.1212758E-2,-8.799191E-2,1.3044935E-3,-2.3001432E-4,-3.890094E-2,-1.9913697E-1,1.5435438E-2,1.0396778E-2,-4.322899E-3],"categories":[],"categories_nodes":[],"categories_segments":[],"categories_sizes":[],"default_left":[1,1,1,0,1,1,1,0,0,0,0,0,0],"id":86,"left_children":[1,3,5,-1,7,9,11,-1,-1,-1,-1,-1,-1],"loss_changes":[3.4214813E-2,1.44818835E-2,3.1681184E-2,0E0,1.182057E-3,4.9055517E-2,3.0386295E-2,0E0,0E0,0E0,0E0,0E0,0E0],"parents":[2147483647,0,0,1,1,2,2,4,4,5,5,6,6],"right_children":[2,4,6,-1,8,10,12,-1,-1,-1,-1,-1,-1],"split_conditions":[-3.0033622E0,3.9153237E0,-3.2073522E0,-4.4258256E-2,-9.839715E-1,-6.3769305E-1,-3.191169E-1,-6.90043E-5,-1.1670283E-2,-5.9741095E-2,4.6306313E-3,3.1190335E-3,-1.2968697E-3],"split_indices":[1,0,3,0,7,7,7,0,0,0,0,0,0],"split_type":[0,0,0,0,0,0,0,0,0,0,0,0,0],"sum_hessian":[6E2,5E0,5.95E2,1E0,4E0,3E0,5.92E2,1E0,3E0,1E0,2E0,2.26E2,3.66E2],"tree_param":{"num_deleted":"0","num_feature":"10","num_nodes":"13","size_leaf_vector":"0"}},{"base_weights":[-2.1621922E-4,-8.690575E-3,5.885935E-3,-4.972776E-3,-3.1561032E-1,1.513936E-3,9.705679E-2,1.18334234E-1,-7.972242E-3,-3.240249E-2,8.437672E-3,1.8455558E-2,3.282466E-1],"categories":[],"categories_nodes":[],"categories_segments":[],"categories_sizes":[],"default_left":[1,1,1,1,0,1,1,0,0,0,0,0,0],"id":87,"left_children":[1,3,5,7,-1,9,11,-1,-1,-1,-1,-1,-1],"loss_changes":[3.1129958E-2,2.859792E-1,1.3936268E-1,9.340719E-2,0E0,7.8940906E-2,2.846909E-1,0E0,0E0,0E0,0E0,0E0,0E0],"parents":[2147483647,0,0,1,1,2,2,3,3,5,5,6,6],"right_children":[2,4,6,8,-1,10,12,-1,-1,-1,-1,-1,-1],"split_conditions":[-8.941865E-2,-1.1820936E-1,9.409754E-1,-1.5033891E0,-9.46831E-2,-1.1571107E0,-2.1964872E-1,3.5500273E-2,-2.3916727E-3,-9.720747E-3,2.5313017E-3,5.5366675E-3,9.847398E-2],"split_indices":[5,5,6,7,0,7,4,0,0,0,0,0,0],"split_type":[0,0,0,0,0,0,0,0,0,0,0,0,0],"sum_hessian":[6E2,2.51E2,3.49E2,2.49E2,2E0,3.34E2,1.5E1,5E0,2.44E2,5.6E1,2.78E2,1.2E1,3E0],"tree_param":{"num_deleted":"0","num_feature":"10","num_nodes":"13","size_leaf_vector":"0"}},{"base_weights":[-9.2696966E-5,-1.147863E-3,4.772157E-2,4.065973E-4,-8.286465E-2,-3.9115906E-2,5.8217686E-2,2.2825212E-3,-3.0700583E-2,-2.9570636E-1,-3.200984E-2,1.685581E-1,3.2863274E-2],"categories":[],"categories_nodes":[],"categories_segments":[],"categories_sizes":[],"default_left":[1,1,1,1,1,0,1,0,0,0,0,0,0],"id":88,"left_children":[1,3,5,7,9,-1,11,-1,-1,-1,-1,-1,-1],