{"learner":{"attributes":{"scikit_learn":"{\"_estimator_type\": \"regressor\"}"},"feature_names":[],"feature_types":[],"gradient_booster":{"model":{"gbtree_model_param":{"num_parallel_tree":"1","num_trees":"450"},"iteration_indptr":[0,1,2,3,4,5,6,7,8,9,10,11,12,13,14,15,16,17,18,19,20,21,22,23,24,25,26,27,28,29,30,31,32,33,34,35,36,37,38,39,40,41,42,43,44,45,46,47,48,49,50,51,52,53,54,55,56,57,58,59,60,61,62,63,64,65,66,67,68,69,70,71,72,73,74,75,76,77,78,79,80,81,82,83,84,85,86,87,88,89,90,91,92,93,94,95,96,97,98,99,100,101,102,103,104,105,106,107,108,109,110,111,112,113,114,115,116,117,118,119,120,121,122,123,124,125,126,127,128,129,130,131,132,133,134,135,136,137,138,139,140,141,142,143,144,145,146,147,148,149,150,151,152,153,154,155,156,157,158,159,160,161,162,163,164,165,166,167,168,169,170,171,172,173,174,175,176,177,178,179,180,181,182,183,184,185,186,187,188,189,190,191,192,193,194,195,196,197,198,199,200,201,202,203,204,205,206,207,208,209,210,211,212,213,214,215,216,217,218,219,220,221,222,223,224,225,226,227,228,229,230,231,232,233,234,235,236,237,238,239,240,241,242,243,244,245,246,247,248,249,250,251,252,253,254,255,256,257,258,259,260,261,262,263,264,265,266,267,268,269,270,271,272,273,274,275,276,277,278,279,280,281,282,283,284,285,286,287,288,289,290,291,292,293,294,295,296,297,298,299,300,301,302,303,304,305,306,307,308,309,310,311,312,313,314,315,316,317,318,319,320,321,322,323,324,325,326,327,328,329,330,331,332,333,334,335,336,337,338,339,340,341,342,343,344,345,346,347,348,349,350,351,352,353,354,355,356,357,358,359,360,361,362,363,364,365,366,367,368,369,370,371,372,373,374,375,376,377,378,379,380,381,382,383,384,385,386,387,388,389,390,391,392,393,394,395,396,397,398,399,400,401,402,403,404,405,406,407,408,409,410,411,412,413,414,415,416,417,418,419,420,421,422,423,424,425,426,427,428,429,430,431,432,433,434,435,436,437,438,439,440,441,442,443,444,445,446,447,448,449,450],"tree_info":[0,0,0,0,0,0,0,0,0,0,0,0,0,0,0,0,0,0,0,0,0,0,0,0,0,0,0,0,0,0,0,0,0,0,0,0,0,0,0,0,0,0,0,0,0,0,0,0,0,0,0,0,0,0,0,0,0,0,0,0,0,0,0,0,0,0,0,0,0,0,0,0,0,0,0,0,0,0,0,0,0,0,0,0,0,0,0,0,0,0,0,0,0,0,0,0,0,0,0,0,0,0,0,0,0,0,0,0,0,0,0,0,0,0,0,0,0,0,0,0,0,0,0,0,0,0,0,0,0,0,0,0,0,0,0,0,0,0,0,0,0,0,0,0,0,0,0,0,0,0,0,0,0,0,0,0,0,0,0,0,0,0,0,0,0,0,0,0,0,0,0,0,0,0,0,0,0,0,0,0,0,0,0,0,0,0,0,0,0,0,0,0,0,0,0,0,0,0,0,0,0,0,0,0,0,0,0,0,0,0,0,0,0,0,0,0,0,0,0,0,0,0,0,0,0,0,0,0,0,0,0,0,0,0,0,0,0,0,0,0,0,0,0,0,0,0,0,0,0,0,0,0,0,0,0,0,0,0,0,0,0,0,0,0,0,0,0,0,0,0,0,0,0,0,0,0,0,0,0,0,0,0,0,0,0,0,0,0,0,0,0,0,0,0,0,0,0,0,0,0,0,0,0,0,0,0,0,0,0,0,0,0,0,0,0,0,0,0,0,0,0,0,0,0,0,0,0,0,0,0,0,0,0,0,0,0,0,0,0,0,0,0,0,0,0,0,0,0,0,0,0,0,0,0,0,0,0,0,0,0,0,0,0,0,0,0,0,0,0,0,0,0,0,0,0,0,0,0,0,0,0,0,0,0,0,0,0,0,0,0,0,0,0,0,0,0,0,0,0,0,0,0,0,0,0,0,0,0,0,0,0,0,0,0,0,0,0,0,0,0,0,0,0,0,0,0,0,0,0,0,0,0,0,0,0,0,0,0,0,0,0,0,0,0,0,0,0,0,0,0],"trees":[{"base_weights":[1.4757046E-8,-5.789692E-1,1.1724854E0,-7.3220026E-1,3.9211057E-2,7.6799214E-1,2.0967617E0,-2.77732E-1,-1.9275448E-1,-7.979835E-2,3.733124E-2,1.23206206E-1,2.849844E-1,6.9331217E-1,4.5382103E-1],"categories":[],"categories_nodes":[],"categories_segments":[],"categories_sizes":[],"default_left":[0,0,0,0,0,0,0,0,0,0,0,0,0,0,0],"id":0,"left_children":[1,3,5,7,9,11,13,-1,-1,-1,-1,-1,-1,-1,-1],"loss_changes":[4.086574E2,3.8202652E1,7.278854E1,5.01268E0,2.1400366E0,8.711784E0,4.012665E0,0E0,0E0,0E0,0E0,0E0,0E0,0E0,0E0],"parents":[2147483647,0,0,1,1,2,2,3,3,4,4,5,5,6,6],"right_children":[2,4,6,8,10,12,14,-1,-1,-1,-1,-1,-1,-1,-1],"split_conditions":[7.239256E-2,-3.3274615E-1,1.1880822E0,-7.9328847E-1,-9.354925E-1,-5.9613967E-1,-1.6502098E0,-2.77732E-1,-1.9275448E-1,-7.979835E-2,3.733124E-2,1.23206206E-1,2.849844E-1,6.9331217E-1,4.5382103E-1],"split_indices":[0,0,0,0,7,7,3,0,0,0,0,0,0,0,0],"split_type":[0,0,0,0,0,0,0,0,0,0,0,0,0,0,0],"sum_hessian":[6E2,4.02E2,1.98E2,3.22E2,8E1,1.39E2,5.9E1,9.9E1,2.23E2,1.7E1,6.3E1,4.8E1,9.1E1,4.1E1,1.8E1],"tree_param":{"num_deleted":"0","num_feature":"10","num_nodes":"15","size_leaf_vector":"1"}},{"base_weights":[1.7343827E-3,-3.9109737E-1,8.735175E-1,-5.071631E-1,7.927596E-2,6.047676E-1,1.5596035E0,-1.814441E-1,-1.1933952E-1,-2.0169718E-2,5.6251694E-2,1.1530588E-1,2.6577392E-1,3.3635756E-1,5.461274E-1],"categories":[],"categories_nodes":[],"categories_segments":[],"categories_sizes":[],"default_left":[0,0,0,0,0,0,0,0,0,0,0,0,0,0,0],"id":1,"left_children":[1,3,5,7,9,11,13,-1,-1,-1,-1,-1,-1,-1,-1],"loss_changes":[2.0616257E2,2.2696812E1,3.3536896E1,3.315689E0,1.3287003E0,8.087223E0,3.9049988E0,0E0,0E0,0E0,0E0,0E0,0E0,0E0,0E0],"parents":[2147483647,0,0,1,1,2,2,3,3,4,4,5,5,6,6],"right_children":[2,4,6,8,10,12,14,-1,-1,-1,-1,-1,-1,-1,-1],"split_conditions":[1.5272777E-1,-2.8496057E-1,1.69364E0,-6.38851E-1,-1.9445667E-1,6.1950296E-1,-1.9445667E-1,-1.814441E-1,-1.1933952E-1,-2.0169718E-2,5.6251694E-2,1.1530588E-1,2.6577392E-1,3.3635756E-1,5.461274E-1],"split_indices":[0,0,0,0,7,0,7,0,0,0,0,0,0,0,0],"split_type":[0,0,0,0,0,0,0,0,0,0,0,0,0,0,0],"sum_hessian":[6E2,4.14E2,1.86E2,3.32E2,8.2E1,1.35E2,5.1E1,1.73E2,1.59E2,3.5E1,4.7E1,7.7E1,5.8E1,2.1E1,3E1],"tree_param":{"num_deleted":"0","num_feature":"10","num_nodes":"15","size_leaf_vector":"1"}},{"base_weights":[2.8760682E-3,-2.7440602E-1,6.182193E-1,-3.4920895E-1,8.679701E-2,4.858317E-1,4.0579218E-1,-1.6120867E-1,-9.153384E-2,-3.335635E-2,4.0951047E-2,9.4038755E-2,2.2596915E-1],"categories":[],"categories_nodes":[],"categories_segments":[],"categories_sizes":[],"default_left":[0,0,0,0,0,0,0,0,0,0,0,0,0],"id":2,"left_children":[1,3,5,7,9,11,-1,-1,-1,-1,-1,-1,-1],"loss_changes":[1.0271445E2,1.1243216E1,1.7524529E1,2.690155E0,7.2373885E-1,7.1385E0,0E0,0E0,0E0,0E0,0E0,0E0,0E0],"parents":[2147483647,0,0,1,1,2,2,3,3,4,4,5,5],"right_children":[2,4,6,8,10,12,-1,-1,-1,-1,-1,-1,-1],"split_conditions":[1.5272777E-1,-2.2401662E-1,2.652122E0,-8.293008E-1,-9.354925E-1,4.842491E-1,4.0579218E-1,-1.6120867E-1,-9.153384E-2,-3.335635E-2,4.0951047E-2,9.4038755E-2,2.2596915E-1],"split_indices":[0,0,0,0,7,7,0,0,0,0,0,0,0],"split_type":[0,0,0,0,0,0,0,0,0,0,0,0,0],"sum_hessian":[6E2,4.14E2,1.86E2,3.43E2,7.1E1,1.59E2,2.7E1,6.3E1,2.8E2,1.4E1,5.7E1,9.8E1,6.1E1],"tree_param":{"num_deleted":"0","num_feature":"10","num_nodes":"13","size_leaf_vector":"1"}},{"base_weights":[2.8130016E-3,-1.4132172E-1,6.474627E-1,-2.5692302E-1,7.915206E-2,8.45027E-1,4.3453434E-1,-8.783919E-2,-2.7431471E-2,9.7136805E-3,9.770317E-2,1.7895526E-1,2.9312682E-1,5.932057E-2,1.6058017E-1],"categories":[],"categories_nodes":[],"categories_segments":[],"categories_sizes":[],"default_left":[0,0,0,0,0,0,0,0,0,0,0,0,0,0,0],"id":3,"left_children":[1,3,5,7,9,11,13,-1,-1,-1,-1,-1,-1,-1,-1],"loss_changes":[5.5934265E1,1.2559968E1,4.2601814E0,1.8907623E0,1.9496832E0,1.2550011E0,1.2060986E0,0E0,0E0,0E0,0E0,0E0,0E0,0E0,0E0],"parents":[2147483647,0,0,1,1,2,2,3,3,4,4,5,5,6,6],"right_children":[2,4,6,8,10,12,14,-1,-1,-1,-1,-1,-1,-1,-1],"split_conditions":[6.1950296E-1,-3.3274615E-1,-8.710475E-1,5.029533E-1,1.5815861E0,-5.9613967E-1,-5.9613967E-1,-8.783919E-2,-2.7431471E-2,9.7136805E-3,9.770317E-2,1.7895526E-1,2.9312682E-1,5.932057E-2,1.6058017E-1],"split_indices":[0,0,3,4,6,7,7,0,0,0,0,0,0,0,0],"split_type":[0,0,0,0,0,0,0,0,0,0,0,0,0,0,0],"sum_hessian":[6E2,4.91E2,1.09E2,3.22E2,1.69E2,5.5E1,5.4E1,2.64E2,5.8E1,1.43E2,2.6E1,2.1E1,3.4E1,1.7E1,3.7E1],"tree_param":{"num_deleted":"0","num_feature":"10","num_nodes":"15","size_leaf_vector":"1"}},{"base_weights":[3.107417E-3,-9.894117E-2,4.5951468E-1,-2.1429579E-1,3.2322254E-2,3.6764228E-1,7.4219304E-1,-7.4373774E-2,-1.4003721E-2,-2.6407054E-2,4.106366E-2,1.7490309E-2,1.2834541E-1,2.3249651E-1,6.9729805E-2],"categories":[],"categories_nodes":[],"categories_segments":[],"categories_sizes":[],"default_left":[0,0,0,0,0,0,0,0,0,0,0,0,0,0,0],"id":4,"left_children":[1,3,5,7,9,11,13,-1,-1,-1,-1,-1,-1,-1,-1],"loss_changes":[2.803747E1,7.456713E0,2.5838737E0,1.4647274E0,2.9187088E0,1.5573196E0,2.54529E-1,0E0,0E0,0E0,0E0,0E0,0E0,0E0,0E0],"parents":[2147483647,0,0,1,1,2,2,3,3,4,4,5,5,6,6],"right_children":[2,4,6,8,10,12,14,-1,-1,-1,-1,-1,-1,-1,-1],"split_conditions":[6.1950296E-1,-4.5740423E-1,2.7490783E0,7.0567423E-1,-4.9019717E-2,-9.839715E-1,-1.9256951E0,-7.4373774E-2,-1.4003721E-2,-2.6407054E-2,4.106366E-2,1.7490309E-2,1.2834541E-1,2.3249651E-1,6.9729805E-2],"split_indices":[0,0,0,4,7,7,3,0,0,0,0,0,0,0,0],"split_type":[0,0,0,0,0,0,0,0,0,0,0,0,0,0,0],"sum_hessian":[6E2,4.91E2,1.09E2,2.61E2,2.3E2,8.4E1,2.5E1,2.17E2,4.4E1,1.07E2,1.23E2,1.4E1,7E1,2.3E1,2E0],"tree_param":{"num_deleted":"0","num_feature":"10","num_nodes":"15","size_leaf_vector":"1"}},{"base_weights":[2.7980593E-3,2.6842102E-1,-8.851609E-2,3.8544104E-1,7.866569E-2,-2.2683197E-1,-4.6564292E-2,7.3054075E-2,1.4527005E-1,-4.734525E-2,4.8300143E-2,-8.141613E-2,-4.7194365E-2,1.2884331E-2,-4.0742163E-2],"categories":[],"categories_nodes":[],"categories_segments":[],"categories_sizes":[],"default_left":[0,0,0,0,0,0,0,0,0,0,0,0,0,0,0],"id":5,"left_children":[1,3,5,7,9,11,13,-1,-1,-1,-1,-1,-1,-1,-1],"loss_changes":[1.4601095E1,3.3892756E0,2.5890024E0,1.2141113E0,1.1936563E0,2.7943182E-1,2.761802E0,0E0,0E0,0E0,0E0,0E0,0E0,0E0,0E0],"parents":[2147483647,0,0,1,1,2,2,3,3,4,4,5,5,6,6],"right_children":[2,4,6,8,10,12,14,-1,-1,-1,-1,-1,-1,-1,-1],"split_conditions":[-4.2412287E-1,-2.6120186E-1,-6.3769305E-1,-1.9445667E-1,-9.839715E-1,-4.5740423E-1,5.5249023E-1,7.3054075E-2,1.4527005E-1,-4.734525E-2,4.8300143E-2,-8.141613E-2,-4.7194365E-2,1.2884331E-2,-4.0742163E-2],"split_indices":[3,2,7,7,7,0,3,0,0,0,0,0,0,0,0],"split_type":[0,0,0,0,0,0,0,0,0,0,0,0,0,0,0],"sum_hessian":[6E2,1.53E2,4.47E2,9.4E1,5.9E1,1.03E2,3.44E2,4E1,5.4E1,1.5E1,4.4E1,6.1E1,4.2E1,1.72E2,1.72E2],"tree_param":{"num_deleted":"0","num_feature":"10","num_nodes":"15","size_leaf_vector":"1"}},{"base_weights":[2.0631505E-3,-9.270529E-2,1.32783E-1,-1.6078614E-1,-4.848097E-2,3.3932403E-1,8.023928E-2,-6.7334905E-2,-3.717865E-2,-1.8309648E-3,-5.3871494E-2,-2.0079214E-2,1.0983281E-1,-1.0736748E-1,2.793322E-2],"categories":[],"categories_nodes":[],"categories_segments":[],"categories_sizes":[],"default_left":[0,0,0,0,0,0,0,0,0,0,0,0,0,0,0],"id":6,"left_children":[1,3,5,7,9,11,13,-1,-1,-1,-1,-1,-1,-1,-1],"loss_changes":[7.4575677E0,1.0429847E0,2.7184386E0,2.936499E-1,1.182189E0,5.794692E-1,1.1781169E0,0E0,0E0,0E0,0E0,0E0,0E0,0E0,0E0],"parents":[2147483647,0,0,1,1,2,2,3,3,4,4,5,5,6,6],"right_children":[2,4,6,8,10,12,14,-1,-1,-1,-1,-1,-1,-1,-1],"split_conditions":[-1.7207576E-1,-3.4681916E-1,-1.3475307E0,-6.651677E-1,9.282069E-1,4.636804E-1,-1.6778178E0,-6.7334905E-2,-3.717865E-2,-1.8309648E-3,-5.3871494E-2,-2.0079214E-2,1.0983281E-1,-1.0736748E-1,2.793322E-2],"split_indices":[0,7,3,0,8,0,2,0,0,0,0,0,0,0,0],"split_type":[0,0,0,0,0,0,0,0,0,0,0,0,0,0,0],"sum_hessian":[6E2,3.48E2,2.52E2,1.36E2,2.12E2,5E1,2.02E2,4.8E1,8.8E1,1.61E2,5.1E1,3E0,4.7E1,5E0,1.97E2],"tree_param":{"num_deleted":"0","num_feature":"10","num_nodes":"15","size_leaf_vector":"1"}},{"base_weights":[1.1947855E-3,-4.058429E-2,1.6899745E-1,2.7713596E-3,-9.535162E-2,1.9034962E-1,-8.0525614E-2,-1.9190017E-2,1.928498E-2,-1.7078608E-2,-4.958723E-2,4.3402016E-2,1.07253194E-1],"categories":[],"categories_nodes":[],"categories_segments":[],"categories_sizes":[],"default_left":[0,0,0,0,0,0,0,0,0,0,0,0,0],"id":7,"left_children":[1,3,5,7,9,11,-1,-1,-1,-1,-1,-1,-1],"loss_changes":[4.2202535E0,1.1447604E0,1.1718674E0,1.1125124E0,5.629778E-1,8.2633543E-1,0E0,0E0,0E0,0E0,0E0,0E0,0E0],"parents":[2147483647,0,0,1,1,2,2,3,3,4,4,5,5],"right_children":[2,4,6,8,10,12,-1,-1,-1,-1,-1,-1,-1],"split_conditions":[5.0523305E-1,5.5249023E-1,1.404558E-1,-1.9445667E-1,6.884543E-1,1.0936991E0,-8.0525614E-2,-1.9190017E-2,1.928498E-2,-1.7078608E-2,-4.958723E-2,4.3402016E-2,1.07253194E-1],"split_indices":[0,3,1,7,5,7,0,0,0,0,0,0,0],"split_type":[0,0,0,0,0,0,0,0,0,0,0,0,0],"sum_hessian":[6E2,4.81E2,1.19E2,2.69E2,2.12E2,1.14E2,5E0,1.29E2,1.4E2,1.38E2,7.4E1,9.1E1,2.3E1],"tree_param":{"num_deleted":"0","num_feature":"10","num_nodes":"13","size_leaf_vector":"1"}},{"base_weights":[8.422739E-4,1.5635109E-1,-2.4028774E-2,1.2706402E-1,1.368519E-1,-5.2396234E-2,4.2927038E-2,2.5442946E-3,5.727878E-2,-1.1307589E-2,-4.26568E-2,3.5263382E-2,-6.4625745E-3],"categories":[],"categories_nodes":[],"categories_segments":[],"categories_sizes":[],"default_left":[0,0,0,0,0,0,0,0,0,0,0,0,0],"id":8,"left_children":[1,3,5,7,-1,9,11,-1,-1,-1,-1,-1,-1],"loss_changes":[2.3282251E0,6.7085195E-1,9.880202E-1,5.8152723E-1,0E0,4.765656E-1,7.4816215E-1,0E0,0E0,0E0,0E0,0E0,0E0],"parents":[2147483647,0,0,1,1,2,2,3,3,5,5,6,6],"right_children":[2,4,6,8,-1,10,12,-1,-1,-1,-1,-1,-1],"split_conditions":[-8.497654E-1,3.3432817E0,7.4742067E-1,3.4673702E-2,1.368519E-1,8.9888823E-1,1.6704729E-1,2.5442946E-3,5.727878E-2,-1.1307589E-2,-4.26568E-2,3.5263382E-2,-6.4625745E-3],"split_indices":[3,0,7,6,0,5,3,0,0,0,0,0,0],"split_type":[0,0,0,0,0,0,0,0,0,0,0,0,0],"sum_hessian":[6E2,8.2E1,5.18E2,7.6E1,6E0,3.64E2,1.54E2,2.7E1,4.9E1,3.14E2,5E1,7.1E1,8.3E1],"tree_param":{"num_deleted":"0","num_feature":"10","num_nodes":"13","size_leaf_vector":"1"}},{"base_weights":[8.749651E-4,-5.2762464E-2,4.2204764E-2,-2.037878E-2,-1.0674762E-1,-2.7451554E-2,8.599629E-2,-4.6371434E-2,7.571377E-3,-2.7017834E-2,-6.2680505E-2,2.1620896E-3,-4.8750482E-2,1.5610393E-2,6.476819E-2],"categories":[],"categories_nodes":[],"categories_segments":[],"categories_sizes":[],"default_left":[0,0,0,0,0,0,0,0,0,0,0,0,0,0,0],"id":9,"left_children":[1,3,5,7,9,11,13,-1,-1,-1,-1,-1,-1,-1,-1],"loss_changes":[1.3345382E0,4.5586312E-1,1.0394819E0,1.0139365E0,1.4830494E-1,6.19015E-1,9.1077733E-1,0E0,0E0,0E0,0E0,0E0,0E0,0E0,0E0],"parents":[2147483647,0,0,1,1,2,2,3,3,4,4,5,5,6,6],"right_children":[2,4,6,8,10,12,14,-1,-1,-1,-1,-1,-1,-1,-1],"split_conditions":[-4.5740423E-1,6.884543E-1,-2.1920887E-1,2.5637484E-1,1.5688274E0,-4.081447E-1,1.0936991E0,-4.6371434E-2,7.571377E-3,-2.7017834E-2,-6.2680505E-2,2.1620896E-3,-4.8750482E-2,1.5610393E-2,6.476819E-2],"split_indices":[0,5,6,1,1,6,7,0,0,0,0,0,0,0,0],"split_type":[0,0,0,0,0,0,0,0,0,0,0,0,0,0,0],"sum_hessian":[6E2,2.61E2,3.39E2,1.64E2,9.7E1,1.31E2,2.08E2,4.1E1,1.23E2,8.5E1,1.2E1,1.05E2,2.6E1,1.66E2,4.2E1],"tree_param":{"num_deleted":"0","num_feature":"10","num_nodes":"15","size_leaf_vector":"1"}},{"base_weights":[4.5489054E-4,-7.233146E-2,2.1898493E-2,-1.0435983E-1,1.1102786E-4,1.2095823E-1,4.3326337E-3,7.0697546E-2,-3.4261808E-2,-1.0163322E-2,1.3937615E-1,4.5248516E-2,-6.483912E-3,-2.791599E-2,4.9377354E-3],"categories":[],"categories_nodes":[],"categories_segments":[],"categories_sizes":[],"default_left":[0,0,0,0,0,0,0,0,0,0,0,0,0,0,0],"id":10,"left_children":[1,3,5,7,9,11,13,-1,-1,-1,-1,-1,-1,-1,-1],"loss_changes":[9.396257E-1,3.17881E-1,8.0860823E-1,3.4496248E-1,6.9457877E-1,3.013636E-1,4.6918732E-1,0E0,0E0,0E0,0E0,0E0,0E0,0E0,0E0],"parents":[2147483647,0,0,1,1,2,2,3,3,4,4,5,5,6,6],"right_children":[2,4,6,8,10,12,14,-1,-1,-1,-1,-1,-1,-1,-1],"split_conditions":[-7.34651E-1,9.8373616E-1,-8.497654E-1,-2.2262135E0,1.7055752E0,8.591047E-1,-9.218141E-1,7.0697546E-2,-3.4261808E-2,-1.0163322E-2,1.3937615E-1,4.5248516E-2,-6.483912E-3,-2.791599E-2,4.9377354E-3],"split_indices":[7,9,3,5,6,5,6,0,0,0,0,0,0,0,0],"split_type":[0,0,0,0,0,0,0,0,0,0,0,0,0,0,0],"sum_hessian":[6E2,1.36E2,4.64E2,9.4E1,4.2E1,6.9E1,3.95E2,2E0,9.2E1,4E1,2E0,5.7E1,1.2E1,4.3E1,3.52E2],"tree_param":{"num_deleted":"0","num_feature":"10","num_nodes":"15","size_leaf_vector":"1"}},{"base_weights":[6.203208E-4,-4.8668277E-3,1.8940629E-1,-7.051177E-2,8.164721E-3,2.9604614E-1,6.1721284E-2,-6.7020416E-2,-1.4507533E-2,-8.015247E-3,1.0031357E-2,2.5882173E-2,9.344503E-2,-2.0677032E-2,3.2668367E-2],"categories":[],"categories_nodes":[],"categories_segments":[],"categories_sizes":[],"default_left":[0,0,0,0,0,0,0,0,0,0,0,0,0,0,0],"id":11,"left_children":[1,3,5,7,9,11,13,-1,-1,-1,-1,-1,-1,-1,-1],"loss_changes":[6.2349564E-1,5.010171E-1,2.1320498E-1,3.1773707E-1,4.3198735E-1,2.2719502E-3,6.297183E-2,0E0,0E0,0E0,0E0,0E0,0E0,0E0,0E0],"parents":[2147483647,0,0,1,1,2,2,3,3,4,4,5,5,6,6],"right_children":[2,4,6,8,10,12,14,-1,-1,-1,-1,-1,-1,-1,-1],"split_conditions":[2.9409132E0,-9.839715E-1,-1.4462432E0,-4.6631533E-1,-5.1834816E-1,-1.6105447E0,3.2130833E0,-6.7020416E-2,-1.4507533E-2,-8.015247E-3,1.0031357E-2,2.5882173E-2,9.344503E-2,-2.0677032E-2,3.2668367E-2],"split_indices":[0,7,2,5,0,2,0,0,0,0,0,0,0,0,0],"split_type":[0,0,0,0,0,0,0,0,0,0,0,0,0,0,0],"sum_hessian":[6E2,5.84E2,1.6E1,9.6E1,4.88E2,8E0,8E0,1.1E1,8.5E1,2.05E2,2.83E2,1E0,7E0,2E0,6E0],"tree_param":{"num_deleted":"0","num_feature":"10","num_nodes":"15","size_leaf_vector":"1"}},{"base_weights":[5.204342E-4,-1.0001783E-2,6.91714E-2,-6.2166512E-2,-7.3069357E-3,1.1260639E-1,-3.0889854E-2,-3.4754947E-2,-8.089915E-4,3.8358897E-2,-1.0752744E-2,-4.556191E-4,-4.442118E-2],"categories":[],"categories_nodes":[],"categories_segments":[],"categories_sizes":[],"default_left":[0,0,0,0,0,0,0,0,0,0,0,0,0],"id":12,"left_children":[1,3,5,-1,7,9,11,-1,-1,-1,-1,-1,-1],"loss_changes":[4.348304E-1,2.7591714E-1,3.5117117E-1,0E0,2.5790173E-1,1.3141316E-1,8.5818365E-2,0E0,0E0,0E0,0E0,0E0,0E0],"parents":[2147483647,0,0,1,1,2,2,4,4,5,5,6,6],"right_children":[2,4,6,-1,8,10,12,-1,-1,-1,-1,-1,-1],"split_conditions":[1.4399775E0,-1.645475E0,5.345548E-1,-6.2166512E-2,-1.3302499E0,1.5229378E0,3.2638994E-1,-3.4754947E-2,-8.089915E-4,3.8358897E-2,-1.0752744E-2,-4.556191E-4,-4.442118E-2],"split_indices":[7,2,5,0,7,8,4,0,0,0,0,0,0],"split_type":[0,0,0,0,0,0,0,0,0,0,0,0,0],"sum_hessian":[6E2,5.21E2,7.9E1,6E0,5.15E2,5.5E1,2.4E1,2E1,4.95E2,5E1,5E0,2E1,4E0],"tree_param":{"num_deleted":"0","num_feature":"10","num_nodes":"13","size_leaf_vector":"1"}},{"base_weights":[1.7295667E-4,1.0943061E-1,-4.9577034E-3,6.375179E-2,5.484594E-2,-1.1838891E-2,7.443331E-2,-4.234314E-5,3.4787517E-2,-1.960324E-3,-3.432385E-2,6.50332E-2,-4.3068867E-4],"categories":[],"categories_nodes":[],"categories_segments":[],"categories_sizes":[],"default_left":[0,0,0,0,0,0,0,0,0,0,0,0,0],"id":13,"left_children":[1,3,5,-1,7,9,11,-1,-1,-1,-1,-1,-1],"loss_changes":[3.374414E-1,1.402559E-1,3.1500626E-1,0E0,6.386387E-2,2.8762597E-1,4.970877E-1,0E0,0E0,0E0,0E0,0E0,0E0],"parents":[2147483647,0,0,1,1,2,2,4,4,5,5,6,6],"right_children":[2,4,6,-1,8,10,12,-1,-1,-1,-1,-1,-1],"split_conditions":[-2.2354958E0,-1.4462432E0,1.7823304E0,6.375179E-2,2.2800304E-1,2.0789452E0,-2.9095727E-1,-4.234314E-5,3.4787517E-2,-1.960324E-3,-3.432385E-2,6.50332E-2,-4.3068867E-4],"split_indices":[1,2,6,0,7,4,2,0,0,0,0,0,0],"split_type":[0,0,0,0,0,0,0,0,0,0,0,0,0],"sum_hessian":[6E2,2.6E1,5.74E2,8E0,1.8E1,5.29E2,4.5E1,1E1,8E0,5.04E2,2.5E1,1.5E1,3E1],"tree_param":{"num_deleted":"0","num_feature":"10","num_nodes":"13","size_leaf_vector":"1"}},{"base_weights":[3.3208268E-4,7.124859E-3,-6.8608165E-2,1.2830314E-1,4.025164E-3,-3.6151834E-2,-5.0456863E-2,5.686621E-3,-7.982546E-3,-3.6611322E-2,1.9670809E-3],"categories":[],"categories_nodes":[],"categories_segments":[],"categories_sizes":[],"default_left":[0,0,0,0,0,0,0,0,0,0,0],"id":14,"left_children":[1,3,5,-1,7,9,-1,-1,-1,-1,-1],"loss_changes":[2.8193456E-1,7.1264243E-1,1.6845009E-1,0E0,2.4976982E-1,1.5485959E-1,0E0,0E0,0E0,0E0,0E0],"parents":[2147483647,0,0,1,1,2,2,4,4,5,5],"right_children":[2,4,6,-1,8,10,-1,-1,-1,-1,-1],"split_conditions":[1.0709201E0,-9.1199064E-1,3.2638994E-1,1.2830314E-1,5.5249023E-1,-9.336226E-1,-5.0456863E-2,5.686621E-3,-7.982546E-3,-3.6611322E-2,1.9670809E-3],"split_indices":[1,0,4,0,3,6,0,0,0,0,0],"split_type":[0,0,0,0,0,0,0,0,0,0,0],"sum_hessian":[6E2,5.47E2,5.3E1,3E0,5.44E2,4.1E1,1.2E1,3.66E2,1.78E2,1.3E1,2.8E1],"tree_param":{"num_deleted":"0","num_feature":"10","num_nodes":"11","size_leaf_vector":"1"}},{"base_weights":[3.0052228E-4,-3.3942391E-3,1.2015831E-1,-5.955646E-2,-1.3663325E-3,-6.812084E-2,2.1997462E-1,-1.3865973E-2,2.127741E-3,-2.4450231E-2,1.8238128E-3,7.924224E-2,3.1594157E-2],"categories":[],"categories_nodes":[],"categories_segments":[],"categories_sizes":[],"default_left":[0,0,0,0,0,0,0,0,0,0,0,0,0],"id":15,"left_children":[1,3,5,-1,7,9,11,-1,-1,-1,-1,-1,-1],"loss_changes":[2.6655826E-1,2.3081753E-1,3.532648E-1,0E0,2.2000475E-1,7.44503E-3,3.2951772E-2,0E0,0E0,0E0,0E0,0E0,0E0],"parents":[2147483647,0,0,1,1,2,2,4,4,5,5,6,6],"right_children":[2,4,6,-1,8,10,12,-1,-1,-1,-1,-1,-1],"split_conditions":[3.320146E0,-1.6778178E0,-6.443913E-1,-5.955646E-2,-9.839715E-1,9.5330364E-1,7.6988757E-1,-1.3865973E-2,2.127741E-3,-2.4450231E-2,1.8238128E-3,7.924224E-2,3.1594157E-2],"split_indices":[9,2,0,0,7,3,2,0,0,0,0,0,0],"split_type":[0,0,0,0,0,0,0,0,0,0,0,0,0],"sum_hessian":[6E2,5.83E2,1.7E1,5E0,5.78E2,6E0,1.1E1,9.1E1,4.87E2,5E0,1E0,7E0,4E0],"tree_param":{"num_deleted":"0","num_feature":"10","num_nodes":"13","size_leaf_vector":"1"}},{"base_weights":[2.384991E-4,-1.3203394E-3,5.5894833E-2,9.23319E-3,-3.173882E-2,9.8956175E-2,1.8912385E-3,-2.8589983E-2,-1.3871051E-3],"categories":[],"categories_nodes":[],"categories_segments":[],"categories_sizes":[],"default_left":[0,0,0,0,0,0,0,0,0],"id":16,"left_children":[1,3,-1,5,7,-1,-1,-1,-1],"loss_changes":[1.7457502E-1,1.9194339E-1,0E0,4.1488883E-1,2.6497352E-1,0E0,0E0,0E0,0E0],"parents":[2147483647,0,0,1,1,3,3,4,4],"right_children":[2,4,-1,6,8,-1,-1,-1,-1],"split_conditions":[4.4873657E0,3.334761E-1,5.5894833E-2,-9.1199064E-1,-5.738704E-1,9.8956175E-2,1.8912385E-3,-2.8589983E-2,-1.3871051E-3],"split_indices":[0,8,0,0,9,0,0,0,0],"split_type":[0,0,0,0,0,0,0,0,0],"sum_hessian":[6E2,5.96E2,4E0,4.43E2,1.53E2,3E0,4.4E2,4.5E1,1.08E2],"tree_param":{"num_deleted":"0","num_feature":"10","num_nodes":"9","size_leaf_vector":"1"}},{"base_weights":[3.778705E-4,-5.911725E-3,4.141276E-2,-8.907866E-2,-2.7647342E-3,1.3536187E-1,1.5810454E-2,-3.6548484E-2,1.9256849E-2,-1.6884375E-3,2.5476132E-2,6.884453E-2,2.310653E-2,3.9158843E-2,-1.600504E-3],"categories":[],"categories_nodes":[],"categories_segments":[],"categories_sizes":[],"default_left":[0,0,0,0,0,0,0,0,0,0,0,0,0,0,0],"id":17,"left_children":[1,3,5,7,9,11,13,-1,-1,-1,-1,-1,-1,-1,-1],"loss_changes":[1.5535863E-1,1.3637447E-1,1.9028495E-1,1.0319011E-1,1.2702069E-1,7.5671285E-2,1.5594675E-1,0E0,0E0,0E0,0E0,0E0,0E0,0E0,0E0],"parents":[2147483647,0,0,1,1,2,2,3,3,4,4,5,5,6,6],"right_children":[2,4,6,8,10,12,14,-1,-1,-1,-1,-1,-1,-1,-1],"split_conditions":[1.4399775E0,-1.5587962E0,-2.612547E-1,2.9409132E0,3.320146E0,-2.988057E-1,-1.7518911E0,-3.6548484E-2,1.9256849E-2,-1.6884375E-3,2.5476132E-2,6.884453E-2,2.310653E-2,3.9158843E-2,-1.600504E-3],"split_indices":[7,2,8,0,9,5,3,0,0,0,0,0,0,0,0],"split_type":[0,0,0,0,0,0,0,0,0,0,0,0,0,0,0],"sum_hessian":[6E2,5.21E2,7.9E1,1.8E1,5.03E2,1.6E1,6.3E1,1.5E1,3E0,4.88E2,1.5E1,5E0,1.1E1,9E0,5.4E1],"tree_param":{"num_deleted":"0","num_feature":"10","num_nodes":"15","size_leaf_vector":"1"}},{"base_weights":[4.908075E-4,5.094158E-3,-4.6233766E-2,7.707093E-2,3.2366721E-3,-2.2273336E-2,-1.2008794E-1,-1.2056682E-3,1.36379665E-2,-2.1474076E-2,3.2467407E-3,-1.2211383E-2,-3.9246257E-2],"categories":[],"categories_nodes":[],"categories_segments":[],"categories_sizes":[],"default_left":[0,0,0,0,0,0,0,0,0,0,0,0,0],"id":18,"left_children":[1,3,5,-1,7,9,11,-1,-1,-1,-1,-1,-1],"loss_changes":[1.2950437E-1,2.5548536E-1,9.288244E-2,0E0,1.6714527E-1,6.931245E-2,5.7511777E-3,0E0,0E0,0E0,0E0,0E0,0E0],"parents":[2147483647,0,0,1,1,2,2,4,4,5,5,6,6],"right_children":[2,4,6,-1,8,10,12,-1,-1,-1,-1,-1,-1],"split_conditions":[1.0709201E0,-9.1199064E-1,3.2638994E-1,7.707093E-2,4.8987454E-1,-9.159099E-1,-1.780412E0,-1.2056682E-3,1.36379665E-2,-2.1474076E-2,3.2467407E-3,-1.2211383E-2,-3.9246257E-2],"split_indices":[1,0,4,0,4,6,7,0,0,0,0,0,0],"split_type":[0,0,0,0,0,0,0,0,0,0,0,0,0],"sum_hessian":[6E2,5.47E2,5.3E1,3E0,5.44E2,4.1E1,1.2E1,4.65E2,7.9E1,1.6E1,2.5E1,2E0,1E1],"tree_param":{"num_deleted":"0","num_feature":"10","num_nodes":"13","size_leaf_vector":"1"}},{"base_weights":[3.765515E-4,4.034256E-3,-7.4619845E-2,-8.992448E-4,1.6573186E-1,-1.0761115E-1,3.972709E-2,-1.4159697E-2,2.2562377E-3,-1.128611E-2,5.4237794E-2,-4.4945545E-2,-2.0059858E-2,-1.5885402E-2,3.6742125E-2],"categories":[],"categories_nodes":[],"categories_segments":[],"categories_sizes":[],"default_left":[0,0,0,0,0,0,0,0,0,0,0,0,0,0,0],"id":19,"left_children":[1,3,5,7,9,11,13,-1,-1,-1,-1,-1,-1,-1,-1],"loss_changes":[1.6516416E-1,4.5804906E-1,1.0990378E-1,2.1788879E-1,5.886641E-2,2.7816415E-2,6.0166962E-2,0E0,0E0,0E0,0E0,0E0,0E0,0E0,0E0],"parents":[2147483647,0,0,1,1,2,2,3,3,4,4,5,5,6,6],"right_children":[2,4,6,8,10,12,14,-1,-1,-1,-1,-1,-1,-1,-1],"split_conditions":[2.0789452E0,1.5361761E0,-2.8496057E-1,-8.0021393E-1,-9.632721E-1,3.1483984E-1,-5.9613967E-1,-1.4159697E-2,2.2562377E-3,-1.128611E-2,5.4237794E-2,-4.4945545E-2,-2.0059858E-2,-1.5885402E-2,3.6742125E-2],"split_indices":[4,4,0,0,9,3,7,0,0,0,0,0,0,0,0],"split_type":[0,0,0,0,0,0,0,0,0,0,0,0,0,0,0],"sum_hessian":[6E2,5.73E2,2.7E1,5.57E2,1.6E1,2.1E1,6E0,8.5E1,4.72E2,1E0,1.5E1,9E0,1.2E1,3E0,3E0],"tree_param":{"num_deleted":"0","num_feature":"10","num_nodes":"15","size_leaf_vector":"1"}},{"base_weights":[2.417962E-4,-3.6941897E-3,4.5664597E-2,9.368051E-5,-7.227094E-2,1.6334067E-1,-7.594396E-3,-1.6211699E-3,1.6871154E-2,-3.9776242E-3,-4.3164425E-2,3.5560507E-2,9.0915486E-2,-4.530972E-2,2.0271905E-2],"categories":[],"categories_nodes":[],"categories_segments":[],"categories_sizes":[],"default_left":[0,0,0,0,0,0,0,0,0,0,0,0,0,0,0],"id":20,"left_children":[1,3,5,7,9,11,13,-1,-1,-1,-1,-1,-1,-1,-1],"loss_changes":[1.0761759E-1,1.439137E-1,3.0207133E-1,1.6265556E-1,1.2064318E-1,5.797538E-2,3.7678906E-1,0E0,0E0,0E0,0E0,0E0,0E0,0E0,0E0],"parents":[2147483647,0,0,1,1,2,2,3,3,4,4,5,5,6,6],"right_children":[2,4,6,8,10,12,14,-1,-1,-1,-1,-1,-1,-1,-1],"split_conditions":[1.7055752E0,1.2627568E0,-1.9676086E-1,8.1403416E-1,-1.1761374E0,-2.886003E-1,-5.9613967E-1,-1.6211699E-3,1.6871154E-2,-3.9776242E-3,-4.3164425E-2,3.5560507E-2,9.0915486E-2,-4.530972E-2,2.0271905E-2],"split_indices":[6,6,4,6,5,1,7,0,0,0,0,0,0,0,0],"split_type":[0,0,0,0,0,0,0,0,0,0,0,0,0,0,0],"sum_hessian":[6E2,5.53E2,4.7E1,5.25E2,2.8E1,1.4E1,3.3E1,4.79E2,4.6E1,1.6E1,1.2E1,1.2E1,2E0,1.1E1,2.2E1],"tree_param":{"num_deleted":"0","num_feature":"10","num_nodes":"15","size_leaf_vector":"1"}},{"base_weights":[2.8497816E-4,-1.553088E-3,9.063282E-2,-2.995936E-2,5.9928023E-3,5.1425368E-2,4.057145E-2,1.4132237E-3,-2.0105798E-2,2.1483779E-2,-1.4386512E-3,-1.2879075E-2,2.131129E-2],"categories":[],"categories_nodes":[],"categories_segments":[],"categories_sizes":[],"default_left":[0,0,0,0,0,0,0,0,0,0,0,0,0],"id":21,"left_children":[1,3,5,7,9,11,-1,-1,-1,-1,-1,-1,-1],"loss_changes":[9.994601E-2,1.2664638E-1,1.4031678E-2,1.5963992E-1,3.3094501E-1,1.785388E-2,0E0,0E0,0E0,0E0,0E0,0E0,0E0],"parents":[2147483647,0,0,1,1,2,2,3,3,4,4,5,5],"right_children":[2,4,6,8,10,12,-1,-1,-1,-1,-1,-1,-1],"split_conditions":[3.2130833E0,-5.123805E-1,4.4873657E0,3.334761E-1,-2.988057E-1,-9.839715E-1,4.057145E-2,1.4132237E-3,-2.0105798E-2,2.1483779E-2,-1.4386512E-3,-1.2879075E-2,2.131129E-2],"split_indices":[0,5,0,8,5,7,0,0,0,0,0,0,0],"split_type":[0,0,0,0,0,0,0,0,0,0,0,0,0],"sum_hessian":[6E2,5.89E2,1.1E1,1.23E2,4.66E2,7E0,4E0,6.4E1,5.9E1,6.5E1,4.01E2,1E0,6E0],"tree_param":{"num_deleted":"0","num_feature":"10","num_nodes":"13","size_leaf_vector":"1"}},{"base_weights":[2.832838E-4,-2.9675372E-2,6.2505794E-3,-1.4416872E-2,-8.638988E-2,-4.4816386E-4,4.6921093E-2,-1.152401E-2,1.2952653E-2,-3.1328328E-2,4.9134092E-3,-3.083992E-3,1.1430628E-2,3.1000104E-2,-1.4651309E-2],"categories":[],"categories_nodes":[],"categories_segments":[],"categories_sizes":[],"default_left":[0,0,0,0,0,0,0,0,0,0,0,0,0,0,0],"id":22,"left_children":[1,3,5,7,9,11,13,-1,-1,-1,-1,-1,-1,-1,-1],"loss_changes":[1.0762755E-1,8.529236E-2,1.3678657E-1,1.12219736E-1,4.0638342E-2,1.641278E-1,3.885886E-1,0E0,0E0,0E0,0E0,0E0,0E0,0E0,0E0],"parents":[2147483647,0,0,1,1,2,2,3,3,4,4,5,5,6,6],"right_children":[2,4,6,8,10,12,14,-1,-1,-1,-1,-1,-1,-1,-1],"split_conditions":[-9.839715E-1,4.0486255E-1,5.029533E-1,3.9963368E-1,1.5361761E0,7.5499165E-1,2.0789452E0,-1.152401E-2,1.2952653E-2,-3.1328328E-2,4.9134092E-3,-3.083992E-3,1.1430628E-2,3.1000104E-2,-1.4651309E-2],"split_indices":[7,4,4,9,4,6,4,0,0,0,0,0,0,0,0],"split_type":[0,0,0,0,0,0,0,0,0,0,0,0,0,0,0],"sum_hessian":[6E2,9.9E1,5.01E2,7.9E1,2E1,4.31E2,7E1,5.6E1,2.3E1,1.7E1,3E0,3.44E2,8.7E1,4.4E1,2.6E1],"tree_param":{"num_deleted":"0","num_feature":"10","num_nodes":"15","size_leaf_vector":"1"}},{"base_weights":[1.9781131E-4,-8.313278E-3,1.9085E-2,-1.5782865E-2,3.6144827E-2,4.831478E-2,-1.5067793E-2,-5.7759993E-3,1.9318778E-2,3.1196924E-2,3.9707185E-3,2.8758021E-2,2.5190902E-3,2.2232026E-2,-7.5108567E-3],"categories":[],"categories_nodes":[],"categories_segments":[],"categories_sizes":[],"default_left":[0,0,0,0,0,0,0,0,0,0,0,0,0,0,0],"id":23,"left_children":[1,3,5,7,9,11,13,-1,-1,-1,-1,-1,-1,-1,-1],"loss_changes":[9.676974E-2,1.383852E-1,1.8740614E-1,1.0029957E-1,9.1879584E-2,1.9088334E-1,7.9192E-2,0E0,0E0,0E0,0E0,0E0,0E0,0E0,0E0],"parents":[2147483647,0,0,1,1,2,2,3,3,4,4,5,5,6,6],"right_children":[2,4,6,8,10,12,14,-1,-1,-1,-1,-1,-1,-1,-1],"split_conditions":[5.9632397E-1,1.3153174E0,8.9888823E-1,2.1176686E0,-2.612547E-1,5.453962E-1,-1.4457834E0,-5.7759993E-3,1.9318778E-2,3.1196924E-2,3.9707185E-3,2.8758021E-2,2.5190902E-3,2.2232026E-2,-7.5108567E-3],"split_indices":[5,7,5,8,8,3,4,0,0,0,0,0,0,0,0],"split_type":[0,0,0,0,0,0,0,0,0,0,0,0,0,0,0],"sum_hessian":[6E2,4.14E2,1.86E2,3.55E2,5.9E1,1E2,8.6E1,3.41E2,1.4E1,1.4E1,4.5E1,4.5E1,5.5E1,8E0,7.8E1],"tree_param":{"num_deleted":"0","num_feature":"10","num_nodes":"15","size_leaf_vector":"1"}},{"base_weights":[2.9605112E-4,-6.807132E-3,1.8052287E-2,-1.7926801E-3,-1.8132782E-1,7.261809E-2,-1.6607722E-2,-4.448306E-2,-7.0472756E-6,-1.4081399E-2,-7.279665E-2,1.0736573E-2,4.3897334E-2,-2.5759093E-2,-1.2745063E-3],"categories":[],"categories_nodes":[],"categories_segments":[],"categories_sizes":[],"default_left":[0,0,0,0,0,0,0,0,0,0,0,0,0,0,0],"id":24,"left_children":[1,3,5,7,9,11,13,-1,-1,-1,-1,-1,-1,-1,-1],"loss_changes":[7.59245E-2,3.7597895E-1,3.2650122E-1,1.085838E-1,8.751202E-2,1.7663941E-1,9.0366915E-2,0E0,0E0,0E0,0E0,0E0,0E0,0E0,0E0],"parents":[2147483647,0,0,1,1,2,2,3,3,4,4,5,5,6,6],"right_children":[2,4,6,8,10,12,14,-1,-1,-1,-1,-1,-1,-1,-1],"split_conditions":[4.7233352E-1,4.6715868E-1,7.6988757E-1,-1.153351E0,-6.374659E-1,2.2800304E-1,-7.8601646E-1,-4.448306E-2,-7.0472756E-6,-1.4081399E-2,-7.279665E-2,1.0736573E-2,4.3897334E-2,-2.5759093E-2,-1.2745063E-3],"split_indices":[2,2,2,8,0,7,6,0,0,0,0,0,0,0,0],"split_type":[0,0,0,0,0,0,0,0,0,0,0,0,0,0,0],"sum_hessian":[6E2,4.29E2,1.71E2,4.18E2,1.1E1,6.6E1,1.05E2,4E0,4.14E2,4E0,7E0,4.5E1,2.1E1,1.5E1,9E1],"tree_param":{"num_deleted":"0","num_feature":"10","num_nodes":"15","size_leaf_vector":"1"}},{"base_weights":[3.457597E-5,-3.072083E-3,3.5889875E-2,6.051881E-2,-5.0757504E-3,1.09542936E-1,-8.034153E-3,-1.4882446E-2,2.3552885E-2,-1.0434466E-2,1.9595669E-4,1.45366965E-2,5.3953525E-2,-1.3081953E-2,1.5576786E-2],"categories":[],"categories_nodes":[],"categories_segments":[],"categories_sizes":[],"default_left":[0,0,0,0,0,0,0,0,0,0,0,0,0,0,0],"id":25,"left_children":[1,3,5,7,9,11,13,-1,-1,-1,-1,-1,-1,-1,-1],"loss_changes":[6.705576E-2,7.089508E-2,1.5616675E-1,3.757635E-2,9.158103E-2,6.8587705E-2,6.8381086E-2,0E0,0E0,0E0,0E0,0E0,0E0,0E0,0E0],"parents":[2147483647,0,0,1,1,2,2,3,3,4,4,5,5,6,6],"right_children":[2,4,6,8,10,12,14,-1,-1,-1,-1,-1,-1,-1,-1],"split_conditions":[1.7055752E0,-2.4502182E0,-2.9095727E-1,-2.9663968E0,-5.123805E-1,2.2800304E-1,9.282069E-1,-1.4882446E-2,2.3552885E-2,-1.0434466E-2,1.9595669E-4,1.45366965E-2,5.3953525E-2,-1.3081953E-2,1.5576786E-2],"split_indices":[6,1,2,5,5,7,8,0,0,0,0,0,0,0,0],"split_type":[0,0,0,0,0,0,0,0,0,0,0,0,0,0,0],"sum_hessian":[6E2,5.53E2,4.7E1,1.6E1,5.37E2,1.7E1,3E1,2E0,1.4E1,8.6E1,4.51E2,1E1,7E0,1.9E1,1.1E1],"tree_param":{"num_deleted":"0","num_feature":"10","num_nodes":"15","size_leaf_vector":"1"}},{"base_weights":[1.3969184E-4,-1.6677097E-3,5.877207E-2,8.9028775E-4,-4.1817162E-2,-4.2797368E-2,1.1312324E-1,-1.9204771E-2,8.4892305E-4,-1.5335302E-2,8.0621743E-4,2.5943518E-4,-1.8130558E-2,4.1407786E-2,1.5196268E-2],"categories":[],"categories_nodes":[],"categories_segments":[],"categories_sizes":[],"default_left":[0,0,0,0,0,0,0,0,0,0,0,0,0,0,0],"id":26,"left_children":[1,3,5,7,9,11,13,-1,-1,-1,-1,-1,-1,-1,-1],"loss_changes":[6.378734E-2,6.0015313E-2,1.0420889E-1,6.941663E-2,1.46243945E-2,5.4429993E-3,1.1676192E-2,0E0,0E0,0E0,0E0,0E0,0E0,0E0,0E0],"parents":[2147483647,0,0,1,1,2,2,3,3,4,4,5,5,6,6],"right_children":[2,4,6,8,10,12,14,-1,-1,-1,-1,-1,-1,-1,-1],"split_conditions":[3.320146E0,2.151941E0,-6.443913E-1,-1.5241659E0,2.2800304E-1,-9.283347E-1,7.6988757E-1,-1.9204771E-2,8.4892305E-4,-1.5335302E-2,8.0621743E-4,2.5943518E-4,-1.8130558E-2,4.1407786E-2,1.5196268E-2],"split_indices":[9,9,0,7,7,0,2,0,0,0,0,0,0,0,0],"split_type":[0,0,0,0,0,0,0,0,0,0,0,0,0,0,0],"sum_hessian":[6E2,5.83E2,1.7E1,5.49E2,3.4E1,6E0,1.1E1,1.5E1,5.34E2,2.8E1,6E0,2E0,4E0,7E0,4E0],"tree_param":{"num_deleted":"0","num_feature":"10","num_nodes":"15","size_leaf_vector":"1"}},{"base_weights":[1.0750503E-4,-5.8386475E-4,4.1434553E-2,2.3267204E-3,-3.734981E-2,3.9231154E-6,4.82429E-2,-2.5356125E-2,-5.7195146E-3],"categories":[],"categories_nodes":[],"categories_segments":[],"categories_sizes":[],"default_left":[0,0,0,0,0,0,0,0,0],"id":27,"left_children":[1,3,-1,5,7,-1,-1,-1,-1],"loss_changes":[5.742465E-2,6.418614E-2,0E0,2.0386809E-1,3.6338758E-2,0E0,0E0,0E0,0E0],"parents":[2147483647,0,0,1,1,3,3,4,4],"right_children":[2,4,-1,6,8,-1,-1,-1,-1],"split_conditions":[1.9748456E0,1.0656259E0,4.1434553E-2,9.9468553E-1,3.9963368E-1,3.9231154E-6,4.82429E-2,-2.5356125E-2,-5.7195146E-3],"split_indices":[3,3,0,3,9,0,0,0,0],"split_type":[0,0,0,0,0,0,0,0,0],"sum_hessian":[6E2,5.98E2,2E0,5.55E2,4.3E1,5.48E2,7E0,1.1E1,3.2E1],"tree_param":{"num_deleted":"0","num_feature":"10","num_nodes":"9","size_leaf_vector":"1"}},{"base_weights":[1.7276713E-4,1.6887303E-2,-5.2764053E-3,5.610563E-2,1.2077559E-2,-1.3230577E-1,-3.8532426E-3,9.026393E-3,-1.1828333E-2,-5.7523835E-2,-2.0852745E-2,-6.362184E-4,-2.3961544E-2],"categories":[],"categories_nodes":[],"categories_segments":[],"categories_sizes":[],"default_left":[0,0,0,0,0,0,0,0,0,0,0,0,0],"id":28,"left_children":[1,3,5,-1,7,9,11,-1,-1,-1,-1,-1,-1],"loss_changes":[5.4828424E-2,1.18848056E-1,8.156588E-2,0E0,1.3569303E-1,5.3351596E-3,5.9097093E-2,0E0,0E0,0E0,0E0,0E0,0E0],"parents":[2147483647,0,0,1,1,2,2,4,4,5,5,6,6],"right_children":[2,4,6,-1,8,10,12,-1,-1,-1,-1,-1,-1],"split_conditions":[-2.612547E-1,-9.1199064E-1,-1.1579729E0,5.610563E-2,4.8432305E-1,-9.839715E-1,2.0854845E0,9.026393E-3,-1.1828333E-2,-5.7523835E-2,-2.0852745E-2,-6.362184E-4,-2.3961544E-2],"split_indices":[8,0,9,0,1,7,4,0,0,0,0,0,0],"split_type":[0,0,0,0,0,0,0,0,0,0,0,0,0],"sum_hessian":[6E2,1.47E2,4.53E2,3E0,1.44E2,4E0,4.49E2,1.07E2,3.7E1,1E0,3E0,4.4E2,9E0],"tree_param":{"num_deleted":"0","num_feature":"10","num_nodes":"13","size_leaf_vector":"1"}},{"base_weights":[3.828299E-5,-9.238983E-2,9.6870307E-4,-2.0916462E-3,-4.1104805E-2,-3.9007755E-3,2.093777E-2,-1.7699087E-2,1.6757846E-2,-3.2271293E-3,4.7610765E-3,1.55727E-2,-8.398228E-3],"categories":[],"categories_nodes":[],"categories_segments":[],"categories_sizes":[],"default_left":[0,0,0,0,0,0,0,0,0,0,0,0,0],"id":29,"left_children":[1,3,5,7,-1,9,11,-1,-1,-1,-1,-1,-1],"loss_changes":[5.177368E-2,2.3891393E-2,5.803609E-2,1.318872E-2,0E0,6.5237865E-2,1.7876427E-1,0E0,0E0,0E0,0E0,0E0,0E0],"parents":[2147483647,0,0,1,1,2,2,3,3,5,5,6,6],"right_children":[2,4,6,8,-1,10,12,-1,-1,-1,-1,-1,-1],"split_conditions":[-1.6778178E0,-5.9613967E-1,8.1403416E-1,-9.839715E-1,-4.1104805E-2,7.7004087E-1,1.04050845E-1,-1.7699087E-2,1.6757846E-2,-3.2271293E-3,4.7610765E-3,1.55727E-2,-8.398228E-3],"split_indices":[2,7,6,7,0,3,4,0,0,0,0,0,0],"split_type":[0,0,0,0,0,0,0,0,0,0,0,0,0],"sum_hessian":[6E2,5E0,5.95E2,2E0,3E0,4.79E2,1.16E2,1E0,1E0,3.56E2,1.23E2,7.1E1,4.5E1],"tree_param":{"num_deleted":"0","num_feature":"10","num_nodes":"13","size_leaf_vector":"1"}},{"base_weights":[-2.8681936E-5,-8.0927124E-4,2.7953828E-2,-1.7033145E-2,3.7434842E-3,-2.7157582E-2,-2.6584375E-3,1.5579521E-2,-1.2531996E-3],"categories":[],"categories_nodes":[],"categories_segments":[],"categories_sizes":[],"default_left":[0,0,0,0,0,0,0,0,0],"id":30,"left_children":[1,3,-1,5,7,-1,-1,-1,-1],"loss_changes":[4.380251E-2,4.416017E-2,0E0,7.787047E-2,1.784663E-1,0E0,0E0,0E0,0E0],"parents":[2147483647,0,0,1,1,3,3,4,4],"right_children":[2,4,-1,6,8,-1,-1,-1,-1],"split_conditions":[4.4873657E0,-5.123805E-1,2.7953828E-2,-9.839715E-1,-2.988057E-1,-2.7157582E-2,-2.6584375E-3,1.5579521E-2,-1.2531996E-3],"split_indices":[0,5,0,7,5,0,0,0,0],"split_type":[0,0,0,0,0,0,0,0,0],"sum_hessian":[6E2,5.96E2,4E0,1.3E2,4.66E2,1.2E1,1.18E2,6.5E1,4.01E2],"tree_param":{"num_deleted":"0","num_feature":"10","num_nodes":"9","size_leaf_vector":"1"}},{"base_weights":[6.592912E-7,-5.7128007E-3,1.26802595E-2,-1.4298939E-2,1.3010575E-2,-9.855625E-2,1.6912166E-2,-3.6477388E-3,-3.9508946E-2,-2.0643375E-4,2.4273789E-2,-3.8077712E-2,-5.5265194E-3,-1.4076016E-3,1.4905095E-2],"categories":[],"categories_nodes":[],"categories_segments":[],"categories_sizes":[],"default_left":[0,0,0,0,0,0,0,0,0,0,0,0,0,0,0],"id":31,"left_children":[1,3,5,7,9,11,13,-1,-1,-1,-1,-1,-1,-1,-1],"loss_changes":[4.361152E-2,6.6902064E-2,8.969567E-2,6.999308E-2,1.2190781E-1,1.357542E-2,1.2838127E-1,0E0,0E0,0E0,0E0,0E0,0E0,0E0,0E0],"parents":[2147483647,0,0,1,1,2,2,3,3,4,4,5,5,6,6],"right_children":[2,4,6,8,10,12,14,-1,-1,-1,-1,-1,-1,-1,-1],"split_conditions":[5.9632397E-1,7.5499165E-1,-1.2316613E0,5.9557706E-1,-1.2187364E-1,3.5176482E0,-7.261116E-1,-3.6477388E-3,-3.9508946E-2,-2.0643375E-4,2.4273789E-2,-3.8077712E-2,-5.5265194E-3,-1.4076016E-3,1.4905095E-2],"split_indices":[5,6,3,6,5,7,0,0,0,0,0,0,0,0,0],"split_type":[0,0,0,0,0,0,0,0,0,0,0,0,0,0,0],"sum_hessian":[6E2,4.14E2,1.86E2,2.84E2,1.3E2,6E0,1.8E2,2.8E2,4E0,1.09E2,2.1E1,4E0,2E0,1.09E2,7.1E1],"tree_param":{"num_deleted":"0","num_feature":"10","num_nodes":"15","size_leaf_vector":"1"}},{"base_weights":[-8.138943E-5,-3.5797874E-3,2.1493034E-2,-1.9054936E-2,3.7076192E-3,-5.4194223E-2,3.6114562E-2,8.7480276E-4,-1.522855E-2,-9.059429E-3,3.8426311E-3,-2.284923E-2,5.9314417E-3,2.0269535E-2,-5.292179E-3],"categories":[],"categories_nodes":[],"categories_segments":[],"categories_sizes":[],"default_left":[0,0,0,0,0,0,0,0,0,0,0,0,0,0,0],"id":32,"left_children":[1,3,5,7,9,11,13,-1,-1,-1,-1,-1,-1,-1,-1],"loss_changes":[4.543797E-2,5.8487426E-2,9.491694E-2,1.1578867E-1,1.093159E-1,2.425611E-2,1.2122658E-1,0E0,0E0,0E0,0E0,0E0,0E0,0E0,0E0],"parents":[2147483647,0,0,1,1,2,2,3,3,4,4,5,5,6,6],"right_children":[2,4,6,8,10,12,14,-1,-1,-1,-1,-1,-1,-1,-1],"split_conditions":[5.029533E-1,-1.8446879E-1,-9.839715E-1,-2.4271533E-1,-6.6932297E-1,1.5361761E0,2.0789452E0,8.7480276E-4,-1.522855E-2,-9.059429E-3,3.8426311E-3,-2.284923E-2,5.9314417E-3,2.0269535E-2,-5.292179E-3],"split_indices":[4,9,7,0,0,4,4,0,0,0,0,0,0,0,0],"split_type":[0,0,0,0,0,0,0,0,0,0,0,0,0,0,0],"sum_hessian":[6E2,5.17E2,8.3E1,1.65E2,3.52E2,1.3E1,7E1,9.8E1,6.7E1,7.4E1,2.78E2,1E1,3E0,4.4E1,2.6E1],"tree_param":{"num_deleted":"0","num_feature":"10","num_nodes":"15","size_leaf_vector":"1"}},{"base_weights":[-9.276527E-5,-6.40911E-4,3.2815374E-2,1.4913728E-3,-3.129656E-2,-8.958845E-4,7.6778107E-3,-7.208884E-4,-1.3695282E-2],"categories":[],"categories_nodes":[],"categories_segments":[],"categories_sizes":[],"default_left":[0,0,0,0,0,0,0,0,0],"id":33,"left_children":[1,3,-1,5,7,-1,-1,-1,-1],"loss_changes":[3.613584E-2,3.9201237E-2,0E0,6.0618106E-2,1.6065538E-2,0E0,0E0,0E0,0E0],"parents":[2147483647,0,0,1,1,3,3,4,4],"right_children":[2,4,-1,6,8,-1,-1,-1,-1],"split_conditions":[1.9748456E0,1.1365664E0,3.2815374E-2,7.7004087E-1,-9.354925E-1,-8.958845E-4,7.6778107E-3,-7.208884E-4,-1.3695282E-2],"split_indices":[3,3,0,3,7,0,0,0,0],"split_type":[0,0,0,0,0,0,0,0,0],"sum_hessian":[6E2,5.98E2,2E0,5.6E2,3.8E1,4.73E2,8.7E1,1.3E1,2.5E1],"tree_param":{"num_deleted":"0","num_feature":"10","num_nodes":"9","size_leaf_vector":"1"}},{"base_weights":[-2.3041131E-5,3.8658317E-2,-1.4902253E-3,6.5082824E-3,8.437411E-2,-6.996031E-2,3.269858E-4,2.3660196E-2,-1.2736266E-2,2.8368209E-2,9.744216E-3,-1.1342822E-2,-2.615796E-2,-3.3609073E-3,2.0268857E-3],"categories":[],"categories_nodes":[],"categories_segments":[],"categories_sizes":[],"default_left":[0,0,0,0,0,0,0,0,0,0,0,0,0,0,0],"id":34,"left_children":[1,3,5,7,9,11,13,-1,-1,-1,-1,-1,-1,-1,-1],"loss_changes":[3.4165967E-2,3.1785678E-2,7.218914E-2,5.2948557E-2,1.6861558E-3,5.014077E-3,4.2033207E-2,0E0,0E0,0E0,0E0,0E0,0E0,0E0,0E0],"parents":[2147483647,0,0,1,1,2,2,3,3,4,4,5,5,6,6],"right_children":[2,4,6,8,10,12,14,-1,-1,-1,-1,-1,-1,-1,-1],"split_conditions":[-2.3395143E0,2.2800304E-1,-1.5769082E0,-2.2262135E0,3.3432817E0,-1.9445667E-1,-1.8446879E-1,2.3660196E-2,-1.2736266E-2,2.8368209E-2,9.744216E-3,-1.1342822E-2,-2.615796E-2,-3.3609073E-3,2.0268857E-3],"split_indices":[3,7,2,5,0,7,9,0,0,0,0,0,0,0,0],"split_type":[0,0,0,0,0,0,0,0,0,0,0,0,0,0,0],"sum_hessian":[6E2,2.1E1,5.79E2,1.3E1,8E0,1.4E1,5.65E2,5E0,8E0,6E0,2E0,6E0,8E0,2.02E2,3.63E2],"tree_param":{"num_deleted":"0","num_feature":"10","num_nodes":"15","size_leaf_vector":"1"}},{"base_weights":[8.446925E-7,-3.839457E-2,1.3886294E-3,-8.247546E-2,9.176737E-3,-4.4089993E-3,1.6283218E-2,-3.0411126E-3,-2.92273E-2,9.999665E-3,-4.9524605E-3,-2.0680728E-4,-3.9152823E-2,5.2363444E-2,3.051068E-3],"categories":[],"categories_nodes":[],"categories_segments":[],"categories_sizes":[],"default_left":[0,0,0,0,0,0,0,0,0,0,0,0,0,0,0],"id":35,"left_children":[1,3,5,7,9,11,13,-1,-1,-1,-1,-1,-1,-1,-1],"loss_changes":[3.2077342E-2,4.4793554E-2,5.0243057E-2,1.0907553E-2,7.3750075E-3,1.9644132E-1,1.5591949E-1,0E0,0E0,0E0,0E0,0E0,0E0,0E0,0E0],"parents":[2147483647,0,0,1,1,2,2,3,3,4,4,5,5,6,6],"right_children":[2,4,6,8,10,12,14,-1,-1,-1,-1,-1,-1,-1,-1],"split_conditions":[-1.3302499E0,3.0849952E-1,4.7233352E-1,-6.38851E-1,-6.533944E-1,4.6715868E-1,4.8527065E-1,-3.0411126E-3,-2.92273E-2,9.999665E-3,-4.9524605E-3,-2.0680728E-4,-3.9152823E-2,5.2363444E-2,3.051068E-3],"split_indices":[7,1,2,0,0,2,2,0,0,0,0,0,0,0,0],"split_type":[0,0,0,0,0,0,0,0,0,0,0,0,0,0,0],"sum_hessian":[6E2,2E1,5.8E2,1E1,1E1,4.18E2,1.62E2,2E0,8E0,5E0,5E0,4.07E2,1.1E1,5E0,1.57E2],"tree_param":{"num_deleted":"0","num_feature":"10","num_nodes":"15","size_leaf_vector":"1"}},{"base_weights":[-1.7980641E-5,2.259323E-3,-2.312806E-2,-3.8704727E-4,4.1058607E-2,-6.901635E-3,-7.377282E-2,2.4677808E-3,-3.053339E-3,-1.9977957E-2,1.9688314E-2,1.1747873E-3,-1.4100375E-2,5.923498E-3,-2.7771316E-2],"categories":[],"categories_nodes":[],"categories_segments":[],"categories_sizes":[],"default_left":[0,0,0,0,0,0,0,0,0,0,0,0,0,0,0],"id":36,"left_children":[1,3,5,7,9,11,13,-1,-1,-1,-1,-1,-1,-1,-1],"loss_changes":[3.1682085E-2,5.6283034E-2,4.386714E-2,4.3428082E-2,9.694213E-2,1.8402869E-2,2.4681434E-2,0E0,0E0,0E0,0E0,0E0,0E0,0E0,0E0],"parents":[2147483647,0,0,1,1,2,2,3,3,4,4,5,5,6,6],"right_children":[2,4,6,8,10,12,14,-1,-1,-1,-1,-1,-1,-1,-1],"split_conditions":[1.0709201E0,8.5697556E-1,3.2638994E-1,1.6704729E-1,-5.738704E-1,-5.820623E-1,-1.780412E0,2.4677808E-3,-3.053339E-3,-1.9977957E-2,1.9688314E-2,1.1747873E-3,-1.4100375E-2,5.923498E-3,-2.7771316E-2],"split_indices":[1,1,4,3,9,0,7,0,0,0,0,0,0,0,0],"split_type":[0,0,0,0,0,0,0,0,0,0,0,0,0,0,0],"sum_hessian":[6E2,5.47E2,5.3E1,5.13E2,3.4E1,4.1E1,1.2E1,2.73E2,2.4E2,6E0,2.8E1,3.3E1,8E0,2E0,1E1],"tree_param":{"num_deleted":"0","num_feature":"10","num_nodes":"15","size_leaf_vector":"1"}},{"base_weights":[-7.189567E-5,9.234322E-4,-4.900286E-2,-3.96139E-3,1.3964116E-2,2.6526794E-2,-2.313805E-2,-4.1489364E-4,-2.8098239E-2,-7.927678E-4,1.6661476E-2,5.817175E-4,1.0222906E-2],"categories":[],"categories_nodes":[],"categories_segments":[],"categories_sizes":[],"default_left":[0,0,0,0,0,0,0,0,0,0,0,0,0],"id":37,"left_children":[1,3,5,7,9,11,-1,-1,-1,-1,-1,-1,-1],"loss_changes":[2.9315364E-2,3.763916E-2,2.7536256E-2,9.9321716E-2,1.1130247E-1,6.764303E-4,0E0,0E0,0E0,0E0,0E0,0E0,0E0],"parents":[2147483647,0,0,1,1,2,2,3,3,4,4,5,5],"right_children":[2,4,6,8,10,12,-1,-1,-1,-1,-1,-1,-1],"split_conditions":[2.9083955E0,4.7233352E-1,-9.839715E-1,4.6715868E-1,-4.5740423E-1,-8.189126E-1,-2.313805E-2,-4.1489364E-4,-2.8098239E-2,-7.927678E-4,1.6661476E-2,5.817175E-4,1.0222906E-2],"split_indices":[2,2,7,2,0,0,0,0,0,0,0,0,0],"split_type":[0,0,0,0,0,0,0,0,0,0,0,0,0],"sum_hessian":[6E2,5.89E2,1.1E1,4.29E2,1.6E2,3E0,8E0,4.18E2,1.1E1,1.15E2,4.5E1,1E0,2E0],"tree_param":{"num_deleted":"0","num_feature":"10","num_nodes":"13","size_leaf_vector":"1"}},{"base_weights":[-9.189572E-5,-3.0192507E-3,1.796122E-2,-7.502362E-2,-2.1712088E-3,8.313297E-2,7.0020114E-3,-5.941397E-3,-2.4631947E-2,-1.0751868E-3,1.5732272E-2,5.4787423E-2,8.903224E-3,1.09299235E-2,-5.877007E-3],"categories":[],"categories_nodes":[],"categories_segments":[],"categories_sizes":[],"default_left":[0,0,0,0,0,0,0,0,0,0,0,0,0,0,0],"id":38,"left_children":[1,3,5,7,9,11,13,-1,-1,-1,-1,-1,-1,-1,-1],"loss_changes":[3.1815805E-2,3.1467598E-2,5.941329E-2,7.2056055E-4,3.976749E-2,5.8400817E-2,5.7845846E-2,0E0,0E0,0E0,0E0,0E0,0E0,0E0,0E0],"parents":[2147483647,0,0,1,1,2,2,3,3,4,4,5,5,6,6],"right_children":[2,4,6,8,10,12,14,-1,-1,-1,-1,-1,-1,-1,-1],"split_conditions":[5.029533E-1,-1.153351E0,5.552684E-1,-7.8567046E-1,2.3078084E0,-4.4978625E-1,-4.671872E-1,-5.941397E-3,-2.4631947E-2,-1.0751868E-3,1.5732272E-2,5.4787423E-2,8.903224E-3,1.09299235E-2,-5.877007E-3],"split_indices":[4,8,4,0,6,0,6,0,0,0,0,0,0,0,0],"split_type":[0,0,0,0,0,0,0,0,0,0,0,0,0,0,0],"sum_hessian":[6E2,5.17E2,8.3E1,5E0,5.12E2,1.1E1,7.2E1,1E0,4E0,5E2,1.2E1,3E0,8E0,3.4E1,3.8E1],"tree_param":{"num_deleted":"0","num_feature":"10","num_nodes":"15","size_leaf_vector":"1"}},{"base_weights":[2.3577943E-5,-2.6117992E-3,1.7219119E-2,-7.724973E-3,8.30378E-3,7.751438E-2,5.4388605E-3,-3.548418E-2,-1.9351003E-3,1.320176E-3,2.5598906E-2,-4.232369E-3,3.594088E-2,1.6934067E-2,-2.6492267E-3],"categories":[],"categories_nodes":[],"categories_segments":[],"categories_sizes":[],"default_left":[0,0,0,0,0,0,0,0,0,0,0,0,0,0,0],"id":39,"left_children":[1,3,5,7,9,11,13,-1,-1,-1,-1,-1,-1,-1,-1],"loss_changes":[2.728033E-2,2.9198663E-2,5.6401905E-2,4.940402E-2,4.983255E-2,5.2059628E-2,4.9993284E-2,0E0,0E0,0E0,0E0,0E0,0E0,0E0,0E0],"parents":[2147483647,0,0,1,1,2,2,3,3,4,4,5,5,6,6],"right_children":[2,4,6,8,10,12,14,-1,-1,-1,-1,-1,-1,-1,-1],"split_conditions":[1.4399775E0,5.9632397E-1,-4.7652003E-1,-1.1579729E0,-4.208149E-2,-1.1238777E-1,-2.612547E-1,-3.548418E-2,-1.9351003E-3,1.320176E-3,2.5598906E-2,-4.232369E-3,3.594088E-2,1.6934067E-2,-2.6492267E-3],"split_indices":[7,5,9,9,6,1,8,0,0,0,0,0,0,0,0],"split_type":[0,0,0,0,0,0,0,0,0,0,0,0,0,0,0],"sum_hessian":[6E2,5.21E2,7.9E1,3.55E2,1.66E2,1.2E1,6.7E1,3E0,3.52E2,1.59E2,7E0,4E0,8E0,1.4E1,5.3E1],"tree_param":{"num_deleted":"0","num_feature":"10","num_nodes":"15","size_leaf_vector":"1"}},{"base_weights":[7.5569915E-5,3.1651435E-3,-1.4382016E-2,-9.7075844E-4,5.9393305E-2,-2.5761284E-2,-9.992753E-3,-6.0508787E-3,9.2763134E-4,7.167353E-3,3.2521237E-2,-1.3520279E-2,-1.0053018E-3],"categories":[],"categories_nodes":[],"categories_segments":[],"categories_sizes":[],"default_left":[0,0,0,0,0,0,0,0,0,0,0,0,0],"id":40,"left_children":[1,3,5,7,9,-1,11,-1,-1,-1,-1,-1,-1],"loss_changes":[2.6890853E-2,1.15404524E-1,3.2402992E-2,3.61774E-2,5.656971E-2,0E0,2.3377758E-2,0E0,0E0,0E0,0E0,0E0,0E0],"parents":[2147483647,0,0,1,1,2,2,3,3,4,4,6,6],"right_children":[2,4,6,8,10,-1,12,-1,-1,-1,-1,-1,-1],"split_conditions":[7.6988757E-1,6.405162E-1,8.061115E-1,-7.364998E-1,7.381177E-1,-2.5761284E-2,-7.8601646E-1,-6.0508787E-3,9.2763134E-4,7.167353E-3,3.2521237E-2,-1.3520279E-2,-1.0053018E-3],"split_indices":[2,2,2,0,3,0,6,0,0,0,0,0,0],"split_type":[0,0,0,0,0,0,0,0,0,0,0,0,0],"sum_hessian":[6E2,4.95E2,1.05E2,4.62E2,3.3E1,5E0,1E2,8E1,3.82E2,2E1,1.3E1,1.5E1,8.5E1],"tree_param":{"num_deleted":"0","num_feature":"10","num_nodes":"13","size_leaf_vector":"1"}},{"base_weights":[4.3368505E-5,-4.056312E-4,2.6903758E-2,1.3543888E-3,-2.2636665E-2,-1.2915823E-2,8.249649E-4,-1.3469991E-2,-4.1564875E-3],"categories":[],"categories_nodes":[],"categories_segments":[],"categories_sizes":[],"default_left":[0,0,0,0,0,0,0,0,0],"id":41,"left_children":[1,3,-1,5,7,-1,-1,-1,-1],"loss_changes":[2.42245E-2,2.346777E-2,0E0,3.4573644E-2,7.980343E-3,0E0,0E0,0E0,0E0],"parents":[2147483647,0,0,1,1,3,3,4,4],"right_children":[2,4,-1,6,8,-1,-1,-1,-1],"split_conditions":[1.9748456E0,1.0656259E0,2.6903758E-2,-1.3302499E0,3.9963368E-1,-1.2915823E-2,8.249649E-4,-1.3469991E-2,-4.1564875E-3],"split_indices":[3,3,0,7,9,0,0,0,0],"split_type":[0,0,0,0,0,0,0,0,0],"sum_hessian":[6E2,5.98E2,2E0,5.55E2,4.3E1,1.6E1,5.39E2,1.1E1,3.2E1],"tree_param":{"num_deleted":"0","num_feature":"10","num_nodes":"9","size_leaf_vector":"1"}},{"base_weights":[2.5677171E-5,5.9379064E-3,-6.6387285E-3,3.7821261E-3,1.4056449E-1,-1.2751698E-1,-4.448657E-3,5.0832485E-3,-1.2886678E-3,-5.2154213E-3,5.531939E-2,-1.0114709E-2,-4.2761516E-2,1.9874217E-3,-5.884025E-3],"categories":[],"categories_nodes":[],"categories_segments":[],"categories_sizes":[],"default_left":[0,0,0,0,0,0,0,0,0,0,0,0,0,0,0],"id":42,"left_children":[1,3,5,7,9,11,13,-1,-1,-1,-1,-1,-1,-1,-1],"loss_changes":[2.3719719E-2,9.205024E-2,7.435189E-2,3.3563204E-2,3.782305E-2,2.239354E-3,4.6981107E-2,0E0,0E0,0E0,0E0,0E0,0E0,0E0,0E0],"parents":[2147483647,0,0,1,1,2,2,3,3,4,4,5,5,6,6],"right_children":[2,4,6,8,10,12,14,-1,-1,-1,-1,-1,-1,-1,-1],"split_conditions":[-3.4313434E-1,-3.4936723E-1,-3.3274615E-1,1.4373037E-1,-1.780412E0,-9.839715E-1,-2.988057E-1,5.0832485E-3,-1.2886678E-3,-5.2154213E-3,5.531939E-2,-1.0114709E-2,-4.2761516E-2,1.9874217E-3,-5.884025E-3],"split_indices":[0,0,0,2,7,7,5,0,0,0,0,0,0,0,0],"split_type":[0,0,0,0,0,0,0,0,0,0,0,0,0,0,0],"sum_hessian":[6E2,3.18E2,2.82E2,3.14E2,4E0,4E0,2.78E2,1.19E2,1.95E2,1E0,3E0,1E0,3E0,1.61E2,1.17E2],"tree_param":{"num_deleted":"0","num_feature":"10","num_nodes":"15","size_leaf_vector":"1"}},{"base_weights":[1.3183716E-5,-7.783962E-3,4.0992494E-3,-1.9433891E-2,1.4805115E-2,2.9241287E-3,4.700209E-2,-7.4671097E-3,1.5705707E-2,1.2263213E-2,-9.567648E-3,7.519469E-5,1.4399198E-2],"categories":[],"categories_nodes":[],"categories_segments":[],"categories_sizes":[],"default_left":[0,0,0,0,0,0,0,0,0,0,0,0,0],"id":43,"left_children":[1,3,5,7,9,11,-1,-1,-1,-1,-1,-1,-1],"loss_changes":[1.9179557E-2,5.476208E-2,7.036272E-2,5.4965924E-2,8.774641E-2,4.734537E-2,0E0,0E0,0E0,0E0,0E0,0E0,0E0],"parents":[2147483647,0,0,1,1,2,2,3,3,4,4,5,5],"right_children":[2,4,6,8,10,12,-1,-1,-1,-1,-1,-1,-1],"split_conditions":[-1.8446879E-1,2.8061423E-1,2.3078084E0,1.3153174E0,1.2157463E0,2.1176686E0,4.700209E-2,-7.4671097E-3,1.5705707E-2,1.2263213E-2,-9.567648E-3,7.519469E-5,1.4399198E-2],"split_indices":[9,4,6,7,4,8,0,0,0,0,0,0,0],"split_type":[0,0,0,0,0,0,0,0,0,0,0,0,0],"sum_hessian":[6E2,2.06E2,3.94E2,1.36E2,7E1,3.92E2,2E0,1.27E2,9E0,4.5E1,2.5E1,3.71E2,2.1E1],"tree_param":{"num_deleted":"0","num_feature":"10","num_nodes":"13","size_leaf_vector":"1"}},{"base_weights":[1.2970567E-4,1.9267206E-3,-1.810907E-2,8.0378264E-2,1.3473942E-3,-7.4860595E-2,-1.2071736E-2,3.7327635E-3,2.96628E-2,-2.4750482E-4,6.587814E-3,-1.5038431E-3,-2.7320804E-2,-8.9736525E-3,-5.9243344E-4],"categories":[],"categories_nodes":[],"categories_segments":[],"categories_sizes":[],"default_left":[0,0,0,0,0,0,0,0,0,0,0,0,0,0,0],"id":44,"left_children":[1,3,5,7,9,11,13,-1,-1,-1,-1,-1,-1,-1,-1],"loss_changes":[1.9732878E-2,2.4797779E-2,1.7598212E-2,3.7963558E-3,2.4421956E-2,5.204212E-3,8.947639E-3,0E0,0E0,0E0,0E0,0E0,0E0,0E0,0E0],"parents":[2147483647,0,0,1,1,2,2,3,3,4,4,5,5,6,6],"right_children":[2,4,6,8,10,12,14,-1,-1,-1,-1,-1,-1,-1,-1],"split_conditions":[1.0709201E0,-9.1199064E-1,1.0989274E0,-1.9445667E-1,8.048509E-1,-1.780412E0,-9.336226E-1,3.7327635E-3,2.96628E-2,-2.4750482E-4,6.587814E-3,-1.5038431E-3,-2.7320804E-2,-8.9736525E-3,-5.9243344E-4],"split_indices":[1,0,1,7,1,7,6,0,0,0,0,0,0,0,0],"split_type":[0,0,0,0,0,0,0,0,0,0,0,0,0,0,0],"sum_hessian":[6E2,5.47E2,5.3E1,3E0,5.44E2,4E0,4.9E1,1E0,2E0,4.93E2,5.1E1,1E0,3E0,1.7E1,3.2E1],"tree_param":{"num_deleted":"0","num_feature":"10","num_nodes":"15","size_leaf_vector":"1"}},{"base_weights":[9.30161E-5,2.8549027E-2,-9.865102E-4,7.133619E-3,6.513429E-2,-3.6680516E-2,1.3033738E-3,1.789843E-2,-7.5289286E-3,2.1983575E-2,8.140278E-3,-3.8805185E-3,-4.478831E-2,1.6416298E-2,-3.772315E-4],"categories":[],"categories_nodes":[],"categories_segments":[],"categories_sizes":[],"default_left":[0,0,0,0,0,0,0,0,0,0,0,0,0,0,0],"id":45,"left_children":[1,3,5,7,9,11,13,-1,-1,-1,-1,-1,-1,-1,-1],"loss_changes":[1.8490288E-2,1.6772097E-2,4.7454182E-2,2.6891895E-2,4.875064E-4,9.166121E-2,7.47575E-2,0E0,0E0,0E0,0E0,0E0,0E0,0E0,0E0],"parents":[2147483647,0,0,1,1,2,2,3,3,4,4,5,5,6,6],"right_children":[2,4,6,8,10,12,14,-1,-1,-1,-1,-1,-1,-1,-1],"split_conditions":[-2.3395143E0,4.842491E-1,-1.2316613E0,-2.2262135E0,3.3432817E0,-1.3475307E0,-8.710475E-1,1.789843E-2,-7.5289286E-3,2.1983575E-2,8.140278E-3,-3.8805185E-3,-4.478831E-2,1.6416298E-2,-3.772315E-4],"split_indices":[3,7,3,5,0,3,3,0,0,0,0,0,0,0,0],"split_type":[0,0,0,0,0,0,0,0,0,0,0,0,0,0,0],"sum_hessian":[6E2,2.1E1,5.79E2,1.4E1,7E0,3.4E1,5.45E2,5E0,9E0,5E0,2E0,2.9E1,5E0,2.4E1,5.21E2],"tree_param":{"num_deleted":"0","num_feature":"10","num_nodes":"15","size_leaf_vector":"1"}},{"base_weights":[7.819085E-5,3.446255E-3,-8.206923E-3,1.9456733E-3,8.1983596E-2,-7.072962E-2,-5.52875E-3,-1.2234809E-3,3.9960225E-3,4.3414664E-3,3.5878956E-2,-6.0007535E-4,-2.6675649E-2],"categories":[],"categories_nodes":[],"categories_segments":[],"categories_sizes":[],"default_left":[0,0,0,0,0,0,0,0,0,0,0,0,0],"id":46,"left_children":[1,3,5,7,9,-1,11,-1,-1,-1,-1,-1,-1],"loss_changes":[1.6799064E-2,5.0281025E-2,1.0473922E-1,2.8900713E-2,1.8583853E-2,0E0,5.0725974E-2,0E0,0E0,0E0,0E0,0E0,0E0],"parents":[2147483647,0,0,1,1,2,2,3,3,4,4,6,6],"right_children":[2,4,6,8,10,-1,12,-1,-1,-1,-1,-1,-1],"split_conditions":[5.294459E-1,4.8743495E-1,5.3100187E-1,1.21006295E-1,-5.9613967E-1,-7.072962E-2,4.8527065E-1,-1.2234809E-3,3.9960225E-3,4.3414664E-3,3.5878956E-2,-6.0007535E-4,-2.6675649E-2],"split_indices":[1,1,1,1,7,0,2,0,0,0,0,0,0],"split_type":[0,0,0,0,0,0,0,0,0,0,0,0,0],"sum_hessian":[6E2,4.27E2,1.73E2,4.2E2,7E0,1E0,1.72E2,2.75E2,1.45E2,3E0,4E0,1.66E2,6E0],"tree_param":{"num_deleted":"0","num_feature":"10","num_nodes":"13","size_leaf_vector":"1"}},{"base_weights":[-3.67906E-5,-5.439991E-2,5.1055086E-4,-5.9125945E-4,-3.2403443E-2,-2.5648582E-3,1.312325E-2,-1.3288489E-2,8.622489E-3,4.6616E-4,-4.207561E-3,-1.3119914E-3,1.48838265E-2],"categories":[],"categories_nodes":[],"categories_segments":[],"categories_sizes":[],"default_left":[0,0,0,0,0,0,0,0,0,0,0,0,0],"id":47,"left_children":[1,3,5,7,-1,9,11,-1,-1,-1,-1,-1,-1],"loss_changes":[1.791064E-2,1.724473E-2,2.315203E-2,6.400932E-3,0E0,2.2678755E-2,7.4914515E-2,0E0,0E0,0E0,0E0,0E0,0E0],"parents":[2147483647,0,0,1,1,2,2,3,3,5,5,6,6],"right_children":[2,4,6,8,-1,10,12,-1,-1,-1,-1,-1,-1],"split_conditions":[-1.6778178E0,2.2800304E-1,8.1403416E-1,-9.839715E-1,-3.2403443E-2,3.9963368E-1,4.842491E-1,-1.3288489E-2,8.622489E-3,4.6616E-4,-4.207561E-3,-1.3119914E-3,1.48838265E-2],"split_indices":[2,7,6,7,0,9,7,0,0,0,0,0,0],"split_type":[0,0,0,0,0,0,0,0,0,0,0,0,0],"sum_hessian":[6E2,5E0,5.95E2,3E0,2E0,4.79E2,1.16E2,1E0,2E0,3.53E2,1.26E2,7.9E1,3.7E1],"tree_param":{"num_deleted":"0","num_feature":"10","num_nodes":"13","size_leaf_vector":"1"}},{"base_weights":[-7.106907E-5,-7.9341475E-3,4.049762E-3,-1.0084665E-2,8.0963716E-2,3.0975037E-3,3.8233712E-2,-8.682686E-4,-9.787235E-3,-3.3973309E-3,3.206006E-2,1.1292211E-4,1.156665E-2],"categories":[],"categories_nodes":[],"categories_segments":[],"categories_sizes":[],"default_left":[0,0,0,0,0,0,0,0,0,0,0,0,0],"id":48,"left_children":[1,3,5,7,9,11,-1,-1,-1,-1,-1,-1,-1],"loss_changes":[1.9505985E-2,4.0390015E-2,4.601964E-2,3.2805488E-2,1.3162974E-2,3.7903953E-2,0E0,0E0,0E0,0E0,0E0,0E0,0E0],"parents":[2147483647,0,0,1,1,2,2,3,3,4,4,5,5],"right_children":[2,4,6,8,10,12,-1,-1,-1,-1,-1,-1,-1],"split_conditions":[-1.8446879E-1,9.5212126E-1,2.3078084E0,1.6588612E-1,-6.824813E-1,1.5361761E0,3.8233712E-2,-8.682686E-4,-9.787235E-3,-3.3973309E-3,3.206006E-2,1.1292211E-4,1.156665E-2],"split_indices":[9,3,6,0,0,4,0,0,0,0,0,0,0],"split_type":[0,0,0,0,0,0,0,0,0,0,0,0,0],"sum_hessian":[6E2,2.06E2,3.94E2,2.02E2,4E0,3.92E2,2E0,1.54E2,4.8E1,1E0,3E0,3.65E2,2.7E1],"tree_param":{"num_deleted":"0","num_feature":"10","num_nodes":"13","size_leaf_vector":"1"}},{"base_weights":[6.3258296E-5,5.273395E-3,-5.181824E-3,-9.6936965E-5,2.56481E-2,-7.916222E-2,-1.0103568E-3,8.7366975E-4,-1.8902138E-2,-1.6755188E-2,1.1049832E-2,1.3992904E-2,-3.353464E-2,1.9702803E-2,-1.0268607E-3],"categories":[],"categories_nodes":[],"categories_segments":[],"categories_sizes":[],"default_left":[0,0,0,0,0,0,0,0,0,0,0,0,0,0,0],"id":49,"left_children":[1,3,5,7,9,11,13,-1,-1,-1,-1,-1,-1,-1,-1],"loss_changes":[1.6451212E-2,3.3047E-2,9.250204E-2,4.5617267E-2,5.948393E-2,7.0873916E-2,4.6076078E-2,0E0,0E0,0E0,0E0,0E0,0E0,0E0,0E0],"parents":[2147483647,0,0,1,1,2,2,3,3,4,4,5,5,6,6],"right_children":[2,4,6,8,10,12,14,-1,-1,-1,-1,-1,-1,-1,-1],"split_conditions":[1.6704729E-1,2.9250738E-1,2.6281685E-1,2.2911544E-1,-1.5241659E0,-9.839715E-1,2.87646E-1,8.7366975E-4,-1.8902138E-2,-1.6755188E-2,1.1049832E-2,1.3992904E-2,-3.353464E-2,1.9702803E-2,-1.0268607E-3],"split_indices":[3,2,3,2,7,7,3,0,0,0,0,0,0,0,0],"split_type":[0,0,0,0,0,0,0,0,0,0,0,0,0,0,0],"sum_hessian":[6E2,3.01E2,2.99E2,2.39E2,6.2E1,1.5E1,2.84E2,2.29E2,1E1,7E0,5.5E1,3E0,1.2E1,9E0,2.75E2],"tree_param":{"num_deleted":"0","num_feature":"10","num_nodes":"15","size_leaf_vector":"1"}},{"base_weights":[3.3570182E-6,-3.5348212E-4,7.125112E-2,-1.016631E-2,2.4419345E-3,2.5675965E-2,6.3870386E-3,2.5549866E-3,-7.287171E-3,9.016098E-3,-6.292224E-4],"categories":[],"categories_nodes":[],"categories_segments":[],"categories_sizes":[],"default_left":[0,0,0,0,0,0,0,0,0,0,0],"id":50,"left_children":[1,3,5,7,9,-1,-1,-1,-1,-1,-1],"loss_changes":[1.5305003E-2,1.645596E-2,3.2648817E-4,3.5303254E-2,5.859639E-2,0E0,0E0,0E0,0E0,0E0,0E0],"parents":[2147483647,0,0,1,1,2,2,3,3,4,4],"right_children":[2,4,6,8,10,-1,-1,-1,-1,-1,-1],"split_conditions":[1.9748456E0,-5.123805E-1,-5.370469E-1,-4.8760167E-1,-2.988057E-1,2.5675965E-2,6.3870386E-3,2.5549866E-3,-7.287171E-3,9.016098E-3,-6.292224E-4],"split_indices":[3,5,0,2,5,0,0,0,0,0,0],"split_type":[0,0,0,0,0,0,0,0,0,0,0],"sum_hessian":[6E2,5.98E2,2E0,1.32E2,4.66E2,1E0,1E0,5.7E1,7.5E1,6.5E1,4.01E2],"tree_param":{"num_deleted":"0","num_feature":"10","num_nodes":"11","size_leaf_vector":"1"}},{"base_weights":[6.1784005E-5,-1.219012E-2,2.5610488E-3,-5.934105E-2,-2.0618036E-3,1.860165E-2,-1.5965968E-3,-4.286065E-2,-1.1991234E-2,-4.065015E-3,1.1567369E-2,-6.960534E-3,1.1076779E-2,4.7074463E-3,-2.235187E-3],"categories":[],"categories_nodes":[],"categories_segments":[],"categories_sizes":[],"default_left":[0,0,0,0,0,0,0,0,0,0,0,0,0,0,0],"id":51,"left_children":[1,3,5,7,9,11,13,-1,-1,-1,-1,-1,-1,-1,-1],"loss_changes":[1.8434292E-2,4.8588727E-2,3.3375267E-2,2.341263E-2,4.018763E-2,7.974214E-2,4.039646E-2,0E0,0E0,0E0,0E0,0E0,0E0,0E0,0E0],"parents":[2147483647,0,0,1,1,2,2,3,3,4,4,5,5,6,6],"right_children":[2,4,6,8,10,12,14,-1,-1,-1,-1,-1,-1,-1,-1],"split_conditions":[-1.16292E0,-5.738704E-1,-2.9095727E-1,-1.5199848E0,2.1176686E0,-6.266018E-1,-7.919207E-1,-4.286065E-2,-1.1991234E-2,-4.065015E-3,1.1567369E-2,-6.960534E-3,1.1076779E-2,4.7074463E-3,-2.235187E-3],"split_indices":[2,9,2,2,8,6,6,0,0,0,0,0,0,0,0],"split_type":[0,0,0,0,0,0,0,0,0,0,0,0,0,0,0],"sum_hessian":[6E2,1.01E2,4.99E2,1.7E1,8.4E1,1.02E2,3.97E2,2E0,1.5E1,6.6E1,1.8E1,3.1E1,7.1E1,1E2,2.97E2],"tree_param":{"num_deleted":"0","num_feature":"10","num_nodes":"15","size_leaf_vector":"1"}},{"base_weights":[-2.457786E-5,-3.0167787E-3,7.456067E-3,1.3038567E-3,-1.5445487E-2,3.0208787E-2,4.061484E-3,-1.247667E-4,3.2919306E-2,-3.9493114E-2,-2.2655516E-3,1.9705936E-3,-2.3545278E-2],"categories":[],"categories_nodes":[],"categories_segments":[],"categories_sizes":[],"default_left":[0,0,0,0,0,0,0,0,0,0,0,0,0],"id":52,"left_children":[1,3,5,7,9,-1,11,-1,-1,-1,-1,-1,-1],"loss_changes":[1.3475032E-2,2.3111101E-2,5.4030843E-2,5.971512E-2,1.0081814E-1,0E0,3.50771E-2,0E0,0E0,0E0,0E0,0E0,0E0],"parents":[2147483647,0,0,1,1,2,2,3,3,4,4,6,6],"right_children":[2,4,6,8,10,-1,12,-1,-1,-1,-1,-1,-1],"split_conditions":[4.7233352E-1,1.5149266E-1,4.8527065E-1,1.4502409E-1,1.851292E-1,3.0208787E-2,6.2163657E-1,-1.247667E-4,3.2919306E-2,-3.9493114E-2,-2.2655516E-3,1.9705936E-3,-2.3545278E-2],"split_indices":[2,2,2,2,2,0,1,0,0,0,0,0,0],"split_type":[0,0,0,0,0,0,0,0,0,0,0,0,0],"sum_hessian":[6E2,4.29E2,1.71E2,3.19E2,1.1E2,5E0,1.66E2,3.15E2,4E0,6E0,1.04E2,1.62E2,4E0],"tree_param":{"num_deleted":"0","num_feature":"10","num_nodes":"13","size_leaf_vector":"1"}},{"base_weights":[-1.7756094E-5,-7.5119454E-3,2.5136538E-3,-2.2211503E-3,-6.905279E-2,4.3553263E-2,6.034316E-4,-1.28655275E-2,1.8204916E-3,2.9766257E-3,-2.8944062E-2,8.948611E-3,4.564798E-2,-1.2964034E-2,4.920949E-4],"categories":[],"categories_nodes":[],"categories_segments":[],"categories_sizes":[],"default_left":[0,0,0,0,0,0,0,0,0,0,0,0,0,0,0],"id":53,"left_children":[1,3,5,7,9,11,13,-1,-1,-1,-1,-1,-1,-1,-1],"loss_changes":[1.1420373E-2,4.9337823E-2,3.5251364E-2,4.7788795E-2,2.69502E-2,2.5272839E-2,1.965253E-2,0E0,0E0,0E0,0E0,0E0,0E0,0E0,0E0],"parents":[2147483647,0,0,1,1,2,2,3,3,4,4,5,5,6,6],"right_children":[2,4,6,8,10,12,14,-1,-1,-1,-1,-1,-1,-1,-1],"split_conditions":[-3.434479E-1,-3.551176E-1,-2.2052701E-1,-9.839715E-1,-5.9613967E-1,1.0936991E0,-1.5769082E0,-1.28655275E-2,1.8204916E-3,2.9766257E-3,-2.8944062E-2,8.948611E-3,4.564798E-2,-1.2964034E-2,4.920949E-4],"split_indices":[1,1,1,7,7,7,2,0,0,0,0,0,0,0,0],"split_type":[0,0,0,0,0,0,0,0,0,0,0,0,0,0,0],"sum_hessian":[6E2,1.51E2,4.49E2,1.4E2,1.1E1,1.9E1,4.3E2,2.3E1,1.17E2,3E0,8E0,1.8E1,1E0,9E0,4.21E2],"tree_param":{"num_deleted":"0","num_feature":"10","num_nodes":"15","size_leaf_vector":"1"}},{"base_weights":[-3.9253187E-6,2.299714E-2,-8.763728E-4,4.9382836E-2,7.3916274E-3,7.142129E-4,-3.77547E-2,2.15145E-2,6.492162E-3,-7.1179867E-3,1.3903458E-2,-1.3814951E-4,1.0774761E-2,-4.0689077E-2,-6.8075736E-3],"categories":[],"categories_nodes":[],"categories_segments":[],"categories_sizes":[],"default_left":[0,0,0,0,0,0,0,0,0,0,0,0,0,0,0],"id":54,"left_children":[1,3,5,7,9,11,13,-1,-1,-1,-1,-1,-1,-1,-1],"loss_changes":[1.2080555E-2,8.69375E-3,3.4048684E-2,3.4044124E-3,1.9281954E-2,2.3049483E-2,3.2304984E-2,0E0,0E0,0E0,0E0,0E0,0E0,0E0,0E0],"parents":[2147483647,0,0,1,1,2,2,3,3,4,4,5,5,6,6],"right_children":[2,4,6,8,10,12,14,-1,-1,-1,-1,-1,-1,-1,-1],"split_conditions":[-2.3395143E0,-2.2262135E0,2.1160924E0,-5.9613967E-1,2.2800304E-1,1.1396041E0,2.2296696E0,2.15145E-2,6.492162E-3,-7.1179867E-3,1.3903458E-2,-1.3814951E-4,1.0774761E-2,-4.0689077E-2,-6.8075736E-3],"split_indices":[3,5,0,7,7,0,0,0,0,0,0,0,0,0,0],"split_type":[0,0,0,0,0,0,0,0,0,0,0,0,0,0,0],"sum_hessian":[6E2,2.1E1,5.79E2,7E0,1.4E1,5.56E2,2.3E1,3E0,4E0,8E0,6E0,5.39E2,1.7E1,2E0,2.1E1],"tree_param":{"num_deleted":"0","num_feature":"10","num_nodes":"15","size_leaf_vector":"1"}},{"base_weights":[-6.1762726E-6,-3.1050175E-4,6.0759537E-2,2.3326504E-3,-7.5772298E-3,2.1611908E-2,5.729884E-3,-2.7721159E-3,2.487035E-3,-2.601407E-2,-3.4589405E-4],"categories":[],"categories_nodes":[],"categories_segments":[],"categories_sizes":[],"default_left":[0,0,0,0,0,0,0,0,0,0,0],"id":55,"left_children":[1,3,5,7,9,-1,-1,-1,-1,-1,-1],"loss_changes":[1.1132891E-2,1.1522708E-2,3.3861026E-5,3.0412836E-2,8.124266E-2,0E0,0E0,0E0,0E0,0E0,0E0],"parents":[2147483647,0,0,1,1,2,2,3,3,4,4],"right_children":[2,4,6,8,10,-1,-1,-1,-1,-1,-1],"split_conditions":[1.9748456E0,7.381177E-1,-5.370469E-1,-1.8446879E-1,7.5821745E-1,2.1611908E-2,5.729884E-3,-2.7721159E-3,2.487035E-3,-2.601407E-2,-3.4589405E-4],"split_indices":[3,3,0,9,3,0,0,0,0,0,0],"split_type":[0,0,0,0,0,0,0,0,0,0,0],"sum_hessian":[6E2,5.98E2,2E0,4.39E2,1.59E2,1E0,1E0,1.49E2,2.9E2,1.1E1,1.48E2],"tree_param":{"num_deleted":"0","num_feature":"10","num_nodes":"11","size_leaf_vector":"1"}},{"base_weights":[-3.1689513E-6,-7.6614553E-3,2.6064545E-3,4.4798204E-3,-2.6555097E-2,-2.4244953E-4,2.4843832E-2,-3.8195986E-3,7.827849E-3,-1.1963872E-2,2.0252627E-3,4.0850025E-3,-9.392337E-4,-1.1213727E-2,1.1720189E-2],"categories":[],"categories_nodes":[],"categories_segments":[],"categories_sizes":[],"default_left":[0,0,0,0,0,0,0,0,0,0,0,0,0,0,0],"id":56,"left_children":[1,3,5,7,9,11,13,-1,-1,-1,-1,-1,-1,-1,-1],"loss_changes":[1.2031102E-2,3.521608E-2,2.8451143E-2,3.5300132E-2,2.6896294E-2,1.6014487E-2,4.6596594E-2,0E0,0E0,0E0,0E0,0E0,0E0,0E0,0E0],"parents":[2147483647,0,0,1,1,2,2,3,3,4,4,5,5,6,6],"right_children":[2,4,6,8,10,12,14,-1,-1,-1,-1,-1,-1,-1,-1],"split_conditions":[-3.310002E-1,-4.7795442E-1,1.4399775E0,-1.0795778E0,8.3696204E-1,-8.827038E-2,-1.1875005E0,-3.8195986E-3,7.827849E-3,-1.1963872E-2,2.0252627E-3,4.0850025E-3,-9.392337E-4,-1.1213727E-2,1.1720189E-2],"split_indices":[1,4,7,4,0,1,2,0,0,0,0,0,0,0,0],"split_type":[0,0,0,0,0,0,0,0,0,0,0,0,0,0,0],"sum_hessian":[6E2,1.52E2,4.48E2,9.3E1,5.9E1,3.98E2,5E1,5.2E1,4.1E1,4.2E1,1.7E1,6.8E1,3.3E2,9E0,4.1E1],"tree_param":{"num_deleted":"0","num_feature":"10","num_nodes":"15","size_leaf_vector":"1"}},{"base_weights":[-5.9991366E-6,3.930992E-3,-4.443788E-3,1.7147725E-2,-4.4506714E-3,-1.0136621E-1,-2.6908992E-3,3.0615297E-3,3.141756E-2,-1.2433276E-2,-4.131888E-4,-8.884201E-3,-3.357023E-2,1.5620755E-4,-8.809338E-3],"categories":[],"categories_nodes":[],"categories_segments":[],"categories_sizes":[],"default_left":[0,0,0,0,0,0,0,0,0,0,0,0,0,0,0],"id":57,"left_children":[1,3,5,7,9,11,13,-1,-1,-1,-1,-1,-1,-1,-1],"loss_changes":[1.0517861E-2,3.5414565E-2,4.7807295E-2,7.432547E-2,2.2227168E-2,4.6555325E-4,2.3915706E-2,0E0,0E0,0E0,0E0,0E0,0E0,0E0,0E0],"parents":[2147483647,0,0,1,1,2,2,3,3,4,4,5,5,6,6],"right_children":[2,4,6,8,10,12,14,-1,-1,-1,-1,-1,-1,-1,-1],"split_conditions":[-3.4313434E-1,5.773194E-1,-3.3274615E-1,-3.5698524E-1,6.6363025E-1,-9.839715E-1,3.956333E-1,3.0615297E-3,3.141756E-2,-1.2433276E-2,-4.131888E-4,-8.884201E-3,-3.357023E-2,1.5620755E-4,-8.809338E-3],"split_indices":[0,3,0,0,3,7,1,0,0,0,0,0,0,0,0],"split_type":[0,0,0,0,0,0,0,0,0,0,0,0,0,0,0],"sum_hessian":[6E2,3.18E2,2.82E2,1.23E2,1.95E2,4E0,2.78E2,1.15E2,8E0,1.4E1,1.81E2,1E0,3E0,2.49E2,2.9E1],"tree_param":{"num_deleted":"0","num_feature":"10","num_nodes":"15","size_leaf_vector":"1"}},{"base_weights":[-5.3239244E-5,1.5097213E-3,-9.690862E-3,-8.854128E-4,3.4587868E-2,1.4140238E-2,-3.274238E-2,3.592385E-5,-3.646033E-2,-9.626168E-3,1.3267853E-2,-1.5894616E-3,9.615713E-3,-4.540591E-3,-1.5670128E-2],"categories":[],"categories_nodes":[],"categories_segments":[],"categories_sizes":[],"default_left":[0,0,0,0,0,0,0,0,0,0,0,0,0,0,0],"id":58,"left_children":[1,3,5,7,9,11,13,-1,-1,-1,-1,-1,-1,-1,-1],"loss_changes":[9.067628E-3,4.107E-2,4.66078E-2,5.8709923E-2,2.3911327E-2,1.4793551E-2,1.3966434E-2,0E0,0E0,0E0,0E0,0E0,0E0,0E0,0E0],"parents":[2147483647,0,0,1,1,2,2,3,3,4,4,5,5,6,6],"right_children":[2,4,6,8,10,12,14,-1,-1,-1,-1,-1,-1,-1,-1],"split_conditions":[9.198269E-1,7.763968E-1,-4.9019717E-2,7.188154E-1,-1.5241659E0,1.4502409E-1,1.4502409E-1,3.592385E-5,-3.646033E-2,-9.626168E-3,1.3267853E-2,-1.5894616E-3,9.615713E-3,-4.540591E-3,-1.5670128E-2],"split_indices":[5,5,7,5,7,2,2,0,0,0,0,0,0,0,0],"split_type":[0,0,0,0,0,0,0,0,0,0,0,0,0,0,0],"sum_hessian":[6E2,5.17E2,8.3E1,4.83E2,3.4E1,4.1E1,4.2E1,4.8E2,3E0,4E0,3E1,2E1,2.1E1,2.3E1,1.9E1],"tree_param":{"num_deleted":"0","num_feature":"10","num_nodes":"15","size_leaf_vector":"1"}},{"base_weights":[-1.1209185E-4,1.8136116E-2,-8.04072E-4,4.103902E-2,4.71216E-3,4.060412E-4,-2.7684826E-2,1.7324818E-2,5.8388757E-3,-5.692216E-3,1.034781E-2,-1.4850958E-5,1.0842242E-2,-4.811597E-3,-3.232316E-2],"categories":[],"categories_nodes":[],"categories_segments":[],"categories_sizes":[],"default_left":[0,0,0,0,0,0,0,0,0,0,0,0,0,0,0],"id":59,"left_children":[1,3,5,7,9,11,13,-1,-1,-1,-1,-1,-1,-1,-1],"loss_changes":[7.6036495E-3,6.5704645E-3,1.8877922E-2,1.760385E-3,1.1235287E-2,9.052786E-3,2.1581458E-2,0E0,0E0,0E0,0E0,0E0,0E0,0E0,0E0],"parents":[2147483647,0,0,1,1,2,2,3,3,4,4,5,5,6,6],"right_children":[2,4,6,8,10,12,14,-1,-1,-1,-1,-1,-1,-1,-1],"split_conditions":[-2.3395143E0,-2.2262135E0,1.9824312E0,-5.9613967E-1,2.2800304E-1,1.69364E0,-1.4941409E0,1.7324818E-2,5.8388757E-3,-5.692216E-3,1.034781E-2,-1.4850958E-5,1.0842242E-2,-4.811597E-3,-3.232316E-2],"split_indices":[3,5,0,7,7,0,3,0,0,0,0,0,0,0,0],"split_type":[0,0,0,0,0,0,0,0,0,0,0,0,0,0,0],"sum_hessian":[6E2,2.1E1,5.79E2,7E0,1.4E1,5.55E2,2.4E1,3E0,4E0,8E0,6E0,5.49E2,6E0,2.2E1,2E0],"tree_param":{"num_deleted":"0","num_feature":"10","num_nodes":"15","size_leaf_vector":"1"}},{"base_weights":[-7.594803E-5,-8.119301E-3,1.5264647E-3,3.721008E-2,-1.5320359E-2,-4.5001603E-4,2.0670054E-2,1.6591744E-2,-6.5567093E-3,5.1541803E-3,-7.5835697E-3,-8.4545807E-4,4.6598325E-3,2.0358725E-3,1.9647319E-2],"categories":[],"categories_nodes":[],"categories_segments":[],"categories_sizes":[],"default_left":[0,0,0,0,0,0,0,0,0,0,0,0,0,0,0],"id":60,"left_children":[1,3,5,7,9,11,13,-1,-1,-1,-1,-1,-1,-1,-1],"loss_changes":[7.7585443E-3,3.3212025E-2,1.9003445E-2,1.6172485E-2,2.8591959E-2,1.7303413E-2,2.8803023E-2,0E0,0E0,0E0,0E0,0E0,0E0,0E0,0E0],"parents":[2147483647,0,0,1,1,2,2,3,3,4,4,5,5,6,6],"right_children":[2,4,6,8,10,12,14,-1,-1,-1,-1,-1,-1,-1,-1],"split_conditions":[-9.839715E-1,-7.6073885E-1,1.5815861E0,6.533592E-1,-7.681839E-1,5.029533E-1,-9.835014E-1,1.6591744E-2,-6.5567093E-3,5.1541803E-3,-7.5835697E-3,-8.4545807E-4,4.6598325E-3,2.0358725E-3,1.9647319E-2],"split_indices":[7,0,6,4,3,4,5,0,0,0,0,0,0,0,0],"split_type":[0,0,0,0,0,0,0,0,0,0,0,0,0,0,0],"sum_hessian":[6E2,9.9E1,5.01E2,1.3E1,8.6E1,4.55E2,4.6E1,1E1,3E0,2E1,6.6E1,3.97E2,5.8E1,3.6E1,1E1],"tree_param":{"num_deleted":"0","num_feature":"10","num_nodes":"15","size_leaf_vector":"1"}},{"base_weights":[1.9043331E-6,-7.447957E-3,2.1555005E-3,-4.2829094E-3,-5.1282745E-2,2.262766E-2,-1.2109622E-3,-1.3254193E-2,7.935343E-5,1.47106955E-2,-3.2884367E-2,-2.0406038E-2,8.871901E-3,-9.478748E-3,3.708322E-4],"categories":[],"categories_nodes":[],"categories_segments":[],"categories_sizes":[],"default_left":[0,0,0,0,0,0,0,0,0,0,0,0,0,0,0],"id":61,"left_children":[1,3,5,7,9,11,13,-1,-1,-1,-1,-1,-1,-1,-1],"loss_changes":[9.658495E-3,1.8510152E-2,3.2212462E-2,2.3053523E-2,5.8040798E-2,4.356383E-2,2.9929314E-2,0E0,0E0,0E0,0E0,0E0,0E0,0E0,0E0],"parents":[2147483647,0,0,1,1,2,2,3,3,4,4,5,5,6,6],"right_children":[2,4,6,8,10,12,14,-1,-1,-1,-1,-1,-1,-1,-1],"split_conditions":[-5.123805E-1,-5.3750694E-1,-2.988057E-1,-9.839715E-1,-5.9613967E-1,-1.1579729E0,-2.3180184E-1,-1.3254193E-2,7.935343E-5,1.47106955E-2,-3.2884367E-2,-2.0406038E-2,8.871901E-3,-9.478748E-3,3.708322E-4],"split_indices":[5,5,5,7,7,9,5,0,0,0,0,0,0,0,0],"split_type":[0,0,0,0,0,0,0,0,0,0,0,0,0,0,0],"sum_hessian":[6E2,1.34E2,4.66E2,1.26E2,8E0,6.5E1,4.01E2,1.2E1,1.14E2,3E0,5E0,4E0,6.1E1,2.9E1,3.72E2],"tree_param":{"num_deleted":"0","num_feature":"10","num_nodes":"15","size_leaf_vector":"1"}},{"base_weights":[-8.518994E-5,7.047461E-4,-1.9105934E-2,-4.5161156E-5,4.8120566E-2,6.992064E-2,-3.0377468E-2,-7.2766433E-4,1.8862701E-3,2.1447219E-2,4.5378874E-3,2.5657468E-2,5.806822E-3,-3.1812336E-2,-3.8548396E-3],"categories":[],"categories_nodes":[],"categories_segments":[],"categories_sizes":[],"default_left":[0,0,0,0,0,0,0,0,0,0,0,0,0,0,0],"id":62,"left_children":[1,3,5,7,9,11,13,-1,-1,-1,-1,-1,-1,-1,-1],"loss_changes":[9.043592E-3,2.055439E-2,2.6207201E-2,8.607625E-3,5.858345E-3,7.1164034E-4,2.7814548E-2,0E0,0E0,0E0,0E0,0E0,0E0,0E0,0E0],"parents":[2147483647,0,0,1,1,2,2,3,3,4,4,5,5,6,6],"right_children":[2,4,6,8,10,12,14,-1,-1,-1,-1,-1,-1,-1,-1],"split_conditions":[2.0854845E0,1.9677755E0,-9.354925E-1,4.7233352E-1,2.2800304E-1,-5.4743505E-1,2.2620478E0,-7.2766433E-4,1.8862701E-3,2.1447219E-2,4.5378874E-3,2.5657468E-2,5.806822E-3,-3.1812336E-2,-3.8548396E-3],"split_indices":[4,4,7,2,7,0,4,0,0,0,0,0,0,0,0],"split_type":[0,0,0,0,0,0,0,0,0,0,0,0,0,0,0],"sum_hessian":[6E2,5.77E2,2.3E1,5.69E2,8E0,2E0,2.1E1,4.14E2,1.55E2,4E0,4E0,1E0,1E0,3E0,1.8E1],"tree_param":{"num_deleted":"0","num_feature":"10","num_nodes":"15","size_leaf_vector":"1"}},{"base_weights":[-2.1464946E-5,1.8566507E-3,-8.809426E-3,-1.0220982E-3,2.0304492E-2,6.2192245E-3,-2.285816E-2,9.574186E-4,-2.4456945E-3,1.8130653E-3,1.856788E-2,2.6622163E-2,-7.518939E-4,-3.2292977E-2,-4.2293095E-3],"categories":[],"categories_nodes":[],"categories_segments":[],"categories_sizes":[],"default_left":[0,0,0,0,0,0,0,0,0,0,0,0,0,0,0],"id":63,"left_children":[1,3,5,7,9,11,13,-1,-1,-1,-1,-1,-1,-1,-1],"loss_changes":[9.935745E-3,2.6361678E-2,2.2522314E-2,1.2944559E-2,3.9362997E-2,3.766464E-2,3.933409E-2,0E0,0E0,0E0,0E0,0E0,0E0,0E0,0E0],"parents":[2147483647,0,0,1,1,2,2,3,3,4,4,5,5,6,6],"right_children":[2,4,6,8,10,12,14,-1,-1,-1,-1,-1,-1,-1,-1],"split_conditions":[7.6988757E-1,4.7233352E-1,-1.9445667E-1,-4.5151755E-2,4.842491E-1,-1.2735025E0,-1.2735025E0,9.574186E-4,-2.4456945E-3,1.8130653E-3,1.856788E-2,2.6622163E-2,-7.518939E-4,-3.2292977E-2,-4.2293095E-3],"split_indices":[2,2,7,2,7,5,5,0,0,0,0,0,0,0,0],"split_type":[0,0,0,0,0,0,0,0,0,0,0,0,0,0,0],"sum_hessian":[6E2,4.95E2,1.05E2,4.29E2,6.6E1,5.1E1,5.4E1,2.7E2,1.59E2,5E1,1.6E1,4E0,4.7E1,4E0,5E1],"tree_param":{"num_deleted":"0","num_feature":"10","num_nodes":"15","size_leaf_vector":"1"}},{"base_weights":[-1.3139211E-6,-2.6060306E-4,1.5531156E-2,-8.7035395E-4,1.9469155E-2,-1.395753E-3,8.628142E-4,-5.4598334E-3,1.1946023E-2],"categories":[],"categories_nodes":[],"categories_segments":[],"categories_sizes":[],"default_left":[0,0,0,0,0,0,0,0,0],"id":64,"left_children":[1,3,-1,5,7,-1,-1,-1,-1],"loss_changes":[8.08124E-3,7.223057E-3,0E0,8.2600145E-3,1.4523335E-2,0E0,0E0,0E0,0E0],"parents":[2147483647,0,0,1,1,3,3,4,4],"right_children":[2,4,-1,6,8,-1,-1,-1,-1],"split_conditions":[1.9748456E0,3.320146E0,1.5531156E-2,2.4978837E-1,-6.443913E-1,-1.395753E-3,8.628142E-4,-5.4598334E-3,1.1946023E-2],"split_indices":[3,9,0,5,0,0,0,0,0],"split_type":[0,0,0,0,0,0,0,0,0],"sum_hessian":[6E2,5.98E2,2E0,5.81E2,1.7E1,2.89E2,2.92E2,6E0,1.1E1],"tree_param":{"num_deleted":"0","num_feature":"10","num_nodes":"9","size_leaf_vector":"1"}},{"base_weights":[3.481438E-5,-2.5794815E-2,4.710669E-4,3.1034231E-2,-6.885322E-2,1.6497519E-3,-1.1800849E-2,1.1275668E-2,7.243395E-4,-2.3416352E-2,-3.4270184E-3,1.16709256E-4,5.9595183E-3,-5.631066E-4,-1.4585706E-2],"categories":[],"categories_nodes":[],"categories_segments":[],"categories_sizes":[],"default_left":[0,0,0,0,0,0,0,0,0,0,0,0,0,0,0],"id":65,"left_children":[1,3,5,7,9,11,13,-1,-1,-1,-1,-1,-1,-1,-1],"loss_changes":[6.784364E-3,2.6606485E-2,8.582585E-3,8.46738E-4,2.2789221E-3,1.2416025E-2,1.8908352E-2,0E0,0E0,0E0,0E0,0E0,0E0,0E0,0E0],"parents":[2147483647,0,0,1,1,2,2,3,3,4,4,5,5,6,6],"right_children":[2,4,6,8,10,12,14,-1,-1,-1,-1,-1,-1,-1,-1],"split_conditions":[-1.780412E0,-7.6073885E-1,1.0709201E0,6.6599494E-1,3.895781E-1,8.5697556E-1,3.2638994E-1,1.1275668E-2,7.243395E-4,-2.3416352E-2,-3.4270184E-3,1.16709256E-4,5.9595183E-3,-5.631066E-4,-1.4585706E-2],"split_indices":[7,0,1,3,0,1,4,0,0,0,0,0,0,0,0],"split_type":[0,0,0,0,0,0,0,0,0,0,0,0,0,0,0],"sum_hessian":[6E2,9E0,5.91E2,4E0,5E0,5.4E2,5.1E1,3E0,1E0,4E0,1E0,5.06E2,3.4E1,4.1E1,1E1],"tree_param":{"num_deleted":"0","num_feature":"10","num_nodes":"15","size_leaf_vector":"1"}},{"base_weights":[-1.5426749E-5,1.4891411E-3,-7.0555233E-3,-1.1244902E-4,2.3255233E-2,-2.2524435E-3,-4.1242752E-2,-1.2300087E-3,1.9602492E-3,1.1319527E-3,1.5245169E-2,-8.026368E-3,8.2155666E-4,-2.6605854E-2,-1.5145318E-4],"categories":[],"categories_nodes":[],"categories_segments":[],"categories_sizes":[],"default_left":[0,0,0,0,0,0,0,0,0,0,0,0,0,0,0],"id":66,"left_children":[1,3,5,7,9,11,13,-1,-1,-1,-1,-1,-1,-1,-1],"loss_changes":[6.3764807E-3,1.729335E-2,1.7312728E-2,1.2298096E-2,1.8065045E-2,1.1568454E-2,2.5080923E-2,0E0,0E0,0E0,0E0,0E0,0E0,0E0,0E0],"parents":[2147483647,0,0,1,1,2,2,3,3,4,4,5,5,6,6],"right_children":[2,4,6,8,10,12,14,-1,-1,-1,-1,-1,-1,-1,-1],"split_conditions":[7.6988757E-1,6.405162E-1,1.0936991E0,4.0114227E-1,7.381177E-1,-7.683037E-1,-1.6898572E-1,-1.2300087E-3,1.9602492E-3,1.1319527E-3,1.5245169E-2,-8.026368E-3,8.2155666E-4,-2.6605854E-2,-1.5145318E-4],"split_indices":[2,2,7,7,3,6,5,0,0,0,0,0,0,0,0],"split_type":[0,0,0,0,0,0,0,0,0,0,0,0,0,0,0],"sum_hessian":[6E2,4.95E2,1.05E2,4.62E2,3.3E1,9.3E1,1.2E1,2.89E2,1.73E2,2E1,1.3E1,1.5E1,7.8E1,5E0,7E0],"tree_param":{"num_deleted":"0","num_feature":"10","num_nodes":"15","size_leaf_vector":"1"}},{"base_weights":[-3.88519E-5,1.6419427E-2,-6.630645E-4,3.5323113E-2,5.2428325E-3,-1.846911E-2,4.7956314E-4,1.5211952E-2,4.785533E-3,-3.2432757E-3,7.5403186E-3,-1.4967138E-2,-1.1714859E-3,5.198978E-3,-4.101265E-4],"categories":[],"categories_nodes":[],"categories_segments":[],"categories_sizes":[],"default_left":[0,0,0,0,0,0,0,0,0,0,0,0,0,0,0],"id":67,"left_children":[1,3,5,7,9,11,13,-1,-1,-1,-1,-1,-1,-1,-1],"loss_changes":[6.185239E-3,4.462941E-3,1.1809351E-2,1.5751161E-3,5.061738E-3,1.5822068E-2,1.7013436E-2,0E0,0E0,0E0,0E0,0E0,0E0,0E0,0E0],"parents":[2147483647,0,0,1,1,2,2,3,3,4,4,5,5,6,6],"right_children":[2,4,6,8,10,12,14,-1,-1,-1,-1,-1,-1,-1,-1],"split_conditions":[-2.3395143E0,-2.2262135E0,-1.2316613E0,-5.9613967E-1,2.2800304E-1,3.4673702E-2,-7.1337223E-1,1.5211952E-2,4.785533E-3,-3.2432757E-3,7.5403186E-3,-1.4967138E-2,-1.1714859E-3,5.198978E-3,-4.101265E-4],"split_indices":[3,5,3,7,7,6,4,0,0,0,0,0,0,0,0],"split_type":[0,0,0,0,0,0,0,0,0,0,0,0,0,0,0],"sum_hessian":[6E2,2.1E1,5.79E2,7E0,1.4E1,3.4E1,5.45E2,3E0,4E0,8E0,6E0,1E1,2.4E1,5.3E1,4.92E2],"tree_param":{"num_deleted":"0","num_feature":"10","num_nodes":"15","size_leaf_vector":"1"}},{"base_weights":[-5.653503E-6,-1.1646363E-3,7.5567802E-3,-6.9039194E-3,1.8506278E-3,-9.08908E-3,2.3612332E-2,-1.613985E-2,-2.1171778E-4,3.9996463E-3,-1.3162673E-3,4.055269E-3,-2.0975184E-2,3.028044E-3,5.7445996E-2],"categories":[],"categories_nodes":[],"categories_segments":[],"categories_sizes":[],"default_left":[0,0,0,0,0,0,0,0,0,0,0,0,0,0,0],"id":68,"left_children":[1,3,5,7,9,11,13,-1,-1,-1,-1,-1,-1,-1,-1],"loss_changes":[5.2764043E-3,9.046224E-3,2.1595294E-2,5.2282244E-2,2.4625488E-2,5.5949964E-2,9.1115415E-2,0E0,0E0,0E0,0E0,0E0,0E0,0E0,0E0],"parents":[2147483647,0,0,1,1,2,2,3,3,4,4,5,5,6,6],"right_children":[2,4,6,8,10,12,14,-1,-1,-1,-1,-1,-1,-1,-1],"split_conditions":[1.4399775E0,-4.7652003E-1,-1.1238777E-1,-6.6059095E-1,-2.0066056E-1,-2.4253656E-1,1.3513205E0,-1.613985E-2,-2.1171778E-4,3.9996463E-3,-1.3162673E-3,4.055269E-3,-2.0975184E-2,3.028044E-3,5.7445996E-2],"split_indices":[7,9,1,3,3,4,6,0,0,0,0,0,0,0,0],"split_type":[0,0,0,0,0,0,0,0,0,0,0,0,0,0,0],"sum_hessian":[6E2,5.21E2,7.9E1,1.79E2,3.42E2,3.9E1,4E1,2E1,1.59E2,1.2E2,2.22E2,2.9E1,1E1,3.8E1,2E0],"tree_param":{"num_deleted":"0","num_feature":"10","num_nodes":"15","size_leaf_vector":"1"}},{"base_weights":[4.5769946E-5,-5.5041607E-3,1.9203115E-3,-5.9634767E-2,-4.014049E-3,4.6959855E-2,1.1026216E-3,-2.1675978E-2,-3.266895E-3,2.8362323E-4,-6.0584196E-3,-6.023147E-3,2.1795515E-2,-1.2858367E-3,1.741378E-3],"categories":[],"categories_nodes":[],"categories_segments":[],"categories_sizes":[],"default_left":[0,0,0,0,0,0,0,0,0,0,0,0,0,0,0],"id":69,"left_children":[1,3,5,7,9,11,13,-1,-1,-1,-1,-1,-1,-1,-1],"loss_changes":[6.2631187E-3,1.2021039E-2,1.6520994E-2,1.6735457E-3,1.1975962E-2,1.52370855E-2,1.1249491E-2,0E0,0E0,0E0,0E0,0E0,0E0,0E0,0E0],"parents":[2147483647,0,0,1,1,2,2,3,3,4,4,5,5,6,6],"right_children":[2,4,6,8,10,12,14,-1,-1,-1,-1,-1,-1,-1,-1],"split_conditions":[-3.434479E-1,-1.5241659E0,-3.239984E-1,5.0523305E-1,3.9963368E-1,-6.180932E-1,-5.1442116E-1,-2.1675978E-2,-3.266895E-3,2.8362323E-4,-6.0584196E-3,-6.023147E-3,2.1795515E-2,-1.2858367E-3,1.741378E-3],"split_indices":[1,7,1,0,9,8,6,0,0,0,0,0,0,0,0],"split_type":[0,0,0,0,0,0,0,0,0,0,0,0,0,0,0],"sum_hessian":[6E2,1.51E2,4.49E2,3E0,1.48E2,7E0,4.42E2,2E0,1E0,1.14E2,3.4E1,2E0,5E0,2.06E2,2.36E2],"tree_param":{"num_deleted":"0","num_feature":"10","num_nodes":"15","size_leaf_vector":"1"}},{"base_weights":[7.9332785E-6,3.650098E-3,-2.2439642E-3,1.9782206E-2,-9.822294E-3,-1.4275818E-2,7.952526E-3,-2.0391804E-3,1.2685251E-2,-6.617836E-2,-1.3931261E-3,3.533317E-4,-8.362301E-3,1.2216596E-3,4.8006896E-2],"categories":[],"categories_nodes":[],"categories_segments":[],"categories_sizes":[],"default_left":[0,0,0,0,0,0,0,0,0,0,0,0,0,0,0],"id":70,"left_children":[1,3,5,7,9,11,13,-1,-1,-1,-1,-1,-1,-1,-1],"loss_changes":[4.937461E-3,5.0182063E-2,4.575149E-2,6.3086905E-2,1.3650367E-1,3.5967782E-2,1.18545145E-1,0E0,0E0,0E0,0E0,0E0,0E0,0E0,0E0],"parents":[2147483647,0,0,1,1,2,2,3,3,4,4,5,5,6,6],"right_children":[2,4,6,8,10,12,14,-1,-1,-1,-1,-1,-1,-1,-1],"split_conditions":[-2.9141462E-1,8.2885265E-2,1.21006295E-1,-4.2591378E-1,-6.842378E-1,-4.2591378E-1,1.3513205E0,-2.0391804E-3,1.2685251E-2,-6.617836E-2,-1.3931261E-3,3.533317E-4,-8.362301E-3,1.2216596E-3,4.8006896E-2],"split_indices":[7,1,1,1,3,1,6,0,0,0,0,0,0,0,0],"split_type":[0,0,0,0,0,0,0,0,0,0,0,0,0,0,0],"sum_hessian":[6E2,2.29E2,3.71E2,1.04E2,1.25E2,1.7E2,2.01E2,4.8E1,5.6E1,2E0,1.23E2,8E1,9E1,1.97E2,4E0],"tree_param":{"num_deleted":"0","num_feature":"10","num_nodes":"15","size_leaf_vector":"1"}},{"base_weights":[-2.0578816E-5,-2.1343175E-4,3.8492583E-2,6.026984E-4,-1.1633919E-2,1.4572764E-2,2.748899E-3,-1.2425281E-5,7.717855E-3,6.998378E-4,-8.650183E-3],"categories":[],"categories_nodes":[],"categories_segments":[],"categories_sizes":[],"default_left":[0,0,0,0,0,0,0,0,0,0,0],"id":71,"left_children":[1,3,5,7,9,-1,-1,-1,-1,-1,-1],"loss_changes":[4.4720685E-3,5.5900537E-3,4.4211606E-4,9.063232E-3,9.676375E-3,0E0,0E0,0E0,0E0,0E0,0E0],"parents":[2147483647,0,0,1,1,2,2,3,3,4,4],"right_children":[2,4,6,8,10,-1,-1,-1,-1,-1,-1],"split_conditions":[1.9748456E0,1.0920222E0,-5.370469E-1,1.0441548E0,-5.9613967E-1,1.4572764E-2,2.748899E-3,-1.2425281E-5,7.717855E-3,6.998378E-4,-8.650183E-3],"split_indices":[3,2,0,2,7,0,0,0,0,0,0],"split_type":[0,0,0,0,0,0,0,0,0,0,0],"sum_hessian":[6E2,5.98E2,2E0,5.59E2,3.9E1,1E0,1E0,5.46E2,1.3E1,2.2E1,1.7E1],"tree_param":{"num_deleted":"0","num_feature":"10","num_nodes":"11","size_leaf_vector":"1"}},{"base_weights":[1.3991816E-5,-4.1713417E-3,1.7154731E-3,-7.6166175E-2,-1.5906295E-3,-8.122844E-4,1.818232E-2,-2.557736E-2,-4.6061575E-3,1.7817348E-3,-4.118878E-3,-4.3190196E-3,5.383075E-4,1.7834224E-2,-2.5245835E-4],"categories":[],"categories_nodes":[],"categories_segments":[],"categories_sizes":[],"default_left":[0,0,0,0,0,0,0,0,0,0,0,0,0,0,0],"id":72,"left_children":[1,3,5,7,9,11,13,-1,-1,-1,-1,-1,-1,-1,-1],"loss_changes":[4.2870366E-3,3.220769E-2,1.7829925E-2,2.0082816E-3,1.5528699E-2,1.3198279E-2,4.4796214E-2,0E0,0E0,0E0,0E0,0E0,0E0,0E0,0E0],"parents":[2147483647,0,0,1,1,2,2,3,3,4,4,5,5,6,6],"right_children":[2,4,6,8,10,12,14,-1,-1,-1,-1,-1,-1,-1,-1],"split_conditions":[-6.38851E-1,-3.6024547E-1,6.057464E-1,-7.745898E-1,-6.2069756E-1,-6.266018E-1,8.9888823E-1,-2.557736E-2,-4.6061575E-3,1.7817348E-3,-4.118878E-3,-4.3190196E-3,5.383075E-4,1.7834224E-2,-2.5245835E-4],"split_indices":[0,4,5,0,6,6,5,0,0,0,0,0,0,0,0],"split_type":[0,0,0,0,0,0,0,0,0,0,0,0,0,0,0],"sum_hessian":[6E2,1.73E2,4.27E2,5E0,1.68E2,3.71E2,5.6E1,4E0,1E0,1.04E2,6.4E1,5.9E1,3.12E2,1.7E1,3.9E1],"tree_param":{"num_deleted":"0","num_feature":"10","num_nodes":"15","size_leaf_vector":"1"}},{"base_weights":[-2.1358748E-5,-6.380306E-3,1.2454063E-3,-2.2714307E-4,-4.7541693E-2,-6.7698257E-4,1.2373237E-2,-2.329218E-3,1.2049627E-2,-3.572662E-2,3.6183905E-3,2.8402507E-3,-1.3135127E-3,6.6772904E-3,-3.1536191E-3],"categories":[],"categories_nodes":[],"categories_segments":[],"categories_sizes":[],"default_left":[0,0,0,0,0,0,0,0,0,0,0,0,0,0,0],"id":73,"left_children":[1,3,5,7,9,11,13,-1,-1,-1,-1,-1,-1,-1,-1],"loss_changes":[4.849177E-3,2.5316477E-2,1.074717E-2,2.710216E-2,5.68738E-2,1.6149856E-2,1.697332E-2,0E0,0E0,0E0,0E0,0E0,0E0,0E0,0E0],"parents":[2147483647,0,0,1,1,2,2,3,3,4,4,5,5,6,6],"right_children":[2,4,6,8,10,12,14,-1,-1,-1,-1,-1,-1,-1,-1],"split_conditions":[-9.839715E-1,1.4989266E0,4.8987454E-1,6.2504333E-1,3.9963368E-1,-2.9141462E-1,2.0854845E0,-2.329218E-3,1.2049627E-2,-3.572662E-2,3.6183905E-3,2.8402507E-3,-1.3135127E-3,6.6772904E-3,-3.1536191E-3],"split_indices":[7,6,4,0,9,7,4,0,0,0,0,0,0,0,0],"split_type":[0,0,0,0,0,0,0,0,0,0,0,0,0,0,0],"sum_hessian":[6E2,9.9E1,5.01E2,8.7E1,1.2E1,4.28E2,7.3E1,7.4E1,1.3E1,5E0,7E0,1.14E2,3.14E2,5.1E1,2.2E1],"tree_param":{"num_deleted":"0","num_feature":"10","num_nodes":"15","size_leaf_vector":"1"}},{"base_weights":[-4.3797845E-5,1.825586E-3,-4.35752E-3,-4.1957097E-5,2.0600412E-2,-3.7730232E-2,-9.226486E-4,2.9773195E-4,-9.63143E-3,1.1721613E-2,-2.1720228E-3,-1.5272715E-2,6.7551E-5],"categories":[],"categories_nodes":[],"categories_segments":[],"categories_sizes":[],"default_left":[0,0,0,0,0,0,0,0,0,0,0,0,0],"id":74,"left_children":[1,3,5,7,9,-1,11,-1,-1,-1,-1,-1,-1],"loss_changes":[4.85442E-3,1.472724E-2,7.578296E-2,1.2734312E-2,1.9824732E-2,0E0,1.022427E-2,0E0,0E0,0E0,0E0,0E0,0E0],"parents":[2147483647,0,0,1,1,2,2,3,3,4,4,6,6],"right_children":[2,4,6,8,10,-1,12,-1,-1,-1,-1,-1,-1],"split_conditions":[1.6588612E-1,5.6605583E-1,2.3514059E-1,4.066412E-1,1.3513205E0,-3.7730232E-2,-1.5241659E0,2.9773195E-4,-9.63143E-3,1.1721613E-2,-2.1720228E-3,-1.5272715E-2,6.7551E-5],"split_indices":[0,6,0,6,6,0,7,0,0,0,0,0,0],"split_type":[0,0,0,0,0,0,0,0,0,0,0,0,0],"sum_hessian":[6E2,4.19E2,1.81E2,3.82E2,3.7E1,4E0,1.77E2,3.71E2,1.1E1,2.2E1,1.5E1,3E0,1.74E2],"tree_param":{"num_deleted":"0","num_feature":"10","num_nodes":"13","size_leaf_vector":"1"}},{"base_weights":[-1.1837813E-4,-2.3442856E-3,3.7749596E-3,-8.828155E-5,-2.065879E-2,-8.375044E-3,1.5457329E-2,-1.2893229E-3,1.4754383E-2,-4.006322E-3,-4.802077E-2,-6.5559796E-3,7.295593E-3,2.8971327E-3,5.089471E-2],"categories":[],"categories_nodes":[],"categories_segments":[],"categories_sizes":[],"default_left":[0,0,0,0,0,0,0,0,0,0,0,0,0,0,0],"id":75,"left_children":[1,3,5,7,9,11,13,-1,-1,-1,-1,-1,-1,-1,-1],"loss_changes":[5.2172416E-3,1.5822815E-2,3.1214498E-2,7.1141586E-2,4.0631272E-2,4.8121937E-2,9.8528445E-2,0E0,0E0,0E0,0E0,0E0,0E0,0E0,0E0],"parents":[2147483647,0,0,1,1,2,2,3,3,4,4,5,5,6,6],"right_children":[2,4,6,8,10,12,14,-1,-1,-1,-1,-1,-1,-1,-1],"split_conditions":[2.2800304E-1,9.0552396E-1,1.21006295E-1,5.0523305E-1,-3.1534755E-1,8.681266E-1,1.3513205E0,-1.2893229E-3,1.4754383E-2,-4.006322E-3,-4.802077E-2,-6.5559796E-3,7.295593E-3,2.8971327E-3,5.089471E-2],"split_indices":[7,0,1,0,3,0,6,0,0,0,0,0,0,0,0],"split_type":[0,0,0,0,0,0,0,0,0,0,0,0,0,0,0],"sum_hessian":[6E2,3.82E2,2.18E2,3.41E2,4.1E1,1.07E2,1.11E2,3.15E2,2.6E1,4E1,1E0,7.6E1,3.1E1,1.08E2,3E0],"tree_param":{"num_deleted":"0","num_feature":"10","num_nodes":"15","size_leaf_vector":"1"}},{"base_weights":[-5.6297275E-5,-5.999186E-3,1.9866964E-3,-2.6757566E-2,-1.5735968E-3,2.4594175E-2,1.297302E-4,-1.679922E-2,1.1383211E-2,-2.0806305E-3,8.865433E-3,7.961749E-4,2.3095623E-2,-2.4441849E-3,6.300184E-4],"categories":[],"categories_nodes":[],"categories_segments":[],"categories_sizes":[],"default_left":[0,0,0,0,0,0,0,0,0,0,0,0,0,0,0],"id":76,"left_children":[1,3,5,7,9,11,13,-1,-1,-1,-1,-1,-1,-1,-1],"loss_changes":[7.3088305E-3,1.4105577E-2,1.8804444E-2,5.3205095E-2,2.156654E-2,3.8877912E-2,6.785119E-3,0E0,0E0,0E0,0E0,0E0,0E0,0E0,0E0],"parents":[2147483647,0,0,1,1,2,2,3,3,4,4,5,5,6,6],"right_children":[2,4,6,8,10,12,14,-1,-1,-1,-1,-1,-1,-1,-1],"split_conditions":[-6.971832E-1,-4.7652003E-1,-3.3882466E-1,2.2800304E-1,2.1176686E0,4.382367E-1,-8.0021393E-1,-1.679922E-2,1.1383211E-2,-2.0806305E-3,8.865433E-3,7.961749E-4,2.3095623E-2,-2.4441849E-3,6.300184E-4],"split_indices":[2,9,2,7,8,5,0,0,0,0,0,0,0,0,0],"split_type":[0,0,0,0,0,0,0,0,0,0,0,0,0,0,0],"sum_hessian":[6E2,1.53E2,4.47E2,2.6E1,1.27E2,3.3E1,4.14E2,1.8E1,8E0,1.09E2,1.8E1,2.4E1,9E0,7.9E1,3.35E2],"tree_param":{"num_deleted":"0","num_feature":"10","num_nodes":"15","size_leaf_vector":"1"}},{"base_weights":[-3.9451817E-7,-6.135424E-4,1.6164431E-2,1.3145611E-3,-5.2714073E-3,-9.499197E-3,2.855208E-2,3.5960143E-3,-1.6316661E-4,-2.8126655E-2,-7.723404E-4,1.1510692E-2,-4.6197833E-3],"categories":[],"categories_nodes":[],"categories_segments":[],"categories_sizes":[],"default_left":[0,0,0,0,0,0,0,0,0,0,0,0,0],"id":77,"left_children":[1,3,5,7,9,-1,11,-1,-1,-1,-1,-1,-1],"loss_changes":[5.966686E-3,5.21582E-3,1.3938669E-2,8.158155E-3,4.0326793E-2,0E0,8.357233E-3,0E0,0E0,0E0,0E0,0E0,0E0],"parents":[2147483647,0,0,1,1,2,2,3,3,4,4,6,6],"right_children":[2,4,6,8,10,-1,12,-1,-1,-1,-1,-1,-1],"split_conditions":[2.3078084E0,1.5272777E-1,-1.153351E0,-2.988057E-1,2.3514059E-1,-9.499197E-3,4.842491E-1,3.5960143E-3,-1.6316661E-4,-2.8126655E-2,-7.723404E-4,1.1510692E-2,-4.6197833E-3],"split_indices":[6,0,8,5,0,0,7,0,0,0,0,0,0],"split_type":[0,0,0,0,0,0,0,0,0,0,0,0,0],"sum_hessian":[6E2,5.79E2,2.1E1,4.1E2,1.69E2,4E0,1.7E1,6E1,3.5E2,4E0,1.65E2,1.4E1,3E0],"tree_param":{"num_deleted":"0","num_feature":"10","num_nodes":"13","size_leaf_vector":"1"}},{"base_weights":[-4.6997477E-5,-1.7748717E-2,4.0542637E-4,7.80006E-3,-3.130311E-2,2.1362416E-3,-3.7150506E-3,-8.247999E-3,1.5677368E-2,4.2713285E-4,-1.3659696E-2,4.011042E-4,1.27589805E-2,-5.0934266E-2,-5.321221E-4],"categories":[],"categories_nodes":[],"categories_segments":[],"categories_sizes":[],"default_left":[0,0,0,0,0,0,0,0,0,0,0,0,0,0,0],"id":78,"left_children":[1,3,5,7,9,11,13,-1,-1,-1,-1,-1,-1,-1,-1],"loss_changes":[4.820413E-3,5.43864E-3,4.194294E-3,1.0851148E-2,4.7216034E-3,1.33086145E-2,5.57939E-2,0E0,0E0,0E0,0E0,0E0,0E0,0E0,0E0],"parents":[2147483647,0,0,1,1,2,2,3,3,4,4,5,5,6,6],"right_children":[2,4,6,8,10,12,14,-1,-1,-1,-1,-1,-1,-1,-1],"split_conditions":[-1.5924327E0,-5.9613967E-1,5.294459E-1,-9.839715E-1,-2.800627E0,4.8743495E-1,5.3100187E-1,-8.247999E-3,1.5677368E-2,4.2713285E-4,-1.3659696E-2,4.011042E-4,1.27589805E-2,-5.0934266E-2,-5.321221E-4],"split_indices":[2,7,1,7,3,1,1,0,0,0,0,0,0,0,0],"split_type":[0,0,0,0,0,0,0,0,0,0,0,0,0,0,0],"sum_hessian":[6E2,1.4E1,5.86E2,5E0,9E0,4.13E2,1.73E2,3E0,2E0,3E0,6E0,4.06E2,7E0,1E0,1.72E2],"tree_param":{"num_deleted":"0","num_feature":"10","num_nodes":"15","size_leaf_vector":"1"}},{"base_weights":[-1.06280735E-4,-1.0428277E-3,6.0060173E-3,-1.5254722E-3,2.151688E-2,1.4962888E-2,-1.5516803E-2,-1.820864E-4,-4.4518504E-3,5.1213236E-4,1.3484156E-2,1.0041496E-2,-8.43216E-4,1.0441479E-2,-1.618409E-2],"categories":[],"categories_nodes":[],"categories_segments":[],"categories_sizes":[],"default_left":[0,0,0,0,0,0,0,0,0,0,0,0,0,0,0],"id":79,"left_children":[1,3,5,7,9,11,13,-1,-1,-1,-1,-1,-1,-1,-1],"loss_changes":[3.4466605E-3,5.7165246E-3,1.5654346E-2,6.252328E-3,5.0289086E-3,1.8845223E-2,4.829056E-2,0E0,0E0,0E0,0E0,0E0,0E0,0E0,0E0],"parents":[2147483647,0,0,1,1,2,2,3,3,4,4,5,5,6,6],"right_children":[2,4,6,8,10,12,14,-1,-1,-1,-1,-1,-1,-1,-1],"split_conditions":[1.4399775E0,1.6248729E0,5.149287E-1,1.0656259E0,-1.0086278E0,5.827515E-2,-1.4941409E0,-1.820864E-4,-4.4518504E-3,5.1213236E-4,1.3484156E-2,1.0041496E-2,-8.43216E-4,1.0441479E-2,-1.618409E-2],"split_indices":[7,3,0,3,5,4,3,0,0,0,0,0,0,0,0],"split_type":[0,0,0,0,0,0,0,0,0,0,0,0,0,0,0],"sum_hessian":[6E2,5.21E2,7.9E1,5.11E2,1E1,5.6E1,2.3E1,4.79E2,3.2E1,6E0,4E0,2.7E1,2.9E1,1E1,1.3E1],"tree_param":{"num_deleted":"0","num_feature":"10","num_nodes":"15","size_leaf_vector":"1"}},{"base_weights":[-5.3071668E-5,-4.740399E-4,1.1047594E-2,-5.7215715E-5,-1.5163517E-2,-6.192879E-4,4.2262495E-2,1.0946094E-3,-7.032391E-4,-2.5202041E-2,7.1297605E-3,-3.812687E-3,1.2554813E-2,1.5421708E-2,-5.1802397E-4],"categories":[],"categories_nodes":[],"categories_segments":[],"categories_sizes":[],"default_left":[0,0,0,0,0,0,0,0,0,0,0,0,0,0,0],"id":80,"left_children":[1,3,5,7,9,11,13,-1,-1,-1,-1,-1,-1,-1,-1],"loss_changes":[2.8137267E-3,3.5504315E-3,8.038145E-3,4.796989E-3,4.4876922E-2,9.2602065E-3,2.5019785E-3,0E0,0E0,0E0,0E0,0E0,0E0,0E0,0E0],"parents":[2147483647,0,0,1,1,2,2,3,3,4,4,5,5,6,6],"right_children":[2,4,6,8,10,12,14,-1,-1,-1,-1,-1,-1,-1,-1],"split_conditions":[2.3078084E0,1.8177559E0,-5.738704E-1,-2.9141462E-1,-5.9613967E-1,2.1176686E0,4.842491E-1,1.0946094E-3,-7.032391E-4,-2.5202041E-2,7.1297605E-3,-3.812687E-3,1.2554813E-2,1.5421708E-2,-5.1802397E-4],"split_indices":[6,6,9,7,7,8,7,0,0,0,0,0,0,0,0],"split_type":[0,0,0,0,0,0,0,0,0,0,0,0,0,0,0],"sum_hessian":[6E2,5.79E2,2.1E1,5.64E2,1.5E1,1.6E1,5E0,2.15E2,3.49E2,5E0,1E1,1.3E1,3E0,4E0,1E0],"tree_param":{"num_deleted":"0","num_feature":"10","num_nodes":"15","size_leaf_vector":"1"}},{"base_weights":[-2.7221664E-5,-5.0362037E-4,9.739924E-3,-1.308175E-4,-1.2870727E-2,1.5808253E-2,2.4776473E-3,-5.7338976E-4,1.0934724E-3,-2.510102E-3,6.80601E-3],"categories":[],"categories_nodes":[],"categories_segments":[],"categories_sizes":[],"default_left":[0,0,0,0,0,0,0,0,0,0,0],"id":81,"left_children":[1,3,5,7,-1,-1,9,-1,-1,-1,-1],"loss_changes":[2.8013913E-3,9.067259E-3,8.603919E-3,3.8388537E-3,0E0,0E0,5.668824E-3,0E0,0E0,0E0,0E0],"parents":[2147483647,0,0,1,1,2,2,3,3,6,6],"right_children":[2,4,6,8,-1,-1,10,-1,-1,-1,-1],"split_conditions":[1.9476494E0,1.8236601E0,-3.9445433E-1,6.78165E-1,-1.2870727E-2,1.5808253E-2,9.282069E-1,-5.7338976E-4,1.0934724E-3,-2.510102E-3,6.80601E-3],"split_indices":[6,6,2,7,0,0,8,0,0,0,0],"split_type":[0,0,0,0,0,0,0,0,0,0,0],"sum_hessian":[6E2,5.73E2,2.7E1,5.69E2,4E0,3E0,2.4E1,3.87E2,1.82E2,1.6E1,8E0],"tree_param":{"num_deleted":"0","num_feature":"10","num_nodes":"11","size_leaf_vector":"1"}},{"base_weights":[-6.1468995E-6,-1.347062E-3,3.3461766E-3,-1.0642116E-2,2.478713E-4,-3.1690793E-3,1.8442325E-2,1.0464607E-3,-1.1140334E-2,-2.0727452E-3,9.978284E-4,1.2869452E-2,-1.4111474E-3,2.8953056E-3,2.2073748E-2],"categories":[],"categories_nodes":[],"categories_segments":[],"categories_sizes":[],"default_left":[0,0,0,0,0,0,0,0,0,0,0,0,0,0,0],"id":82,"left_children":[1,3,5,7,9,11,13,-1,-1,-1,-1,-1,-1,-1,-1],"loss_changes":[2.706111E-3,6.377384E-3,1.6975552E-2,2.371327E-2,8.130356E-3,8.756665E-3,2.4495577E-2,0E0,0E0,0E0,0E0,0E0,0E0,0E0,0E0],"parents":[2147483647,0,0,1,1,2,2,3,3,4,4,5,5,6,6],"right_children":[2,4,6,8,10,12,14,-1,-1,-1,-1,-1,-1,-1,-1],"split_conditions":[4.7233352E-1,-9.839715E-1,-4.5740423E-1,-7.5177185E-4,-9.32639E-1,-9.1199064E-1,-1.10831805E-1,1.0464607E-3,-1.1140334E-2,-2.0727452E-3,9.978284E-4,1.2869452E-2,-1.4111474E-3,2.8953056E-3,2.2073748E-2],"split_indices":[2,7,0,6,2,0,1,0,0,0,0,0,0,0,0],"split_type":[0,0,0,0,0,0,0,0,0,0,0,0,0,0,0],"sum_hessian":[6E2,4.29E2,1.71E2,6.2E1,3.67E2,1.2E2,5.1E1,4.1E1,2.1E1,1.1E2,2.57E2,3E0,1.17E2,4.5E1,6E0],"tree_param":{"num_deleted":"0","num_feature":"10","num_nodes":"15","size_leaf_vector":"1"}},{"base_weights":[3.772458E-5,-1.186402E-3,4.354098E-3,-6.3618115E-4,-2.5932597E-2,-7.219907E-5,2.669006E-2,-1.5441246E-3,6.5560226E-4,-2.2844055E-3,4.108393E-3,1.2912648E-2,-1.1254649E-2],"categories":[],"categories_nodes":[],"categories_segments":[],"categories_sizes":[],"default_left":[0,0,0,0,0,0,0,0,0,0,0,0,0],"id":83,"left_children":[1,3,5,7,-1,9,11,-1,-1,-1,-1,-1,-1],"loss_changes":[3.1807218E-3,2.1945518E-2,1.31510515E-2,5.95504E-3,0E0,1.1733936E-2,2.4712447E-2,0E0,0E0,0E0,0E0,0E0,0E0],"parents":[2147483647,0,0,1,1,2,2,3,3,5,5,6,6],"right_children":[2,4,6,8,-1,10,12,-1,-1,-1,-1,-1,-1],"split_conditions":[7.195662E-1,5.9557706E-1,-1.2187364E-1,2.4978837E-1,-2.5932597E-2,4.842491E-1,2.2800304E-1,-1.5441246E-3,6.5560226E-4,-2.2844055E-3,4.108393E-3,1.2912648E-2,-1.1254649E-2],"split_indices":[6,6,5,5,0,7,7,0,0,0,0,0,0],"split_type":[0,0,0,0,0,0,0,0,0,0,0,0,0],"sum_hessian":[6E2,4.68E2,1.32E2,4.66E2,2E0,1.11E2,2.1E1,1.79E2,2.87E2,7.2E1,3.9E1,1.7E1,4E0],"tree_param":{"num_deleted":"0","num_feature":"10","num_nodes":"13","size_leaf_vector":"1"}},{"base_weights":[-1.2429951E-5,1.0026813E-3,-6.0212794E-3,-1.5019465E-4,1.8408597E-2,2.3130957E-2,-1.3961442E-2,1.4382733E-4,-2.27473E-2,-6.8900352E-3,7.5418823E-3,8.8991E-3,-2.6347877E-3,-6.9761877E-3,-9.3584554E-4],"categories":[],"categories_nodes":[],"categories_segments":[],"categories_sizes":[],"default_left":[0,0,0,0,0,0,0,0,0,0,0,0,0,0,0],"id":84,"left_children":[1,3,5,7,9,11,13,-1,-1,-1,-1,-1,-1,-1,-1],"loss_changes":[3.6719278E-3,1.0337198E-2,2.0461135E-2,2.3096958E-2,9.4893165E-3,4.221686E-3,6.879146E-3,0E0,0E0,0E0,0E0,0E0,0E0,0E0,0E0],"parents":[2147483647,0,0,1,1,2,2,3,3,4,4,5,5,6,6],"right_children":[2,4,6,8,10,12,14,-1,-1,-1,-1,-1,-1,-1,-1],"split_conditions":[8.9888823E-1,7.763968E-1,-7.415766E-1,7.188154E-1,-1.5241659E0,-4.1995323E-1,1.3930417E0,1.4382733E-4,-2.27473E-2,-6.8900352E-3,7.5418823E-3,8.8991E-3,-2.6347877E-3,-6.9761877E-3,-9.3584554E-4],"split_indices":[5,5,7,5,7,6,5,0,0,0,0,0,0,0,0],"split_type":[0,0,0,0,0,0,0,0,0,0,0,0,0,0,0],"sum_hessian":[6E2,5.14E2,8.6E1,4.83E2,3.1E1,1.8E1,6.8E1,4.8E2,3E0,4E0,2.7E1,1.5E1,3E0,3.6E1,3.2E1],"tree_param":{"num_deleted":"0","num_feature":"10","num_nodes":"15","size_leaf_vector":"1"}},{"base_weights":[-4.797161E-5,3.0580454E-3,-1.5931344E-3,8.654793E-3,-6.588508E-3,-9.944999E-3,1.205314E-3,-1.1483031E-2,3.1476647E-3,1.1154116E-3,-6.548613E-3,-2.0008838E-4,-1.49855865E-2,5.6503704E-3,-4.4415728E-4],"categories":[],"categories_nodes":[],"categories_segments":[],"categories_sizes":[],"default_left":[0,0,0,0,0,0,0,0,0,0,0,0,0,0,0],"id":85,"left_children":[1,3,5,7,9,11,13,-1,-1,-1,-1,-1,-1,-1,-1],"loss_changes":[2.8892523E-3,1.0854885E-2,9.407637E-3,1.1353214E-2,1.1704624E-2,3.7456468E-2,1.4327379E-2,0E0,0E0,0E0,0E0,0E0,0E0,0E0,0E0],"parents":[2147483647,0,0,1,1,2,2,3,3,4,4,5,5,6,6],"right_children":[2,4,6,8,10,12,14,-1,-1,-1,-1,-1,-1,-1,-1],"split_conditions":[-2.988057E-1,3.334761E-1,2.4978837E-1,-1.1579729E0,4.0114227E-1,1.2729695E-1,3.785614E-1,-1.1483031E-2,3.1476647E-3,1.1154116E-3,-6.548613E-3,-2.0008838E-4,-1.49855865E-2,5.6503704E-3,-4.4415728E-4],"split_indices":[5,8,5,9,7,5,5,0,0,0,0,0,0,0,0],"split_type":[0,0,0,0,0,0,0,0,0,0,0,0,0,0,0],"sum_hessian":[6E2,1.99E2,4.01E2,1.26E2,7.3E1,1E2,3.01E2,4E0,1.22E2,4.4E1,2.9E1,8.2E1,1.8E1,3.9E1,2.62E2],"tree_param":{"num_deleted":"0","num_feature":"10","num_nodes":"15","size_leaf_vector":"1"}},{"base_weights":[-7.309165E-5,1.4199573E-2,-3.6325923E-4,1.3425236E-2,-1.4015691E-2,-2.6743174E-2,-1.3755474E-4,2.5230409E-3,-7.400415E-3,-9.363923E-3,-1.3295353E-3,-1.0372996E-3,4.8143484E-4],"categories":[],"categories_nodes":[],"categories_segments":[],"categories_sizes":[],"default_left":[0,0,0,0,0,0,0,0,0,0,0,0,0],"id":86,"left_children":[1,3,5,-1,7,9,11,-1,-1,-1,-1,-1,-1],"loss_changes":[2.4941785E-3,1.0971339E-2,3.5092197E-3,0E0,1.8796772E-3,3.6031893E-4,3.3954144E-3,0E0,0E0,0E0,0E0,0E0,0E0],"parents":[2147483647,0,0,1,1,2,2,4,4,5,5,6,6],"right_children":[2,4,6,-1,8,10,12,-1,-1,-1,-1,-1,-1],"split_conditions":[-9.1199064E-1,-5.738704E-1,-8.798566E-1,1.3425236E-2,-5.9613967E-1,2.151941E0,-1.8446879E-1,2.5230409E-3,-7.400415E-3,-9.363923E-3,-1.3295353E-3,-1.0372996E-3,4.8143484E-4],"split_indices":[0,9,0,0,7,9,9,0,0,0,0,0,0],"split_type":[0,0,0,0,0,0,0,0,0,0,0,0,0],"sum_hessian":[6E2,1.1E1,5.89E2,5E0,6E0,4E0,5.85E2,2E0,4E0,3E0,1E0,2.01E2,3.84E2],"tree_param":{"num_deleted":"0","num_feature":"10","num_nodes":"13","size_leaf_vector":"1"}},{"base_weights":[-5.5659315E-5,-2.2288099E-4,7.487369E-3,-5.53056E-4,1.1093869E-2,-4.6272385E-3,-2.3492556E-5,8.374378E-3,-1.8562838E-4],"categories":[],"categories_nodes":[],"categories_segments":[],"categories_sizes":[],"default_left":[0,0,0,0,0,0,0,0,0],"id":87,"left_children":[1,3,-1,5,7,-1,-1,-1,-1],"loss_changes":[2.5194304E-3,2.2405675E-3,0E0,4.1077146E-3,3.3665258E-3,0E0,0E0,0E0,0E0],"parents":[2147483647,0,0,1,1,3,3,4,4],"right_children":[2,4,-1,6,8,-1,-1,-1,-1],"split_conditions":[4.496592E0,2.9409132E0,7.487369E-3,-1.5769082E0,-5.9613967E-1,-4.6272385E-3,-2.3492556E-5,8.374378E-3,-1.8562838E-4],"split_indices":[8,0,0,2,7,0,0,0,0],"split_type":[0,0,0,0,0,0,0,0,0],"sum_hessian":[6E2,5.97E2,3E0,5.81E2,1.6E1,1.7E1,5.64E2,6E0,1E1],"tree_param":{"num_deleted":"0","num_feature":"10","num_nodes":"9","size_leaf_vector":"1"}},{"base_weights":[-2.0619444E-5,1.7703355E-3,-2.0393261E-3,9.3107665E-4,5.4289572E-2,-6.2459446E-2,-9.4921887E-4,-5.1436806E-4,2.6975172E-3,-6.3156486E-3,3.3460435E-2,-2.943349E-3,-2.1950617E-2,3.136298E-4,-5.2619027E-3],"categories":[],"categories_nodes":[],"categories_segments":[],"categories_sizes":[],