{"learner":{"attributes":{"best_iteration":"449","best_ntree_limit":"450","scikit_learn":"{\"n_estimators\": 450, \"objective\": \"reg:squarederror\", \"max_depth\": 3, \"max_leaves\": null, \"max_bin\": null, \"grow_policy\": null, \"learning_rate\": null, \"verbosity\": null, \"booster\": null, \"tree_method\": null, \"gamma\": null, \"min_child_weight\": null, \"max_delta_step\": null, \"subsample\": null, \"sampling_method\": null, \"colsample_bytree\": null, \"colsample_bylevel\": null, \"colsample_bynode\": null, \"reg_alpha\": null, \"reg_lambda\": null, \"scale_pos_weight\": null, \"base_score\": null, \"missing\": NaN, \"num_parallel_tree\": null, \"random_state\": null, \"n_jobs\": null, \"monotone_constraints\": null, \"interaction_constraints\": null, \"importance_type\": null, \"gpu_id\": null, \"validate_parameters\": null, \"predictor\": null, \"enable_categorical\": false, \"feature_types\": null, \"max_cat_to_onehot\": null, \"max_cat_threshold\": null, \"eval_metric\": null, \"early_stopping_rounds\": null, \"callbacks\": null, \"_estimator_type\": \"regressor\"}"},"feature_names":[],"feature_types":[],"gradient_booster":{"model":{"gbtree_model_param":{"num_parallel_tree":"1","num_trees":"450","size_leaf_vector":"0"},"tree_info":[0,0,0,0,0,0,0,0,0,0,0,0,0,0,0,0,0,0,0,0,0,0,0,0,0,0,0,0,0,0,0,0,0,0,0,0,0,0,0,0,0,0,0,0,0,0,0,0,0,0,0,0,0,0,0,0,0,0,0,0,0,0,0,0,0,0,0,0,0,0,0,0,0,0,0,0,0,0,0,0,0,0,0,0,0,0,0,0,0,0,0,0,0,0,0,0,0,0,0,0,0,0,0,0,0,0,0,0,0,0,0,0,0,0,0,0,0,0,0,0,0,0,0,0,0,0,0,0,0,0,0,0,0,0,0,0,0,0,0,0,0,0,0,0,0,0,0,0,0,0,0,0,0,0,0,0,0,0,0,0,0,0,0,0,0,0,0,0,0,0,0,0,0,0,0,0,0,0,0,0,0,0,0,0,0,0,0,0,0,0,0,0,0,0,0,0,0,0,0,0,0,0,0,0,0,0,0,0,0,0,0,0,0,0,0,0,0,0,0,0,0,0,0,0,0,0,0,0,0,0,0,0,0,0,0,0,0,0,0,0,0,0,0,0,0,0,0,0,0,0,0,0,0,0,0,0,0,0,0,0,0,0,0,0,0,0,0,0,0,0,0,0,0,0,0,0,0,0,0,0,0,0,0,0,0,0,0,0,0,0,0,0,0,0,0,0,0,0,0,0,0,0,0,0,0,0,0,0,0,0,0,0,0,0,0,0,0,0,0,0,0,0,0,0,0,0,0,0,0,0,0,0,0,0,0,0,0,0,0,0,0,0,0,0,0,0,0,0,0,0,0,0,0,0,0,0,0,0,0,0,0,0,0,0,0,0,0,0,0,0,0,0,0,0,0,0,0,0,0,0,0,0,0,0,0,0,0,0,0,0,0,0,0,0,0,0,0,0,0,0,0,0,0,0,0,0,0,0,0,0,0,0,0,0,0,0,0,0,0,0,0,0,0,0,0,0,0,0,0,0,0,0,0,0,0,0,0,0,0,0,0,0,0,0,0,0,0,0,0,0],"trees":[{"base_weights":[-5.0816166E-1,-1.0867147E0,6.660346E-1,-1.239633E0,-4.635135E-1,3.0024955E-1,1.6943067E0,-1.4071517E0,-1.1376581E0,-7.4672484E-1,-3.766179E-1,6.9304965E-2,6.474489E-1,1.2426881E0,1.9601552E0],"categories":[],"categories_nodes":[],"categories_segments":[],"categories_sizes":[],"default_left":[1,1,1,1,1,1,1,0,0,0,0,0,0,0,0],"id":0,"left_children":[1,3,5,7,9,11,13,-1,-1,-1,-1,-1,-1,-1,-1],"loss_changes":[4.090041E2,3.783084E1,7.434046E1,3.9168396E0,1.7121658E0,1.18223295E1,3.807373E0,0E0,0E0,0E0,0E0,0E0,0E0,0E0,0E0],"parents":[2147483647,0,0,1,1,2,2,3,3,4,4,5,5,6,6],"right_children":[2,4,6,8,10,12,14,-1,-1,-1,-1,-1,-1,-1,-1],"split_conditions":[7.170002E-2,-3.3794025E-1,1.5076916E0,-7.659329E-1,-8.1083226E-1,5.706786E-1,-1.18275404E-1,-4.2214552E-1,-3.4129745E-1,-2.2401746E-1,-1.1298538E-1,2.079149E-2,1.9423468E-1,3.7280643E-1,5.880466E-1],"split_indices":[0,0,0,0,7,0,7,0,0,0,0,0,0,0,0],"split_type":[0,0,0,0,0,0,0,0,0,0,0,0,0,0,0],"sum_hessian":[6E2,4.02E2,1.98E2,3.22E2,8E1,1.47E2,5.1E1,1.17E2,2.05E2,1.7E1,6.3E1,8.9E1,5.8E1,2.1E1,3E1],"tree_param":{"num_deleted":"0","num_feature":"10","num_nodes":"15","size_leaf_vector":"0"}},{"base_weights":[-3.5558766E-1,-7.459061E-1,5.125287E-1,-8.6338717E-1,-2.655798E-1,1.3221018E0,2.761273E-1,-1.0748696E0,-8.1006026E-1,-4.224932E-1,-1.4236182E-1,9.709573E-1,1.5450038E0,-6.5162785E-2,4.6561933E-1],"categories":[],"categories_nodes":[],"categories_segments":[],"categories_sizes":[],"default_left":[1,1,1,1,1,1,1,0,0,0,0,0,0,0,0],"id":1,"left_children":[1,3,5,7,9,11,13,-1,-1,-1,-1,-1,-1,-1,-1],"loss_changes":[2.0402626E2,2.3188828E1,3.5423775E1,2.8847656E0,1.5446215E0,1.7872391E0,9.472417E0,0E0,0E0,0E0,0E0,0E0,0E0,0E0,0E0],"parents":[2147483647,0,0,1,1,2,2,3,3,4,4,5,5,6,6],"right_children":[2,4,6,8,10,12,14,-1,-1,-1,-1,-1,-1,-1,-1],"split_conditions":[1.385306E-1,-2.9396367E-1,-1.7010505E0,-8.303396E-1,-1.18275404E-1,2.7006001E0,-4.6455383E-1,-3.224609E-1,-2.4301809E-1,-1.2674797E-1,-4.2708546E-2,2.9128718E-1,4.6350116E-1,-1.9548837E-2,1.3968581E-1],"split_indices":[0,0,3,0,7,0,7,0,0,0,0,0,0,0,0],"split_type":[0,0,0,0,0,0,0,0,0,0,0,0,0,0,0],"sum_hessian":[6E2,4.14E2,1.86E2,3.32E2,8.2E1,4.1E1,1.45E2,6.3E1,2.69E2,3.5E1,4.7E1,1.8E1,2.3E1,5.2E1,9.3E1],"tree_param":{"num_deleted":"0","num_feature":"10","num_nodes":"15","size_leaf_vector":"0"}},{"base_weights":[-2.4867843E-1,-5.239052E-1,3.6344883E-1,-6.520044E-1,-3.025682E-1,1.2282032E-1,8.4660596E-1,-6.942816E-1,-4.3270627E-1,-4.26902E-1,-1.5503663E-1,-3.0411696E-2,3.7245592E-1,5.749671E-1,1.0268183E0],"categories":[],"categories_nodes":[],"categories_segments":[],"categories_sizes":[],"default_left":[1,1,1,1,1,1,1,0,0,0,0,0,0,0,0],"id":2,"left_children":[1,3,5,7,9,11,13,-1,-1,-1,-1,-1,-1,-1,-1],"loss_changes":[1.0144317E2,1.156926E1,2.1636896E1,2.128662E0,2.7586622E0,4.8310995E0,2.4446793E0,0E0,0E0,0E0,0E0,0E0,0E0,0E0,0E0],"parents":[2147483647,0,0,1,1,2,2,3,3,4,4,5,5,6,6],"right_children":[2,4,6,8,10,12,14,-1,-1,-1,-1,-1,-1,-1,-1],"split_conditions":[1.385306E-1,-4.6467596E-1,1.1319861E0,6.795167E-1,-2.3336598E-1,5.7428145E-1,-1.18275404E-1,-2.0828448E-1,-1.2981188E-1,-1.2807061E-1,-4.651099E-2,-9.123509E-3,1.1173678E-1,1.7249013E-1,3.080455E-1],"split_indices":[0,0,0,4,0,7,7,0,0,0,0,0,0,0,0],"split_type":[0,0,0,0,0,0,0,0,0,0,0,0,0,0,0],"sum_hessian":[6E2,4.14E2,1.86E2,2.61E2,1.53E2,1.25E2,6.1E1,2.17E2,4.4E1,8.2E1,7.1E1,7.8E1,4.7E1,2.6E1,3.5E1],"tree_param":{"num_deleted":"0","num_feature":"10","num_nodes":"15","size_leaf_vector":"0"}},{"base_weights":[-1.7395763E-1,-3.1473657E-1,4.5728955E-1,-4.2106622E-1,-6.7138314E-2,3.2931E-1,8.203257E-1,-3.2870945E-1,-4.8208517E-1,-1.6567259E-1,9.480601E-2,-3.8566746E-2,4.045106E-1],"categories":[],"categories_nodes":[],"categories_segments":[],"categories_sizes":[],"default_left":[1,1,1,1,1,1,0,0,0,0,0,0,0],"id":3,"left_children":[1,3,5,7,9,11,-1,-1,-1,-1,-1,-1,-1],"loss_changes":[5.3552574E1,1.2924633E1,4.8405914E0,1.7801514E0,2.3933098E0,2.311758E0,0E0,0E0,0E0,0E0,0E0,0E0,0E0],"parents":[2147483647,0,0,1,1,2,2,3,3,4,4,5,5],"right_children":[2,4,6,8,10,12,-1,-1,-1,-1,-1,-1,-1],"split_conditions":[5.706786E-1,-2.3336598E-1,2.5863304E0,5.489432E-1,1.4143343E-1,-9.839715E-1,2.4609771E-1,-9.861284E-2,-1.4462556E-1,-4.9701776E-2,2.8441804E-2,-1.1570024E-2,1.2135318E-1],"split_indices":[0,0,0,3,7,7,0,0,0,0,0,0,0],"split_type":[0,0,0,0,0,0,0,0,0,0,0,0,0],"sum_hessian":[6E2,4.91E2,1.09E2,3.43E2,1.48E2,8.2E1,2.7E1,1.39E2,2.04E2,9.2E1,5.6E1,1.4E1,6.8E1],"tree_param":{"num_deleted":"0","num_feature":"10","num_nodes":"13","size_leaf_vector":"0"}},{"base_weights":[-1.2161829E-1,-2.208532E-1,3.2333797E-1,-3.038889E-1,-6.1786227E-2,4.8669714E-1,1.5112977E-1,-4.356447E-1,-2.587197E-1,-1.0686943E-1,1.809459E-1,6.4511716E-1,3.8076606E-1,1.880658E-2,2.6077223E-1],"categories":[],"categories_nodes":[],"categories_segments":[],"categories_sizes":[],"default_left":[1,1,1,1,1,1,1,0,0,0,0,0,0,0,0],"id":4,"left_children":[1,3,5,7,9,11,13,-1,-1,-1,-1,-1,-1,-1,-1],"loss_changes":[2.6608677E1,6.479677E0,3.0209417E0,1.8095589E0,1.8796718E0,6.941309E-1,7.93049E-1,0E0,0E0,0E0,0E0,0E0,0E0,0E0,0E0],"parents":[2147483647,0,0,1,1,2,2,3,3,4,4,5,5,6,6],"right_children":[2,4,6,8,10,12,14,-1,-1,-1,-1,-1,-1,-1,-1],"split_conditions":[5.706786E-1,-3.3794025E-1,-8.9824134E-1,-6.86172E-1,1.6553892E0,-2.2903433E0,-1.18275404E-1,-1.306934E-1,-7.761592E-2,-3.206083E-2,5.428377E-2,1.9353516E-1,1.1422982E-1,5.6419745E-3,7.823167E-2],"split_indices":[0,0,3,7,6,1,7,0,0,0,0,0,0,0,0],"split_type":[0,0,0,0,0,0,0,0,0,0,0,0,0,0,0],"sum_hessian":[6E2,4.91E2,1.09E2,3.22E2,1.69E2,5.5E1,5.4E1,8E1,2.42E2,1.43E2,2.6E1,2E1,3.5E1,2.5E1,2.9E1],"tree_param":{"num_deleted":"0","num_feature":"10","num_nodes":"15","size_leaf_vector":"0"}},{"base_weights":[-8.479079E-2,1.7661384E-1,-1.7445935E-1,2.9144832E-1,-8.151007E-3,-2.4103211E-1,-8.362046E-2,1.5428758E-1,3.8839638E-1,-2.624777E-1,8.24574E-2,-1.8035069E-1,-3.382635E-1,-2.128838E-1,-1.8483554E-3],"categories":[],"categories_nodes":[],"categories_segments":[],"categories_sizes":[],"default_left":[1,1,1,1,1,1,1,0,0,0,0,0,0,0,0],"id":5,"left_children":[1,3,5,7,9,11,13,-1,-1,-1,-1,-1,-1,-1,-1],"loss_changes":[1.4118119E1,3.2698512E0,2.6890793E0,1.2033348E0,1.4042914E0,1.4612303E0,2.0185025E0,0E0,0E0,0E0,0E0,0E0,0E0,0E0,0E0],"parents":[2147483647,0,0,1,1,2,2,3,3,4,4,5,5,6,6],"right_children":[2,4,6,8,10,12,14,-1,-1,-1,-1,-1,-1,-1,-1],"split_conditions":[-4.477697E-1,-2.7478585E-1,-4.6467596E-1,-1.18275404E-1,-1.1571107E0,6.8112576E-1,-3.191169E-1,4.6286274E-2,1.1651892E-1,-7.874331E-2,2.4737222E-2,-5.410521E-2,-1.0147906E-1,-6.386514E-2,-5.5450667E-4],"split_indices":[3,2,0,7,7,5,7,0,0,0,0,0,0,0,0],"split_type":[0,0,0,0,0,0,0,0,0,0,0,0,0,0,0],"sum_hessian":[6E2,1.53E2,4.47E2,9.4E1,5.9E1,2.57E2,1.9E2,4E1,5.4E1,1.5E1,4.4E1,1.6E2,9.7E1,7.3E1,1.17E2],"tree_param":{"num_deleted":"0","num_feature":"10","num_nodes":"15","size_leaf_vector":"0"}},{"base_weights":[-5.9538584E-2,1.8292277E-1,-1.0829918E-1,7.981809E-2,2.7854413E-1,-1.8089622E-1,-4.4508107E-2,2.6562467E-2,5.538062E-1,2.7479008E-3,3.2138473E-1,-2.57539E-1,-1.4092395E-1,6.080974E-2,-1.1166582E-1],"categories":[],"categories_nodes":[],"categories_segments":[],"categories_sizes":[],"default_left":[1,1,1,1,1,1,1,0,0,0,0,0,0,0,0],"id":6,"left_children":[1,3,5,7,9,11,13,-1,-1,-1,-1,-1,-1,-1,-1],"loss_changes":[7.1251693E0,9.7352743E-1,2.3121014E0,1.2474161E0,6.135111E-1,6.805854E-1,1.9023292E0,0E0,0E0,0E0,0E0,0E0,0E0,0E0,0E0],"parents":[2147483647,0,0,1,1,2,2,3,3,4,4,5,5,6,6],"right_children":[2,4,6,8,10,12,14,-1,-1,-1,-1,-1,-1,-1,-1],"split_conditions":[-8.438537E-1,1.37998E-1,2.9220488E-3,3.768158E0,-1.1571107E0,-6.3815844E-1,1.6231793E-1,7.968741E-3,1.6614187E-1,8.2437025E-4,9.641542E-2,-7.72617E-2,-4.2277187E-2,1.8242922E-2,-3.3499748E-2],"split_indices":[3,6,7,0,7,0,3,0,0,0,0,0,0,0,0],"split_type":[0,0,0,0,0,0,0,0,0,0,0,0,0,0,0],"sum_hessian":[6E2,1E2,5E2,4.9E1,5.1E1,2.33E2,2.67E2,4.5E1,4E0,7E0,4.4E1,7.8E1,1.55E2,1.04E2,1.63E2],"tree_param":{"num_deleted":"0","num_feature":"10","num_nodes":"15","size_leaf_vector":"0"}},{"base_weights":[-4.14498E-2,8.92636E-2,-9.029809E-2,1.61921E-1,-3.5273982E-3,-2.2966364E-1,-7.133864E-2,1.13020636E-1,3.323112E-1,-1.6036254E-1,4.6946887E-2,-2.6391524E-1,-1.2758203E-1,-1.7251343E-1,-3.920103E-2],"categories":[],"categories_nodes":[],"categories_segments":[],"categories_sizes":[],"default_left":[1,1,1,1,1,1,1,0,0,0,0,0,0,0,0],"id":7,"left_children":[1,3,5,7,9,11,13,-1,-1,-1,-1,-1,-1,-1,-1],"loss_changes":[3.8455207E0,1.1062512E0,1.1409409E0,7.2899914E-1,5.854069E-1,1.481452E-1,1.2515739E0,0E0,0E0,0E0,0E0,0E0,0E0,0E0,0E0],"parents":[2147483647,0,0,1,1,2,2,3,3,4,4,5,5,6,6],"right_children":[2,4,6,8,10,12,14,-1,-1,-1,-1,-1,-1,-1,-1],"split_conditions":[-4.1466415E-1,-2.9419154E-1,-9.2506146E-1,1.0936991E0,-1.1571107E0,-3.8087803E-1,-6.86172E-1,3.390619E-2,9.9693365E-2,-4.8108764E-2,1.4084066E-2,-7.917458E-2,-3.827461E-2,-5.175403E-2,-1.1760309E-2],"split_indices":[3,2,6,7,7,0,7,0,0,0,0,0,0,0,0],"split_type":[0,0,0,0,0,0,0,0,0,0,0,0,0,0,0],"sum_hessian":[6E2,1.63E2,4.37E2,9.1E1,7.2E1,5.1E1,3.86E2,7.2E1,1.9E1,1.7E1,5.5E1,3.7E1,1.4E1,9.2E1,2.94E2],"tree_param":{"num_deleted":"0","num_feature":"10","num_nodes":"15","size_leaf_vector":"0"}},{"base_weights":[-2.9150285E-2,-7.9356335E-2,4.0221497E-2,-5.5597845E-2,-1.5854928E-1,-3.8777238E-1,5.0414007E-2,3.7507114E-1,-6.1841585E-2,-2.0569508E-1,-1.1099605E-1,2.1813E-2,1.7895159E-1],"categories":[],"categories_nodes":[],"categories_segments":[],"categories_sizes":[],"default_left":[1,1,1,1,1,0,1,0,0,0,0,0,0],"id":8,"left_children":[1,3,5,7,9,-1,11,-1,-1,-1,-1,-1,-1],"loss_changes":[2.0964046E0,6.4783E-1,1.1232189E0,7.4922085E-1,1.5652347E-1,0E0,9.0782005E-1,0E0,0E0,0E0,0E0,0E0,0E0],"parents":[2147483647,0,0,1,1,2,2,3,3,4,4,6,6],"right_children":[2,4,6,8,10,-1,12,-1,-1,-1,-1,-1,-1],"split_conditions":[-1.904282E-1,6.308415E-1,-1.7056327E0,-9.201627E-1,-4.7652003E-1,-1.1633172E-1,1.2668383E0,1.1252134E-1,-1.8552477E-2,-6.1708525E-2,-3.3298817E-2,6.5439004E-3,5.368548E-2],"split_indices":[0,8,2,0,9,0,7,0,0,0,0,0,0],"split_type":[0,0,0,0,0,0,0,0,0,0,0,0,0],"sum_hessian":[6E2,3.48E2,2.52E2,2.69E2,7.9E1,5E0,2.47E2,3E0,2.66E2,3.8E1,4.1E1,2.03E2,4.4E1],"tree_param":{"num_deleted":"0","num_feature":"10","num_nodes":"13","size_leaf_vector":"0"}},{"base_weights":[-2.0500269E-2,4.502824E-2,-5.3787958E-2,-1.2623126E-3,1.4791617E-1,-2.4035515E-1,-4.4856027E-2,-1.6806766E-2,3.5128903E-1,8.477865E-2,2.4049406E-1,-2.4749652E-1,-5.947596E-2,-1.3994238E-1,-2.6703468E-2],"categories":[],"categories_nodes":[],"categories_segments":[],"categories_sizes":[],"default_left":[1,1,1,1,1,1,1,0,0,0,0,0,0,0,0],"id":9,"left_children":[1,3,5,7,9,11,13,-1,-1,-1,-1,-1,-1,-1,-1],"loss_changes":[1.3133788E0,9.670227E-1,6.5411425E-1,7.786148E-1,3.4785497E-1,8.531094E-3,6.5561825E-1,0E0,0E0,0E0,0E0,0E0,0E0,0E0,0E0],"parents":[2147483647,0,0,1,1,2,2,3,3,4,4,5,5,6,6],"right_children":[2,4,6,8,10,12,14,-1,-1,-1,-1,-1,-1,-1,-1],"split_conditions":[-2.0330024E-1,6.575717E-1,-1.4747049E0,3.2539434E0,2.2800304E-1,1.6131167E0,-1.1571107E0,-5.04203E-3,1.0538671E-1,2.5433596E-2,7.214822E-2,-7.4248955E-2,-1.7842788E-2,-4.1982714E-2,-8.01104E-3],"split_indices":[4,6,2,0,7,7,7,0,0,0,0,0,0,0,0],"split_type":[0,0,0,0,0,0,0,0,0,0,0,0,0,0,0],"sum_hessian":[6E2,2.02E2,3.98E2,1.4E2,6.2E1,1.7E1,3.81E2,1.35E2,5E0,3.8E1,2.4E1,1.6E1,1E0,6E1,3.21E2],"tree_param":{"num_deleted":"0","num_feature":"10","num_nodes":"15","size_leaf_vector":"0"}},{"base_weights":[-1.4257275E-2,1.5561427E-2,-6.786463E-2,-6.414418E-2,4.1712716E-2,-1.24992914E-1,-3.699593E-2,-1.0492759E-1,6.9860905E-2,5.800809E-2,-8.364652E-2,-1.4668363E-1,2.966884E-1,1.0314937E-1,-4.8481442E-2],"categories":[],"categories_nodes":[],"categories_segments":[],"categories_sizes":[],"default_left":[1,1,1,1,1,1,1,0,0,0,0,0,0,0,0],"id":10,"left_children":[1,3,5,7,9,11,13,-1,-1,-1,-1,-1,-1,-1,-1],"loss_changes":[9.617555E-1,8.093402E-1,3.745231E-1,5.31988E-1,6.013426E-1,7.2951245E-1,2.319602E-1,0E0,0E0,0E0,0E0,0E0,0E0,0E0,0E0],"parents":[2147483647,0,0,1,1,2,2,3,3,4,4,5,5,6,6],"right_children":[2,4,6,8,10,12,14,-1,-1,-1,-1,-1,-1,-1,-1],"split_conditions":[5.489432E-1,-7.2426265E-1,-8.064468E-1,6.916849E-1,9.5856357E-1,-8.045909E-2,-9.9797153E-1,-3.147828E-2,2.0958273E-2,1.7402427E-2,-2.5093958E-2,-4.4005092E-2,8.900653E-2,3.0944811E-2,-1.4544433E-2],"split_indices":[3,7,0,9,5,6,2,0,0,0,0,0,0,0,0],"split_type":[0,0,0,0,0,0,0,0,0,0,0,0,0,0,0],"sum_hessian":[6E2,3.86E2,2.14E2,9.5E1,2.91E2,7.4E1,1.4E2,7.3E1,2.2E1,2.58E2,3.3E1,7.1E1,3E0,1E1,1.3E2],"tree_param":{"num_deleted":"0","num_feature":"10","num_nodes":"15","size_leaf_vector":"0"}},{"base_weights":[-9.908225E-3,1.463065E-1,-1.7226294E-2,2.800287E-1,7.5264044E-2,-2.850359E-2,6.0714893E-2,7.760513E-2,2.9563102E-1,-2.8336406E-2,8.911918E-2,-3.6410492E-2,4.8984867E-2,1.0703073E-1,-3.2492734E-2],"categories":[],"categories_nodes":[],"categories_segments":[],"categories_sizes":[],"default_left":[1,1,1,1,1,1,1,0,0,0,0,0,0,0,0],"id":11,"left_children":[1,3,5,7,9,11,13,-1,-1,-1,-1,-1,-1,-1,-1],"loss_changes":[6.895775E-1,2.3542267E-1,5.071359E-1,5.4819584E-3,2.979789E-2,3.0996844E-1,3.1861788E-1,0E0,0E0,0E0,0E0,0E0,0E0,0E0,0E0],"parents":[2147483647,0,0,1,1,2,2,3,3,4,4,5,5,6,6],"right_children":[2,4,6,8,10,12,14,-1,-1,-1,-1,-1,-1,-1,-1],"split_conditions":[-2.2903433E0,-1.4701769E0,1.4157381E0,-1.618954E0,-1.3045816E0,1.6081553E0,5.324609E-1,2.3281539E-2,8.868931E-2,-8.5009225E-3,2.6735755E-2,-1.0923148E-2,1.4695461E-2,3.210922E-2,-9.747821E-3],"split_indices":[1,2,7,2,2,6,5,0,0,0,0,0,0,0,0],"split_type":[0,0,0,0,0,0,0,0,0,0,0,0,0,0,0],"sum_hessian":[6E2,2.6E1,5.74E2,8E0,1.8E1,5.02E2,7.2E1,1E0,7E0,2E0,1.6E1,4.56E2,4.6E1,4.8E1,2.4E1],"tree_param":{"num_deleted":"0","num_feature":"10","num_nodes":"15","size_leaf_vector":"0"}},{"base_weights":[-6.675627E-3,2.5721004E-2,-2.7113944E-2,2.0123955E-3,1.17056005E-1,-4.407016E-2,3.094071E-2,-8.701225E-2,2.1076038E-2,6.563897E-2,1.9207996E-1,-1.3571903E-1,-2.2153098E-2,9.7547986E-2,-1.0575769E-1],"categories":[],"categories_nodes":[],"categories_segments":[],"categories_sizes":[],"default_left":[1,1,1,1,1,1,1,0,0,0,0,0,0,0,0],"id":12,"left_children":[1,3,5,7,9,11,13,-1,-1,-1,-1,-1,-1,-1,-1],"loss_changes":[3.986391E-1,5.043086E-1,3.6460236E-1,3.1750083E-1,1.7255253E-1,5.7147413E-1,7.7514553E-1,0E0,0E0,0E0,0E0,0E0,0E0,0E0,0E0],"parents":[2147483647,0,0,1,1,2,2,3,3,4,4,5,5,6,6],"right_children":[2,4,6,8,10,12,14,-1,-1,-1,-1,-1,-1,-1,-1],"split_conditions":[-1.0193978E-1,8.966936E-1,4.9641392E-1,-5.2519524E-1,1.0758244E-1,-2.0301113E-1,2.0233603E0,-2.6103677E-2,6.322812E-3,1.969169E-2,5.762399E-2,-4.071571E-2,-6.6459295E-3,2.9264396E-2,-3.172731E-2],"split_indices":[4,6,4,9,9,5,4,0,0,0,0,0,0,0,0],"split_type":[0,0,0,0,0,0,0,0,0,0,0,0,0,0,0],"sum_hessian":[6E2,2.32E2,3.68E2,1.85E2,4.7E1,2.85E2,8.3E1,3.2E1,1.53E2,2.9E1,1.8E1,5.4E1,2.31E2,5.6E1,2.7E1],"tree_param":{"num_deleted":"0","num_feature":"10","num_nodes":"15","size_leaf_vector":"0"}},{"base_weights":[-4.660117E-3,5.3795436E-3,-6.403673E-2,-1.21453935E-2,4.364157E-2,-1.0680519E-1,-2.1746045E-2,-1.7082868E-2,1.299962E-1,-2.2354415E-1,4.8378542E-2,-9.276652E-2,-1.4953277E-1,-4.9347714E-2,6.8054356E-2],"categories":[],"categories_nodes":[],"categories_segments":[],"categories_sizes":[],"default_left":[1,1,1,1,1,1,1,0,0,0,0,0,0,0,0],"id":13,"left_children":[1,3,5,7,9,11,13,-1,-1,-1,-1,-1,-1,-1,-1],"loss_changes":[3.5861322E-1,3.4585792E-1,1.5503496E-1,2.5066513E-1,2.158503E-1,1.1921346E-2,1.1489717E-1,0E0,0E0,0E0,0E0,0E0,0E0,0E0,0E0],"parents":[2147483647,0,0,1,1,2,2,3,3,4,4,5,5,6,6],"right_children":[2,4,6,8,10,12,14,-1,-1,-1,-1,-1,-1,-1,-1],"split_conditions":[8.910362E-1,5.7428145E-1,-7.0775914E-1,2.7360435E0,-1.7056327E0,-8.275694E-1,1.0758244E-1,-5.1248604E-3,3.899886E-2,-6.706325E-2,1.4513563E-2,-2.7829958E-2,-4.485983E-2,-1.4804315E-2,2.0416308E-2],"split_indices":[5,7,0,9,2,0,9,0,0,0,0,0,0,0,0],"split_type":[0,0,0,0,0,0,0,0,0,0,0,0,0,0,0],"sum_hessian":[6E2,5.14E2,8.6E1,3.53E2,1.61E2,4.2E1,4.4E1,3.42E2,1.1E1,2E0,1.59E2,3.4E1,8E0,3.4E1,1E1],"tree_param":{"num_deleted":"0","num_feature":"10","num_nodes":"15","size_leaf_vector":"0"}},{"base_weights":[-3.4047668E-3,-7.199966E-3,1.2739502E-1,-5.5902727E-2,2.4756328E-3,1.9639397E-1,4.4241056E-2,-1.5253687E-1,-4.176886E-2,2.1134974E-2,-2.6999516E-2,5.5546165E-2,2.0705667E-1,-3.0013958E-2,6.974448E-2],"categories":[],"categories_nodes":[],"categories_segments":[],"categories_sizes":[],"default_left":[1,1,1,1,1,1,1,0,0,0,0,0,0,0,0],"id":14,"left_children":[1,3,5,7,9,11,13,-1,-1,-1,-1,-1,-1,-1,-1],"loss_changes":[2.9926038E-1,2.7580702E-1,8.8849425E-2,1.2611264E-1,2.6951423E-1,2.0151734E-3,1.9137122E-2,0E0,0E0,0E0,0E0,0E0,0E0,0E0,0E0],"parents":[2147483647,0,0,1,1,2,2,3,3,4,4,5,5,6,6],"right_children":[2,4,6,8,10,12,14,-1,-1,-1,-1,-1,-1,-1,-1],"split_conditions":[2.8969367E0,-1.1571107E0,-1.4701769E0,-4.6788573E-1,5.489432E-1,-1.618954E0,3.1310167E0,-4.5761064E-2,-1.2530658E-2,6.3404925E-3,-8.099855E-3,1.666385E-2,6.2117003E-2,-9.004188E-3,2.0923346E-2],"split_indices":[0,7,2,5,3,2,0,0,0,0,0,0,0,0,0],"split_type":[0,0,0,0,0,0,0,0,0,0,0,0,0,0,0],"sum_hessian":[6E2,5.84E2,1.6E1,9.6E1,4.88E2,8E0,8E0,1.1E1,8.5E1,2.99E2,1.89E2,1E0,7E0,2E0,6E0],"tree_param":{"num_deleted":"0","num_feature":"10","num_nodes":"15","size_leaf_vector":"0"}},{"base_weights":[-2.3323414E-3,-1.7667177E-1,-5.733331E-4,-9.85273E-3,3.832443E-2,-5.155784E-3,-1.0782725E-1,1.5956667E-1,2.3966437E-2],"categories":[],"categories_nodes":[],"categories_segments":[],"categories_sizes":[],"default_left":[1,0,1,1,1,0,0,0,0],"id":15,"left_children":[1,-1,3,5,7,-1,-1,-1,-1],"loss_changes":[1.8420409E-1,0E0,2.1550249E-1,2.2125131E-1,1.9636723E-1,0E0,0E0,0E0,0E0],"parents":[2147483647,0,0,2,2,3,3,4,4],"right_children":[2,-1,4,6,8,-1,-1,-1,-1],"split_conditions":[-1.7056327E0,-5.3001534E-2,5.017703E-1,2.0233603E0,6.2227315E-1,-1.5467353E-3,-3.234818E-2,4.7870003E-2,7.1899313E-3],"split_indices":[2,0,0,4,0,0,0,0,0],"split_type":[0,0,0,0,0,0,0,0,0],"sum_hessian":[6E2,5E0,5.95E2,4.81E2,1.14E2,4.6E2,2.1E1,1.1E1,1.03E2],"tree_param":{"num_deleted":"0","num_feature":"10","num_nodes":"9","size_leaf_vector":"0"}},{"base_weights":[-1.6856174E-3,5.0395415E-3,-4.1476093E-2,2.4927929E-1,3.1215756E-3,-6.9874816E-2,-1.3417843E-2,-4.3591548E-4,1.2102217E-1,-5.8170404E-2,-1.0762809E-1,5.8035296E-3,-1.1859151E-1],"categories":[],"categories_nodes":[],"categories_segments":[],"categories_sizes":[],"default_left":[1,1,1,0,1,1,1,0,0,0,0,0,0],"id":16,"left_children":[1,3,5,-1,7,9,11,-1,-1,-1,-1,-1,-1],"loss_changes":[1.6103499E-1,2.4047028E-1,6.8385616E-2,0E0,2.148011E-1,1.2740076E-2,9.165946E-2,0E0,0E0,0E0,0E0,0E0,0E0],"parents":[2147483647,0,0,1,1,2,2,4,4,5,5,6,6],"right_children":[2,4,6,-1,8,10,12,-1,-1,-1,-1,-1,-1],"split_conditions":[8.910362E-1,-9.201627E-1,-7.0775914E-1,7.478379E-2,2.7360435E0,-8.275694E-1,6.9968656E-2,-1.3077466E-4,3.6306653E-2,-1.7451122E-2,-3.228843E-2,1.741059E-3,-3.5577454E-2],"split_indices":[5,0,0,0,9,0,0,0,0,0,0,0,0],"split_type":[0,0,0,0,0,0,0,0,0,0,0,0,0],"sum_hessian":[6E2,5.14E2,8.6E1,3E0,5.11E2,4.2E1,4.4E1,4.97E2,1.4E1,3.4E1,8E0,3.8E1,6E0],"tree_param":{"num_deleted":"0","num_feature":"10","num_nodes":"13","size_leaf_vector":"0"}},{"base_weights":[-1.1343621E-3,-8.40457E-2,1.8643857E-3,-1.5904896E-1,-5.704205E-2,1.7531564E-2,-1.3917271E-2,-7.88204E-2,-1.4670074E-2,1.3626891E-2,2.0138316E-1,-2.4327628E-1,-7.384446E-3],"categories":[],"categories_nodes":[],"categories_segments":[],"categories_sizes":[],"default_left":[1,1,1,0,1,1,1,0,0,0,0,0,0],"id":17,"left_children":[1,3,5,-1,7,9,11,-1,-1,-1,-1,-1,-1],"loss_changes":[1.4958343E-1,3.3460125E-2,1.4389858E-1,0E0,1.453115E-2,2.0687684E-1,4.327286E-1,0E0,0E0,0E0,0E0,0E0,0E0],"parents":[2147483647,0,0,1,1,2,2,4,4,5,5,6,6],"right_children":[2,4,6,-1,8,10,12,-1,-1,-1,-1,-1,-1],"split_conditions":[-1.427208E0,-4.0520543E-1,1.6231793E-1,-4.771469E-2,-2.2806522E-1,2.7360435E0,1.924676E-1,-2.3646122E-2,-4.4010226E-3,4.0880674E-3,6.041495E-2,-7.2982885E-2,-2.215334E-3],"split_indices":[7,3,3,0,6,9,3,0,0,0,0,0,0],"split_type":[0,0,0,0,0,0,0,0,0,0,0,0,0],"sum_hessian":[6E2,2E1,5.8E2,4E0,1.6E1,2.91E2,2.89E2,1E1,6E0,2.86E2,5E0,7E0,2.82E2],"tree_param":{"num_deleted":"0","num_feature":"10","num_nodes":"13","size_leaf_vector":"0"}},{"base_weights":[-9.379099E-4,-7.520506E-3,3.1723663E-2,-1.3960674E-1,-5.6374273E-3,1.411089E-1,1.9489141E-2,-7.519566E-2,-1.6911614E-1,-7.952561E-3,8.081232E-2,1.9002038E-1,9.300106E-2,-1.678107E-1,3.450786E-2],"categories":[],"categories_nodes":[],"categories_segments":[],"categories_sizes":[],"default_left":[1,1,1,1,1,1,1,0,0,0,0,0,0,0,0],"id":18,"left_children":[1,3,5,7,9,11,13,-1,-1,-1,-1,-1,-1,-1,-1],"loss_changes":[1.2945235E-1,1.23826124E-1,1.3241577E-1,5.8832765E-4,9.971328E-2,5.858168E-3,2.6458707E-1,0E0,0E0,0E0,0E0,0E0,0E0,0E0,0E0],"parents":[2147483647,0,0,1,1,2,2,3,3,4,4,5,5,6,6],"right_children":[2,4,6,8,10,12,14,-1,-1,-1,-1,-1,-1,-1,-1],"split_conditions":[9.205599E-1,-1.6616464E0,-1.7288353E0,-2.9141462E-1,2.8969367E0,2.603644E0,-1.2557045E0,-2.25587E-2,-5.0734844E-2,-2.3857683E-3,2.4243698E-2,5.7006117E-2,2.790032E-2,-5.034321E-2,1.0352358E-2],"split_indices":[7,2,3,7,0,0,5,0,0,0,0,0,0,0,0],"split_type":[0,0,0,0,0,0,0,0,0,0,0,0,0,0,0],"sum_hessian":[6E2,5E2,1E2,6E0,4.94E2,9E0,9.1E1,3E0,3E0,4.82E2,1.2E1,3E0,6E0,6E0,8.5E1],"tree_param":{"num_deleted":"0","num_feature":"10","num_nodes":"15","size_leaf_vector":"0"}},{"base_weights":[-6.673751E-4,1.0523084E-3,-1.1390125E-1,-3.0365583E-2,7.257754E-3,-1.855121E-2,-1.3849394E-1,-3.8029484E-2,9.348584E-2,2.3327932E-4,5.3019736E-2,-4.488361E-2,1.7056793E-2],"categories":[],"categories_nodes":[],"categories_segments":[],"categories_sizes":[],"default_left":[1,1,1,1,1,1,0,0,0,0,0,0,0],"id":19,"left_children":[1,3,5,7,9,11,-1,-1,-1,-1,-1,-1,-1],"loss_changes":[1.1715044E-1,1.15832865E-1,1.8534988E-2,9.657538E-2,1.5942875E-1,3.5785027E-3,0E0,0E0,0E0,0E0,0E0,0E0,0E0],"parents":[2147483647,0,0,1,1,2,2,3,3,4,4,5,5],"right_children":[2,4,6,8,10,12,-1,-1,-1,-1,-1,-1,-1],"split_conditions":[3.0487633E0,-1.1571107E0,-9.839715E-1,2.1808672E0,5.2257144E-1,-6.0041475E-1,-4.1548185E-2,-1.1408846E-2,2.8045753E-2,6.99838E-5,1.5905922E-2,-1.3465083E-2,5.1170383E-3],"split_indices":[2,7,7,6,4,0,0,0,0,0,0,0,0],"split_type":[0,0,0,0,0,0,0,0,0,0,0,0,0],"sum_hessian":[6E2,5.92E2,8E0,9.7E1,4.95E2,2E0,6E0,9.2E1,5E0,4.3E2,6.5E1,1E0,1E0],"tree_param":{"num_deleted":"0","num_feature":"10","num_nodes":"13","size_leaf_vector":"0"}},{"base_weights":[-4.959212E-4,2.4116102E-3,-7.04983E-2,-1.8872244E-3,1.16522945E-1,-1.2764353E-1,-2.05629E-2,-4.7304872E-2,6.3745193E-3,-1.7594963E-2,1.7134312E-1,-8.380135E-3,-1.5321536E-1,-7.8767166E-2,3.2936193E-2],"categories":[],"categories_nodes":[],"categories_segments":[],"categories_sizes":[],"default_left":[1,1,1,1,1,1,1,0,0,0,0,0,0,0,0],"id":20,"left_children":[1,3,5,7,9,11,13,-1,-1,-1,-1,-1,-1,-1,-1],"loss_changes":[1.2249403E-1,2.8375533E-1,6.586095E-2,2.096793E-1,1.5741444E-1,3.2263666E-2,4.6188544E-2,0E0,0E0,0E0,0E0,0E0,0E0,0E0,0E0],"parents":[2147483647,0,0,1,1,2,2,3,3,4,4,5,5,6,6],"right_children":[2,4,6,8,10,12,14,-1,-1,-1,-1,-1,-1,-1,-1],"split_conditions":[2.0822148E0,1.4642429E0,-4.7652003E-1,-8.064468E-1,-4.7652003E-1,-8.1083226E-1,4.0114224E-1,-1.4191463E-2,1.9123559E-3,-5.278489E-3,5.1402938E-2,-2.5140406E-3,-4.596461E-2,-2.3630152E-2,9.8808585E-3],"split_indices":[4,4,9,0,9,7,7,0,0,0,0,0,0,0,0],"split_type":[0,0,0,0,0,0,0,0,0,0,0,0,0,0,0],"sum_hessian":[6E2,5.77E2,2.3E1,5.57E2,2E1,1E1,1.3E1,8.5E1,4.72E2,6E0,1.4E1,2E0,8E0,6E0,7E0],"tree_param":{"num_deleted":"0","num_feature":"10","num_nodes":"15","size_leaf_vector":"0"}},{"base_weights":[-3.9436863E-4,4.881139E-3,-2.5076043E-2,-3.1511239E-3,1.141181E-1,-7.1721E-2,-6.261947E-5,1.0342351E-2,-2.079109E-2,3.500089E-2,2.2464262E-1,-7.9813406E-2,1.0980275E-1,-6.0658034E-2,5.256136E-2],"categories":[],"categories_nodes":[],"categories_segments":[],"categories_sizes":[],"default_left":[1,1,1,1,1,1,1,0,0,0,0,0,0,0,0],"id":21,"left_children":[1,3,5,7,9,11,13,-1,-1,-1,-1,-1,-1,-1,-1],"loss_changes":[7.837762E-2,4.355599E-1,1.23671025E-1,1.10420346E-1,2.894466E-1,6.311539E-2,2.2640231E-1,0E0,0E0,0E0,0E0,0E0,0E0,0E0,0E0],"parents":[2147483647,0,0,1,1,2,2,3,3,4,4,5,5,6,6],"right_children":[2,4,6,8,10,12,14,-1,-1,-1,-1,-1,-1,-1,-1],"split_conditions":[7.643893E-1,6.340476E-1,1.2415615E-1,8.770238E-2,7.5230575E-1,1.9157286E0,-6.8859637E-1,3.1027056E-3,-6.237327E-3,1.0500267E-2,6.739279E-2,-2.3944022E-2,3.2940827E-2,-1.8197412E-2,1.5768409E-2],"split_indices":[2,2,5,4,3,3,6,0,0,0,0,0,0,0,0],"split_type":[0,0,0,0,0,0,0,0,0,0,0,0,0,0,0],"sum_hessian":[6E2,4.95E2,1.05E2,4.62E2,3.3E1,3.6E1,6.9E1,2.62E2,2E2,2E1,1.3E1,3.5E1,1E0,3.2E1,3.7E1],"tree_param":{"num_deleted":"0","num_feature":"10","num_nodes":"15","size_leaf_vector":"0"}},{"base_weights":[-1.4074535E-4,-1.1542021E-1,1.0200223E-3,-3.885333E-2,-1.4399031E-1,3.73775E-6,1.211441E-1,-9.345506E-2,3.5175066E-2,5.9203175E-3,-2.1925204E-2],"categories":[],"categories_nodes":[],"categories_segments":[],"categories_sizes":[],"default_left":[1,1,1,1,0,1,0,0,0,0,0],"id":22,"left_children":[1,3,5,7,-1,9,-1,-1,-1,-1,-1],"loss_changes":[8.053914E-2,7.5306445E-3,7.2759375E-2,1.5413523E-2,0E0,7.693845E-2,0E0,0E0,0E0,0E0,0E0],"parents":[2147483647,0,0,1,1,2,2,3,3,5,5],"right_children":[2,4,6,8,-1,10,-1,-1,-1,-1,-1],"split_conditions":[-1.7056327E0,-2.9141462E-1,3.9731512E0,-9.839715E-1,-4.3197095E-2,6.308415E-1,3.634323E-2,-2.803652E-2,1.055252E-2,1.7760954E-3,-6.577561E-3],"split_indices":[2,7,0,7,0,8,0,0,0,0,0],"split_type":[0,0,0,0,0,0,0,0,0,0,0],"sum_hessian":[6E2,5E0,5.95E2,2E0,3E0,5.91E2,4E0,1E0,1E0,4.66E2,1.25E2],"tree_param":{"num_deleted":"0","num_feature":"10","num_nodes":"11","size_leaf_vector":"0"}},{"base_weights":[-1.4700713E-4,1.5149927E-2,-7.7570565E-3,-8.330226E-3,1.0927879E-1,-9.8018125E-2,-4.7665686E-4,-1.3835761E-1,-4.1361675E-3,2.4533917E-1,6.1863225E-2,-4.6539564E-2,-1.4639404E-1,-8.828574E-3,3.8506176E-2],"categories":[],"categories_nodes":[],"categories_segments":[],"categories_sizes":[],"default_left":[1,1,1,1,1,1,1,0,0,0,0,0,0,0,0],"id":23,"left_children":[1,3,5,7,9,11,13,-1,-1,-1,-1,-1,-1,-1,-1],"loss_changes":[7.008018E-2,4.4294232E-1,2.6412222E-1,8.722785E-2,2.4287772E-1,6.7896575E-2,1.2178182E-1,0E0,0E0,0E0,0E0,0E0,0E0,0E0,0E0],"parents":[2147483647,0,0,1,1,2,2,3,3,4,4,5,5,6,6],"right_children":[2,4,6,8,10,12,14,-1,-1,-1,-1,-1,-1,-1,-1],"split_conditions":[-3.0456385E-1,-4.6579188E-1,-2.3441918E-1,-1.1830875E0,-4.7652003E-1,3.603396E-2,-4.503361E-2,-4.1507285E-2,-1.2408503E-3,7.360175E-2,1.8558968E-2,-1.3961869E-2,-4.3918215E-2,-2.6485722E-3,1.1551853E-2],"split_indices":[5,5,5,8,9,0,6,0,0,0,0,0,0,0,0],"split_type":[0,0,0,0,0,0,0,0,0,0,0,0,0,0,0],"sum_hessian":[6E2,1.99E2,4.01E2,1.6E2,3.9E1,2.9E1,3.72E2,4E0,1.56E2,9E0,3E1,1.5E1,1.4E1,3.07E2,6.5E1],"tree_param":{"num_deleted":"0","num_feature":"10","num_nodes":"15","size_leaf_vector":"0"}},{"base_weights":[-1.0216736E-4,-2.4095783E-2,4.6776407E-3,-7.363498E-2,-3.8078306E-3,9.439959E-4,4.7777638E-2,-2.2267098E-2,-1.5566723E-1,-1.573772E-2,2.7582553E-1,-3.8678967E-3,3.212846E-2,1.1164446E-1,9.09379E-3],"categories":[],"categories_nodes":[],"categories_segments":[],"categories_sizes":[],"default_left":[1,1,1,1,1,1,1,0,0,0,0,0,0,0,0],"id":24,"left_children":[1,3,5,7,9,11,13,-1,-1,-1,-1,-1,-1,-1,-1],"loss_changes":[6.9038324E-2,1.00224495E-1,8.073678E-2,1.1873463E-1,2.445325E-1,6.9600336E-2,9.780931E-2,0E0,0E0,0E0,0E0,0E0,0E0,0E0,0E0],"parents":[2147483647,0,0,1,1,2,2,3,3,4,4,5,5,6,6],"right_children":[2,4,6,8,10,12,14,-1,-1,-1,-1,-1,-1,-1,-1],"split_conditions":[-1.1571107E0,-5.2519524E-1,1.6583413E0,-1.4818296E-1,2.1808672E0,5.160321E-1,-2.9419154E-1,-6.6801296E-3,-4.6700172E-2,-4.721316E-3,8.274766E-2,-1.160369E-3,9.638539E-3,3.349334E-2,2.7281372E-3],"split_indices":[7,9,6,0,6,4,2,0,0,0,0,0,0,0,0],"split_type":[0,0,0,0,0,0,0,0,0,0,0,0,0,0,0],"sum_hessian":[6E2,9.9E1,5.01E2,2.8E1,7.1E1,4.62E2,3.9E1,1.8E1,1E1,6.9E1,2E0,4.01E2,6.1E1,1.4E1,2.5E1],"tree_param":{"num_deleted":"0","num_feature":"10","num_nodes":"15","size_leaf_vector":"0"}},{"base_weights":[4.3876364E-5,2.102527E-3,-4.9537126E-2,-7.12605E-4,7.680449E-2,-2.4281107E-2,-1.0740443E-1,-2.1516403E-2,7.3422464E-3,-7.4381954E-3,1.10997446E-1,-6.072654E-2,1.0947891E-2,2.4142563E-2,-1.333527E-1],"categories":[],"categories_nodes":[],"categories_segments":[],"categories_sizes":[],"default_left":[1,1,1,1,1,1,1,0,0,0,0,0,0,0,0],"id":25,"left_children":[1,3,5,7,9,11,13,-1,-1,-1,-1,-1,-1,-1,-1],"loss_changes":[6.14482E-2,1.2160576E-1,3.2468047E-2,9.366288E-2,6.131625E-2,2.3775678E-2,2.7113385E-2,0E0,0E0,0E0,0E0,0E0,0E0,0E0,0E0],"parents":[2147483647,0,0,1,1,2,2,3,3,4,4,5,5,6,6],"right_children":[2,4,6,8,10,12,14,-1,-1,-1,-1,-1,-1,-1,-1],"split_conditions":[2.0822148E0,1.4642429E0,8.979652E-1,-6.3815844E-1,-4.7652003E-1,4.0114224E-1,-8.1083226E-1,-6.4549213E-3,2.202674E-3,-2.2314587E-3,3.3299234E-2,-1.8217962E-2,3.2843673E-3,7.2427695E-3,-4.000581E-2],"split_indices":[4,4,2,0,9,7,7,0,0,0,0,0,0,0,0],"split_type":[0,0,0,0,0,0,0,0,0,0,0,0,0,0,0],"sum_hessian":[6E2,5.77E2,2.3E1,5.57E2,2E1,1.7E1,6E0,1.55E2,4.02E2,6E0,1.4E1,8E0,9E0,1E0,5E0],"tree_param":{"num_deleted":"0","num_feature":"10","num_nodes":"15","size_leaf_vector":"0"}},{"base_weights":[-4.027268E-6,-7.008944E-3,1.5541665E-2,-3.059906E-3,-7.741404E-2,4.0985804E-2,-1.41755715E-2,-9.227376E-3,3.432996E-2,-1.1599351E-1,-2.8289707E-2,2.2108836E-2,1.0776633E-1,-6.6252043E-3,-9.951902E-2],"categories":[],"categories_nodes":[],"categories_segments":[],"categories_sizes":[],"default_left":[1,1,1,1,1,1,1,0,0,0,0,0,0,0,0],"id":26,"left_children":[1,3,5,7,9,11,13,-1,-1,-1,-1,-1,-1,-1,-1],"loss_changes":[6.55556E-2,1.1514657E-1,1.419772E-1,9.117352E-2,3.841278E-2,1.249394E-1,5.5401225E-2,0E0,0E0,0E0,0E0,0E0,0E0,0E0,0E0],"parents":[2147483647,0,0,1,1,2,2,3,3,4,4,5,5,6,6],"right_children":[2,4,6,8,10,12,14,-1,-1,-1,-1,-1,-1,-1,-1],"split_conditions":[5.9161276E-1,5.324609E-1,8.910362E-1,1.2668383E0,-6.3227177E-1,-4.6128294E-1,6.9968656E-2,-2.768213E-3,1.0298988E-2,-3.4798052E-2,-8.486913E-3,6.632651E-3,3.2329902E-2,-1.9875614E-3,-2.9855708E-2],"split_indices":[5,5,5,7,0,6,0,0,0,0,0,0,0,0,0],"split_type":[0,0,0,0,0,0,0,0,0,0,0,0,0,0,0],"sum_hessian":[6E2,4.14E2,1.86E2,3.93E2,2.1E1,1E2,8.6E1,3.38E2,5.5E1,1.1E1,1E1,7.9E1,2.1E1,8E1,6E0],"tree_param":{"num_deleted":"0","num_feature":"10","num_nodes":"15","size_leaf_vector":"0"}},{"base_weights":[-5.04619E-5,-1.6839954E-3,5.6165274E-2,-2.066362E-2,3.1559607E-3,9.557149E-2,1.0518472E-2,2.4937484E-2,-3.4317613E-2,5.0228354E-2,-4.580193E-3,1.4409375E-1,4.7294736E-2,-2.2153378E-2,4.1086625E-2],"categories":[],"categories_nodes":[],"categories_segments":[],"categories_sizes":[],"default_left":[1,1,1,1,1,1,1,0,0,0,0,0,0,0,0],"id":27,"left_children":[1,3,5,7,9,11,13,-1,-1,-1,-1,-1,-1,-1,-1],"loss_changes":[5.5284582E-2,5.3803638E-2,2.957379E-2,7.494961E-2,1.7029242E-1,1.4267601E-2,9.898671E-3,0E0,0E0,0E0,0E0,0E0,0E0,0E0,0E0],"parents":[2147483647,0,0,1,1,2,2,3,3,4,4,5,5,6,6],"right_children":[2,4,6,8,10,12,14,-1,-1,-1,-1,-1,-1,-1,-1],"split_conditions":[2.8969367E0,-5.144744E-1,-1.4701769E0,-3.6057475E-1,-3.0456385E-1,-2.9141462E-1,4.0114224E-1,7.481246E-3,-1.0295284E-2,1.5068507E-2,-1.374058E-3,4.3228127E-2,1.4188421E-2,-6.6460134E-3,1.2325988E-2],"split_indices":[0,5,2,8,5,7,7,0,0,0,0,0,0,0,0],"split_type":[0,0,0,0,0,0,0,0,0,0,0,0,0,0,0],"sum_hessian":[6E2,5.84E2,1.6E1,1.18E2,4.66E2,8E0,8E0,2.7E1,9.1E1,6.5E1,4.01E2,3E0,5E0,4E0,4E0],"tree_param":{"num_deleted":"0","num_feature":"10","num_nodes":"15","size_leaf_vector":"0"}},{"base_weights":[8.7763816E-5,-5.690274E-4,1.3119783E-1,1.9067472E-3,-3.6167502E-2,-9.046439E-5,8.610386E-2,1.75502E-2,-6.370136E-2],"categories":[],"categories_nodes":[],"categories_segments":[],"categories_sizes":[],"default_left":[1,1,0,1,1,0,0,0,0],"id":28,"left_children":[1,3,-1,5,7,-1,-1,-1,-1],"loss_changes":[5.1827922E-2,5.286111E-2,0E0,9.4345234E-2,5.880114E-2,0E0,0E0,0E0,0E0],"parents":[2147483647,0,0,1,1,3,3,4,4],"right_children":[2,4,-1,6,8,-1,-1,-1,-1],"split_conditions":[1.9157286E0,1.1265166E0,3.935935E-2,9.739946E-1,-8.1083226E-1,-2.7139318E-5,2.5831157E-2,5.2650603E-3,-1.911041E-2],"split_indices":[3,3,0,3,7,0,0,0,0],"split_type":[0,0,0,0,0,0,0,0,0],"sum_hessian":[6E2,5.98E2,2E0,5.6E2,3.8E1,5.48E2,1.2E1,1.3E1,2.5E1],"tree_param":{"num_deleted":"0","num_feature":"10","num_nodes":"9","size_leaf_vector":"0"}},{"base_weights":[1.468245E-4,-5.348464E-3,1.3884192E-2,-1.8355692E-3,-9.6129894E-2,2.269565E-1,6.1457604E-3,-3.9359545E-3,8.362363E-2,-5.059474E-2,-1.353407E-1,-1.0462283E-2,4.521783E-2],"categories":[],"categories_nodes":[],"categories_segments":[],"categories_sizes":[],"default_left":[1,1,1,1,1,0,1,0,0,0,0,0,0],"id":29,"left_children":[1,3,5,7,9,-1,11,-1,-1,-1,-1,-1,-1],"loss_changes":[4.5444228E-2,1.3695297E-1,2.8220662E-1,7.4820496E-2,2.1720007E-2,0E0,1.0884116E-1,0E0,0E0,0E0,0E0,0E0,0E0],"parents":[2147483647,0,0,1,1,2,2,3,3,4,4,6,6],"right_children":[2,4,6,8,10,-1,12,-1,-1,-1,-1,-1,-1],"split_conditions":[4.697461E-1,4.3481585E-1,4.7880208E-1,2.7360435E0,-2.859994E-1,6.808695E-2,-4.6121323E-1,-1.1807864E-3,2.508709E-2,-1.5178422E-2,-4.0602215E-2,-3.1386851E-3,1.3565349E-2],"split_indices":[2,2,2,9,0,0,0,0,0,0,0,0,0],"split_type":[0,0,0,0,0,0,0,0,0,0,0,0,0],"sum_hessian":[6E2,4.29E2,1.71E2,4.14E2,1.5E1,5E0,1.66E2,4.05E2,9E0,8E0,7E0,1.17E2,4.9E1],"tree_param":{"num_deleted":"0","num_feature":"10","num_nodes":"13","size_leaf_vector":"0"}},{"base_weights":[1.803747E-4,-4.6346296E-2,1.7789194E-3,-9.4270825E-2,1.4347597E-3,-7.312609E-4,3.407008E-2,-1.1342766E-1,-3.717865E-2,1.5514575E-2,-2.708356E-2,-7.5641056E-3,1.6180338E-2,-1.02014855E-1,5.1079407E-2],"categories":[],"categories_nodes":[],"categories_segments":[],"categories_sizes":[],"default_left":[1,1,1,1,1,1,1,0,0,0,0,0,0,0,0],"id":30,"left_children":[1,3,5,7,9,11,13,-1,-1,-1,-1,-1,-1,-1,-1],"loss_changes":[4.4781797E-2,4.593295E-2,4.719987E-2,6.719969E-3,4.8370496E-3,6.263728E-2,1.0242884E-1,0E0,0E0,0E0,0E0,0E0,0E0,0E0,0E0],"parents":[2147483647,0,0,1,1,2,2,3,3,4,4,5,5,6,6],"right_children":[2,4,6,8,10,12,14,-1,-1,-1,-1,-1,-1,-1,-1],"split_conditions":[-1.600347E0,2.8321517E-1,1.7852826E0,1.510857E-1,-4.4840115E-1,4.697461E-1,-1.0344048E0,-3.40283E-2,-1.11535955E-2,4.6543726E-3,-8.125069E-3,-2.2692317E-3,4.8541017E-3,-3.0604457E-2,1.5323822E-2],"split_indices":[7,1,6,3,0,2,8,0,0,0,0,0,0,0,0],"split_type":[0,0,0,0,0,0,0,0,0,0,0,0,0,0,0],"sum_hessian":[6E2,1.9E1,5.81E2,9E0,1E1,5.4E2,4.1E1,6E0,3E0,7E0,3E0,3.85E2,1.55E2,4E0,3.7E1],"tree_param":{"num_deleted":"0","num_feature":"10","num_nodes":"15","size_leaf_vector":"0"}},{"base_weights":[2.4188384E-5,3.5531808E-2,-1.9692644E-3,8.036286E-2,1.97646E-2,-4.467094E-2,6.5364374E-4,1.1428064E-1,3.7156057E-2,-2.6609762E-2,3.5809647E-2,-2.897242E-2,-1.9199865E-1,-5.7087574E-2,2.0794654E-3],"categories":[],"categories_nodes":[],"categories_segments":[],"categories_sizes":[],"default_left":[1,1,1,1,1,1,1,0,0,0,0,0,0,0,0],"id":31,"left_children":[1,3,5,7,9,11,13,-1,-1,-1,-1,-1,-1,-1,-1],"loss_changes":[4.261041E-2,2.1031197E-2,6.387066E-2,7.4776113E-3,1.9554857E-2,7.0760615E-2,4.4411536E-2,0E0,0E0,0E0,0E0,0E0,0E0,0E0,0E0],"parents":[2147483647,0,0,1,1,2,2,3,3,4,4,5,5,6,6],"right_children":[2,4,6,8,10,12,14,-1,-1,-1,-1,-1,-1,-1,-1],"split_conditions":[-1.4327046E0,-2.252387E0,-1.1122748E0,-2.9141462E-1,-8.1083226E-1,-1.1449716E0,-1.5723802E0,3.4284193E-2,1.1146817E-2,-7.982929E-3,1.0742894E-2,-8.691726E-3,-5.7599597E-2,-1.7126273E-2,6.238397E-4],"split_indices":[4,5,4,7,7,4,2,0,0,0,0,0,0,0,0],"split_type":[0,0,0,0,0,0,0,0,0,0,0,0,0,0,0],"sum_hessian":[6E2,3.1E1,5.69E2,7E0,2.4E1,3.2E1,5.37E2,3E0,4E0,6E0,1.8E1,3E1,2E0,1.2E1,5.25E2],"tree_param":{"num_deleted":"0","num_feature":"10","num_nodes":"15","size_leaf_vector":"0"}},{"base_weights":[-4.063376E-5,3.819445E-3,-1.8102504E-2,-2.0663363E-3,5.41147E-2,-5.4824505E-2,-4.8579667E-3,-7.3724607E-4,-1.1887884E-1,2.4757E-2,1.3203153E-1,-2.548981E-2,-1.13921106E-1,-3.6190476E-2,7.110536E-3],"categories":[],"categories_nodes":[],"categories_segments":[],"categories_sizes":[],"default_left":[1,1,1,1,1,1,1,0,0,0,0,0,0,0,0],"id":32,"left_children":[1,3,5,7,9,11,13,-1,-1,-1,-1,-1,-1,-1,-1],"loss_changes":[4.197101E-2,1.4694116E-1,5.128846E-2,6.900056E-2,1.15679145E-1,4.563643E-2,2.988259E-2,0E0,0E0,0E0,0E0,0E0,0E0,0E0,0E0],"parents":[2147483647,0,0,1,1,2,2,3,3,4,4,5,5,6,6],"right_children":[2,4,6,8,10,12,14,-1,-1,-1,-1,-1,-1,-1,-1],"split_conditions":[7.643893E-1,4.9562037E-1,2.8847918E-2,4.8915178E-1,7.5230575E-1,-2.8504255E-1,1.2101534E-1,-2.2117383E-4,-3.5663653E-2,7.4271E-3,3.9609462E-2,-7.6469434E-3,-3.4176335E-2,-1.0857143E-2,2.1331608E-3],"split_indices":[2,2,4,2,3,4,5,0,0,0,0,0,0,0,0],"split_type":[0,0,0,0,0,0,0,0,0,0,0,0,0,0,0],"sum_hessian":[6E2,4.95E2,1.05E2,4.44E2,5.1E1,2.7E1,7.8E1,4.4E2,4E0,3.8E1,1.3E1,1.9E1,8E0,2.1E1,5.7E1],"tree_param":{"num_deleted":"0","num_feature":"10","num_nodes":"15","size_leaf_vector":"0"}},{"base_weights":[-9.398786E-5,-6.339174E-4,1.0774327E-1,1.4720607E-3,-3.1763542E-2,-2.2893294E-3,1.9754322E-2,-6.498113E-2,-1.5823742E-2],"categories":[],"categories_nodes":[],"categories_segments":[],"categories_sizes":[],"default_left":[1,1,0,1,1,0,0,0,0],"id":33,"left_children":[1,3,-1,5,7,-1,-1,-1,-1],"loss_changes":[3.506124E-2,3.931619E-2,0E0,3.869212E-2,1.9092057E-2,0E0,0E0,0E0,0E0],"parents":[2147483647,0,0,1,1,3,3,4,4],"right_children":[2,4,-1,6,8,-1,-1,-1,-1],"split_conditions":[1.9157286E0,1.137949E0,3.2322984E-2,9.205599E-1,-7.5354314E-1,-6.867988E-4,5.926297E-3,-1.949434E-2,-4.747123E-3],"split_indices":[3,2,0,7,6,0,0,0,0],"split_type":[0,0,0,0,0,0,0,0,0],"sum_hessian":[6E2,5.98E2,2E0,5.61E2,3.7E1,4.66E2,9.5E1,1.1E1,2.6E1],"tree_param":{"num_deleted":"0","num_feature":"10","num_nodes":"9","size_leaf_vector":"0"}},{"base_weights":[-4.3621174E-5,-2.154055E-3,2.672151E-2,1.2509984E-1,-3.067319E-3,-2.2131965E-2,7.658098E-2,-1.0520305E-1,-2.1349308E-3,1.3555032E-2,-1.05638675E-1,-1.4140879E-2,1.1148548E-1],"categories":[],"categories_nodes":[],"categories_segments":[],"categories_sizes":[],"default_left":[1,1,1,0,1,1,1,0,0,0,0,0,0],"id":34,"left_children":[1,3,5,-1,7,9,11,-1,-1,-1,-1,-1,-1],"loss_changes":[3.400567E-2,6.523248E-2,1.08870454E-1,0E0,5.2628133E-2,6.997432E-2,7.124174E-2,0E0,0E0,0E0,0E0,0E0,0E0],"parents":[2147483647,0,0,1,1,2,2,4,4,5,5,6,6],"right_children":[2,4,6,-1,8,10,12,-1,-1,-1,-1,-1,-1],"split_conditions":[1.8203032E0,-9.201627E-1,-4.7652003E-1,3.7529953E-2,-8.9543885E-1,8.5425264E-1,-7.86363E-1,-3.1560916E-2,-6.4047927E-4,4.0665097E-3,-3.1691603E-2,-4.2422637E-3,3.3445645E-2],"split_indices":[8,0,9,0,0,1,0,0,0,0,0,0,0],"split_type":[0,0,0,0,0,0,0,0,0,0,0,0,0],"sum_hessian":[6E2,5.57E2,4.3E1,3E0,5.54E2,2.2E1,2.1E1,4E0,5.5E2,1.6E1,6E0,6E0,1.5E1],"tree_param":{"num_deleted":"0","num_feature":"10","num_nodes":"13","size_leaf_vector":"0"}},{"base_weights":[-1.9053787E-5,2.6845029E-2,-1.5271794E-3,6.163457E-2,1.4638574E-2,5.650873E-3,-1.0607622E-2,8.972895E-2,2.6832152E-2,4.5258645E-3,6.659883E-2,2.711947E-3,1.89673E-1,-1.527321E-1,-7.699436E-3],"categories":[],"categories_nodes":[],"categories_segments":[],"categories_sizes":[],"default_left":[1,1,1,1,1,1,1,0,0,0,0,0,0,0,0],"id":35,"left_children":[1,3,5,7,9,11,13,-1,-1,-1,-1,-1,-1,-1,-1],"loss_changes":[2.4390157E-2,1.2686782E-2,3.7212476E-2,5.4143984E-3,1.2835057E-2,1.7200956E-1,1.02981806E-1,0E0,0E0,0E0,0E0,0E0,0E0,0E0,0E0],"parents":[2147483647,0,0,1,1,2,2,3,3,4,4,5,5,6,6],"right_children":[2,4,6,8,10,12,14,-1,-1,-1,-1,-1,-1,-1,-1],"split_conditions":[-1.4327046E0,-2.252387E0,-3.4625077E-1,-2.9141462E-1,1.0936991E0,-3.5144487E-1,-3.3794025E-1,2.6918687E-2,8.049646E-3,1.3577593E-3,1.997965E-2,8.1358413E-4,5.6901906E-2,-4.5819633E-2,-2.3098309E-3],"split_indices":[4,5,0,7,7,0,0,0,0,0,0,0,0,0,0],"split_type":[0,0,0,0,0,0,0,0,0,0,0,0,0,0,0],"sum_hessian":[6E2,3.1E1,5.69E2,7E0,2.4E1,3.18E2,2.51E2,3E0,4E0,2.1E1,3E0,3.14E2,4E0,4E0,2.47E2],"tree_param":{"num_deleted":"0","num_feature":"10","num_nodes":"15","size_leaf_vector":"0"}},{"base_weights":[9.6287935E-5,-3.5045862E-2,1.3663204E-3,-6.8864554E-2,1.95882E-3,-1.1749364E-2,4.987395E-3,-7.596332E-2,1.0615289E-3,1.1244841E-2,-1.7102927E-2,-1.5535109E-1,-4.5315158E-3,-1.1349416E-3,3.9342165E-2],"categories":[],"categories_nodes":[],"categories_segments":[],"categories_sizes":[],"default_left":[1,1,1,1,1,1,1,0,0,0,0,0,0,0,0],"id":36,"left_children":[1,3,5,7,9,11,13,-1,-1,-1,-1,-1,-1,-1,-1],"loss_changes":[2.6871517E-2,2.6415342E-2,2.7651958E-2,5.5409186E-3,2.139405E-3,1.2989445E-1,9.595579E-2,0E0,0E0,0E0,0E0,0E0,0E0,0E0,0E0],"parents":[2147483647,0,0,1,1,2,2,3,3,4,4,5,5,6,6],"right_children":[2,4,6,8,10,12,14,-1,-1,-1,-1,-1,-1,-1,-1],"split_conditions":[-1.427208E0,3.5945722E-1,-7.3892367E-1,9.887738E-1,-4.4840115E-1,-2.7523348E-1,5.978943E-1,-2.2788996E-2,3.1845868E-4,3.3734525E-3,-5.130878E-3,-4.6605326E-2,-1.3594548E-3,-3.4048248E-4,1.180265E-2],"split_indices":[7,1,0,3,0,4,5,0,0,0,0,0,0,0,0],"split_type":[0,0,0,0,0,0,0,0,0,0,0,0,0,0,0],"sum_hessian":[6E2,2E1,5.8E2,1E1,1E1,1.25E2,4.55E2,9E0,1E0,7E0,3E0,5E0,1.2E2,3.87E2,6.8E1],"tree_param":{"num_deleted":"0","num_feature":"10","num_nodes":"15","size_leaf_vector":"0"}},{"base_weights":[-3.365592E-5,-4.7123394E-4,8.734731E-2,-4.807614E-3,7.2961035E-3,-1.8055968E-2,1.2597764E-3,-1.6645193E-2,2.9877545E-2],"categories":[],"categories_nodes":[],"categories_segments":[],"categories_sizes":[],"default_left":[1,1,0,1,1,0,0,0,0],"id":37,"left_children":[1,3,-1,5,7,-1,-1,-1,-1],"loss_changes":[2.3020994E-2,2.021067E-2,0E0,3.0970175E-2,1.1673254E-1,0E0,0E0,0E0,0E0],"parents":[2147483647,0,0,1,1,3,3,4,4],"right_children":[2,4,-1,6,8,-1,-1,-1,-1],"split_conditions":[1.9157286E0,3.1457266E-1,2.6204193E-2,-5.2519524E-1,1.0194578E-1,-5.4167905E-3,3.7793294E-4,-4.993558E-3,8.963264E-3],"split_indices":[3,7,0,9,1,0,0,0,0],"split_type":[0,0,0,0,0,0,0,0,0],"sum_hessian":[6E2,5.98E2,2E0,3.84E2,2.14E2,1.2E2,2.64E2,1.04E2,1.1E2],"tree_param":{"num_deleted":"0","num_feature":"10","num_nodes":"9","size_leaf_vector":"0"}},{"base_weights":[1.8261473E-5,2.1551682E-3,-2.1667724E-2,-3.7708035E-4,3.9281473E-2,-1.698594E-3,-8.451663E-2,3.913864E-3,-2.148222E-2,-6.4562105E-2,6.299263E-2,-7.0862494E-2,7.446619E-3,-1.4025052E-2,-9.605827E-2],"categories":[],"categories_nodes":[],"categories_segments":[],"categories_sizes":[],"default_left":[1,1,1,1,1,1,1,0,0,0,0,0,0,0,0],"id":38,"left_children":[1,3,5,7,9,11,13,-1,-1,-1,-1,-1,-1,-1,-1],"loss_changes":[2.7897596E-2,5.1533956E-2,6.762849E-2,4.663242E-2,9.024574E-2,2.7093468E-2,9.229429E-3,0E0,0E0,0E0,0E0,0E0,0E0,0E0,0E0],"parents":[2147483647,0,0,1,1,2,2,3,3,4,4,5,5,6,6],"right_children":[2,4,6,8,10,12,14,-1,-1,-1,-1,-1,-1,-1,-1],"split_conditions":[1.0600283E0,8.5269666E-1,3.819747E-1,5.162202E-1,-4.7652003E-1,-1.5529745E0,-1.6765285E0,1.1741592E-3,-6.444666E-3,-1.9368632E-2,1.889779E-2,-2.1258749E-2,2.2339858E-3,-4.2075156E-3,-2.8817482E-2],"split_indices":[1,1,4,1,9,2,7,0,0,0,0,0,0,0,0],"split_type":[0,0,0,0,0,0,0,0,0,0,0,0,0,0,0],"sum_hessian":[6E2,5.47E2,5.3E1,5.13E2,3.4E1,4.1E1,1.2E1,4.27E2,8.6E1,6E0,2.8E1,4E0,3.7E1,2E0,1E1],"tree_param":{"num_deleted":"0","num_feature":"10","num_nodes":"15","size_leaf_vector":"0"}},{"base_weights":[-8.337853E-5,-3.2498713E-3,1.1083302E-2,-2.1506744E-3,-1.7327489E-1,-3.307816E-2,2.2644036E-2,-8.202385E-3,6.9545736E-3,2.1306523E-3,-1.0764462E-1,9.577211E-3,9.0489335E-2],"categories":[],"categories_nodes":[],"categories_segments":[],"categories_sizes":[],"default_left":[1,1,1,1,0,1,1,0,0,0,0,0,0],"id":39,"left_children":[1,3,5,7,-1,9,11,-1,-1,-1,-1,-1,-1],"loss_changes":[2.1286905E-2,8.727921E-2,6.865069E-2,2.5789835E-2,0E0,7.374045E-2,9.310475E-2,0E0,0E0,0E0,0E0,0E0,0E0],"parents":[2147483647,0,0,1,1,2,2,3,3,5,5,6,6],"right_children":[2,4,6,8,-1,10,12,-1,-1,-1,-1,-1,-1],"split_conditions":[6.575717E-1,5.867207E-1,-1.1571107E0,5.9161276E-1,-5.198247E-2,3.61107E-2,-1.7579082E-1,-2.4607156E-3,2.086372E-3,6.391957E-4,-3.2293387E-2,2.8731634E-3,2.7146801E-2],"split_indices":[6,6,7,5,0,8,5,0,0,0,0,0,0],"split_type":[0,0,0,0,0,0,0,0,0,0,0,0,0],"sum_hessian":[6E2,4.68E2,1.32E2,4.66E2,2E0,2.7E1,1.05E2,2.8E2,1.86E2,1.9E1,8E0,8.9E1,1.6E1],"tree_param":{"num_deleted":"0","num_feature":"10","num_nodes":"13","size_leaf_vector":"0"}},{"base_weights":[-1.4820855E-4,9.386467E-3,-4.8914594E-3,-2.8138335E-3,5.8258016E-2,-5.1426463E-2,-1.1355841E-3,-1.04055226E-1,4.2833705E-4,7.8869015E-2,-3.404461E-2,-6.727512E-4,-9.019855E-2,-5.041671E-3,1.9325197E-2],"categories":[],"categories_nodes":[],"categories_segments":[],"categories_sizes":[],"default_left":[1,1,1,1,1,1,1,0,0,0,0,0,0,0,0],"id":40,"left_children":[1,3,5,7,9,11,13,-1,-1,-1,-1,-1,-1,-1,-1],"loss_changes":[2.7226355E-2,1.1941346E-1,7.020303E-2,5.289151E-2,7.878302E-2,5.8974132E-2,2.9908182E-2,0E0,0E0,0E0,0E0,0E0,0E0,0E0,0E0],"parents":[2147483647,0,0,1,1,2,2,3,3,4,4,5,5,6,6],"right_children":[2,4,6,8,10,12,14,-1,-1,-1,-1,-1,-1,-1,-1],"split_conditions":[-3.0456385E-1,-4.6579188E-1,-2.3441918E-1,-1.2066481E0,5.623156E-1,-4.6455383E-1,9.205599E-1,-3.121657E-2,1.2850112E-4,2.3660706E-2,-1.0213383E-2,-2.0182537E-4,-2.7059564E-2,-1.5125014E-3,5.7975594E-3],"split_indices":[5,5,5,9,1,7,7,0,0,0,0,0,0,0,0],"split_type":[0,0,0,0,0,0,0,0,0,0,0,0,0,0,0],"sum_hessian":[6E2,1.99E2,4.01E2,1.6E2,3.9E1,2.9E1,3.72E2,4E0,1.56E2,3.2E1,7E0,1.3E1,1.6E1,3.13E2,5.9E1],"tree_param":{"num_deleted":"0","num_feature":"10","num_nodes":"15","size_leaf_vector":"0"}},{"base_weights":[-1.7132096E-4,4.662941E-3,-6.660228E-3,-2.7818235E-3,3.394997E-2,-1.01570085E-1,-2.806362E-3,1.1957726E-2,-1.4884863E-2,1.7781787E-1,2.014755E-2,8.093365E-2,-5.5744685E-3],"categories":[],"categories_nodes":[],"categories_segments":[],"categories_sizes":[],"default_left":[1,1,1,1,1,0,1,0,0,0,0,0,0],"id":41,"left_children":[1,3,5,7,9,-1,11,-1,-1,-1,-1,-1,-1],"loss_changes":[1.8883873E-2,7.531653E-2,9.371782E-2,4.9414553E-2,1.3541816E-1,0E0,5.7937883E-2,0E0,0E0,0E0,0E0,0E0,0E0],"parents":[2147483647,0,0,1,1,2,2,3,3,4,4,6,6],"right_children":[2,4,6,8,10,-1,12,-1,-1,-1,-1,-1,-1],"split_conditions":[3.1861326E-1,1.0194578E-1,3.6101317E-1,-1.18275404E-1,1.3112003E-1,-3.0471027E-2,-4.0821046E-1,3.5873181E-3,-4.465459E-3,5.3345364E-2,6.0442653E-3,2.4280097E-2,-1.6723407E-3],"split_indices":[1,1,1,7,1,0,5,0,0,0,0,0,0],"split_type":[0,0,0,0,0,0,0,0,0,0,0,0,0],"sum_hessian":[6E2,3.44E2,2.56E2,2.75E2,6.9E1,9E0,2.47E2,1.24E2,1.51E2,5E0,6.4E1,7E0,2.4E2],"tree_param":{"num_deleted":"0","num_feature":"10","num_nodes":"13","size_leaf_vector":"0"}},{"base_weights":[-3.5657926E-5,-3.028384E-3,1.138487E-2,-2.1007445E-4,-8.4217794E-2,6.766025E-3,1.01864286E-1,-2.0291137E-3,9.1573685E-2,-1.0142593E-1,2.4159431E-2,-7.873069E-2,1.0392901E-2,1.8851267E-1,1.1411935E-2],"categories":[],"categories_nodes":[],"categories_segments":[],"categories_sizes":[],"default_left":[1,1,1,1,1,1,1,0,0,0,0,0,0,0,0],"id":42,"left_children":[1,3,5,7,9,11,13,-1,-1,-1,-1,-1,-1,-1,-1],"loss_changes":[2.0575762E-2,1.0912797E-1,5.1549584E-2,7.732053E-2,3.2289907E-2,3.8028553E-2,4.4874E-2,0E0,0E0,0E0,0E0,0E0,0E0,0E0,0E0],"parents":[2147483647,0,0,1,1,2,2,3,3,4,4,5,5,6,6],"right_children":[2,4,6,8,10,12,14,-1,-1,-1,-1,-1,-1,-1,-1],"split_conditions":[4.872269E-1,3.8784674E-1,-3.7150872E-1,3.4490895E-1,5.643394E-2,-1.2066481E0,-6.714487E-2,-6.0873415E-4,2.7472107E-2,-3.042778E-2,7.24783E-3,-2.3619207E-2,3.1178703E-3,5.6553803E-2,3.4235807E-3],"split_indices":[0,0,3,0,1,9,2,0,0,0,0,0,0,0,0],"split_type":[0,0,0,0,0,0,0,0,0,0,0,0,0,0,0],"sum_hessian":[6E2,4.76E2,1.24E2,4.61E2,1.5E1,1.19E2,5E0,4.53E2,8E0,1.3E1,2E0,4E0,1.15E2,2E0,3E0],"tree_param":{"num_deleted":"0","num_feature":"10","num_nodes":"15","size_leaf_vector":"0"}},{"base_weights":[4.685185E-5,1.2292769E-3,-2.8431835E-2,-5.8202195E-4,4.9299538E-2,-5.5675227E-3,-5.9885122E-2,-7.234772E-2,1.9768185E-4,-5.502981E-2,5.7267494E-2,-4.030943E-2,2.2072574E-2,2.2270143E-2,-8.3207704E-2],"categories":[],"categories_nodes":[],"categories_segments":[],"categories_sizes":[],"default_left":[1,1,1,1,1,1,1,0,0,0,0,0,0,0,0],"id":43,"left_children":[1,3,5,7,9,11,13,-1,-1,-1,-1,-1,-1,-1,-1],"loss_changes":[2.0272972E-2,5.0354924E-2,1.6926372E-2,3.1237742E-2,2.0608552E-2,1.5293778E-2,2.1013778E-2,0E0,0E0,0E0,0E0,0E0,0E0,0E0,0E0],"parents":[2147483647,0,0,1,1,2,2,3,3,4,4,5,5,6,6],"right_children":[2,4,6,8,10,12,14,-1,-1,-1,-1,-1,-1,-1,-1],"split_conditions":[2.0822148E0,1.4642429E0,-5.586201E-1,-1.1830875E0,-9.1459686E-1,4.0114224E-1,-8.1083226E-1,-2.1704318E-2,5.9304555E-5,-1.6508944E-2,1.718025E-2,-1.209283E-2,6.6217724E-3,6.681043E-3,-2.4962312E-2],"split_indices":[4,4,8,8,9,7,7,0,0,0,0,0,0,0,0],"split_type":[0,0,0,0,0,0,0,0,0,0,0,0,0,0,0],"sum_hessian":[6E2,5.77E2,2.3E1,5.57E2,2E1,1.4E1,9E0,5E0,5.52E2,1E0,1.9E1,6E0,8E0,2E0,7E0],"tree_param":{"num_deleted":"0","num_feature":"10","num_nodes":"15","size_leaf_vector":"0"}},{"base_weights":[-4.1617655E-5,3.6227923E-2,-7.792327E-4,8.65602E-2,-1.208944E-2,-6.738529E-2,-2.0959188E-4,1.8475017E-2,-2.8010225E-2,-1.0974974E-3,2.9573686E-2],"categories":[],"categories_nodes":[],"categories_segments":[],"categories_sizes":[],"default_left":[1,1,1,0,1,0,1,0,0,0,0],"id":44,"left_children":[1,3,5,-1,7,-1,9,-1,-1,-1,-1],"loss_changes":[1.6106758E-2,3.0229533E-2,2.237138E-2,0E0,3.9237607E-3,0E0,1.5529072E-2,0E0,0E0,0E0,0E0],"parents":[2147483647,0,0,1,1,2,2,4,4,6,6],"right_children":[2,4,6,-1,8,-1,10,-1,-1,-1,-1],"split_conditions":[-9.201627E-1,-4.7652003E-1,-8.9543885E-1,2.596806E-2,-2.9141462E-1,-2.021559E-2,2.8969367E0,5.542505E-3,-8.4030675E-3,-3.2924925E-4,8.872107E-3],"split_indices":[0,9,0,0,7,0,0,0,0,0,0],"split_type":[0,0,0,0,0,0,0,0,0,0,0],"sum_hessian":[6E2,1.1E1,5.89E2,5E0,6E0,4E0,5.85E2,2E0,4E0,5.69E2,1.6E1],"tree_param":{"num_deleted":"0","num_feature":"10","num_nodes":"11","size_leaf_vector":"0"}},{"base_weights":[-1.0098113E-5,-3.6426913E-4,7.0709415E-2,1.9802148E-3,-1.1413367E-2,-2.2008212E-3,3.764175E-2,-3.7621822E-2,-1.3944254E-3],"categories":[],"categories_nodes":[],"categories_segments":[],"categories_sizes":[],"default_left":[1,1,0,1,1,0,0,0,0],"id":45,"left_children":[1,3,-1,5,7,-1,-1,-1,-1],"loss_changes":[1.50788855E-2,1.5539356E-2,0E0,7.388841E-2,2.751854E-2,0E0,0E0,0E0,0E0],"parents":[2147483647,0,0,1,1,3,3,4,4],"right_children":[2,4,-1,6,8,-1,-1,-1,-1],"split_conditions":[1.9157286E0,7.643893E-1,2.1212826E-2,4.9562037E-1,1.6321816E-2,-6.6024635E-4,1.1292525E-2,-1.1286547E-2,-4.1832763E-4],"split_indices":[3,2,0,2,5,0,0,0,0],"split_type":[0,0,0,0,0,0,0,0,0],"sum_hessian":[6E2,5.98E2,2E0,4.94E2,1.04E2,4.43E2,5.1E1,2.8E1,7.6E1],"tree_param":{"num_deleted":"0","num_feature":"10","num_nodes":"9","size_leaf_vector":"0"}},{"base_weights":[2.6441954E-5,-2.775553E-2,9.811035E-4,-5.504693E-2,5.0405622E-3,-9.577582E-3,3.890104E-3,-5.444964E-3,-6.546459E-2,-9.3976855E-3,2.1358347E-2,-1.0900455E-1,-4.568165E-3,1.0909333E-4,2.7977042E-2],"categories":[],"categories_nodes":[],"categories_segments":[],"categories_sizes":[],"default_left":[1,1,1,1,1,1,1,0,0,0,0,0,0,0,0],"id":46,"left_children":[1,3,5,7,9,11,13,-1,-1,-1,-1,-1,-1,-1,-1],"loss_changes":[1.5967181E-2,1.8178495E-2,1.7913515E-2,5.3276457E-3,2.5567212E-3,6.2259004E-2,4.1617293E-2,0E0,0E0,0E0,0E0,0E0,0E0,0E0,0E0],"parents":[2147483647,0,0,1,1,2,2,3,3,4,4,5,5,6,6],"right_children":[2,4,6,8,10,12,14,-1,-1,-1,-1,-1,-1,-1,-1],"split_conditions":[-1.600347E0,3.5945722E-1,-7.3892367E-1,-6.132268E-1,8.04664E-1,-2.7523348E-1,6.0208213E-1,-1.6334893E-3,-1.9639378E-2,-2.8193058E-3,6.4075044E-3,-3.2701366E-2,-1.3704496E-3,3.2728E-5,8.393113E-3],"split_indices":[7,1,0,0,5,4,5,0,0,0,0,0,0,0,0],"split_type":[0,0,0,0,0,0,0,0,0,0,0,0,0,0,0],"sum_hessian":[6E2,1.9E1,5.81E2,1E1,9E0,1.25E2,4.56E2,2E0,8E0,5E0,4E0,5E0,1.2E2,3.95E2,6.1E1],"tree_param":{"num_deleted":"0","num_feature":"10","num_nodes":"15","size_leaf_vector":"0"}},{"base_weights":[-5.359111E-5,1.7687699E-3,-1.346745E-2,-1.1095523E-3,3.137173E-2,-7.53343E-3,-6.749285E-2,-5.9821767E-5,-1.2706226E-1,7.922611E-3,1.0739407E-1,1.9774925E-2,-1.3354645E-2,-8.6681835E-2,-1.3013601E-2],"categories":[],"categories_nodes":[],"categories_segments":[],"categories_sizes":[],"default_left":[1,1,1,1,1,1,1,0,0,0,0,0,0,0,0],"id":47,"left_children":[1,3,5,7,9,11,13,-1,-1,-1,-1,-1,-1,-1,-1],"loss_changes":[1.4715201E-2,4.5194447E-2,2.2573873E-2,6.398514E-2,8.293404E-2,1.0755962E-2,6.1897635E-3,0E0,0E0,0E0,0E0,0E0,0E0,0E0,0E0],"parents":[2147483647,0,0,1,1,2,2,3,3,4,4,5,5,6,6],"right_children":[2,4,6,8,10,12,14,-1,-1,-1,-1,-1,-1,-1,-1],"split_conditions":[9.334371E-1,7.476061E-1,6.9968656E-2,7.072991E-1,-5.6755936E-1,-3.7659395E-1,2.8250914E0,-1.7946531E-5,-3.811868E-2,2.3767834E-3,3.221822E-2,5.932478E-3,-4.0063937E-3,-2.6004551E-2,-3.9040805E-3],"split_indices":[5,5,0,5,6,4,7,0,0,0,0,0,0,0,0],"split_type":[0,0,0,0,0,0,0,0,0,0,0,0,0,0,0],"sum_hessian":[6E2,5.29E2,7.1E1,4.83E2,4.6E1,6.5E1,6E0,4.8E2,3E0,3.6E1,1E1,1.1E1,5.4E1,4E0,2E0],"tree_param":{"num_deleted":"0","num_feature":"10","num_nodes":"15","size_leaf_vector":"0"}},{"base_weights":[-8.996746E-5,-8.794743E-3,2.307725E-3,-5.3117394E-2,-2.5516374E-3,-1.3828177E-3,1.6226465E-2,-7.858352E-2,1.8624807E-2,-1.2054156E-2,4.055745E-2,-5.975938E-4,-1.4713569E-1,6.6884095E-3,6.52871E-2],"categories":[],"categories_nodes":[],"categories_segments":[],"categories_sizes":[],"default_left":[1,1,1,1,1,1,1,0,0,0,0,0,0,0,0],"id":48,"left_children":[1,3,5,7,9,11,13,-1,-1,-1,-1,-1,-1,-1,-1],"loss_changes":[1.2563991E-2,3.583689E-2,2.4267994E-2,3.0695554E-2,4.759805E-2,4.271587E-2,4.588969E-2,0E0,0E0,0E0,0E0,0E0,0E0,0E0,0E0],"parents":[2147483647,0,0,1,1,2,2,3,3,4,4,5,5,6,6],"right_children":[2,4,6,8,10,12,14,-1,-1,-1,-1,-1,-1,-1,-1],"split_conditions":[-9.59732E-1,-1.3479209E0,6.575717E-1,2.5863304E0,3.4490895E-1,5.867207E-1,-1.7579082E-1,-2.3575058E-2,5.5874423E-3,-3.6162469E-3,1.2167236E-2,-1.7927814E-4,-4.4140708E-2,2.0065228E-3,1.9586131E-2],"split_indices":[7,2,6,0,0,6,5,0,0,0,0,0,0,0,0],"split_type":[0,0,0,0,0,0,0,0,0,0,0,0,0,0,0],"sum_hessian":[6E2,1.29E2,4.71E2,1.5E1,1.14E2,3.73E2,9.8E1,1.1E1,4E0,9.4E1,2E1,3.72E2,1E0,8.3E1,1.5E1],"tree_param":{"num_deleted":"0","num_feature":"10","num_nodes":"15","size_leaf_vector":"0"}},{"base_weights":[-1.16485666E-4,4.605812E-3,-5.4390877E-3,2.5738555E-3,1.316979E-1,1.8455475E-3,-3.6365513E-2,5.743385E-3,-3.79151E-2,-2.4856776E-2,1.7705077E-1,-5.1101996E-3,5.0232284E-2,-8.441136E-2,-3.232964E-3],"categories":[],"categories_nodes":[],"categories_segments":[],"categories_sizes":[],"default_left":[1,1,1,1,1,1,1,0,0,0,0,0,0,0,0],"id":49,"left_children":[1,3,5,7,9,11,13,-1,-1,-1,-1,-1,-1,-1,-1],"loss_changes":[1.5131133E-2,8.204136E-2,6.382354E-2,4.0642E-2,3.9901935E-2,7.766685E-2,8.56887E-2,0E0,0E0,0E0,0E0,0E0,0E0,0E0,0E0],"parents":[2147483647,0,0,1,1,2,2,3,3,4,4,5,5,6,6],"right_children":[2,4,6,8,10,12,14,-1,-1,-1,-1,-1,-1,-1,-1],"split_conditions":[-3.4625077E-1,-3.5144487E-1,1.645732E-1,2.796999E-1,-1.6765285E0,-1.265859E-1,-4.6455383E-1,1.7230156E-3,-1.137453E-2,-7.4570333E-3,5.3115234E-2,-1.53306E-3,1.5069686E-2,-2.532341E-2,-9.698893E-4],"split_indices":[0,0,1,6,7,1,7,0,0,0,0,0,0,0,0],"split_type":[0,0,0,0,0,0,0,0,0,0,0,0,0,0,0],"sum_hessian":[6E2,3.18E2,2.82E2,3.14E2,4E0,2.29E2,5.3E1,2.92E2,2.2E1,1E0,3E0,2.01E2,2.8E1,2.1E1,3.2E1],"tree_param":{"num_deleted":"0","num_feature":"10","num_nodes":"15","size_leaf_vector":"0"}},{"base_weights":[-4.2856584E-5,-1.444886E-3,1.77384E-2,7.937891E-2,-2.0247966E-3,-1.2565004E-2,4.861294E-2,-3.8738965E-4,-2.4291953E-2,-1.1353179E-1,2.457156E-3,-1.1423798E-2,7.18407E-2],"categories":[],"categories_nodes":[],"categories_segments":[],"categories_sizes":[],"default_left":[1,1,1,0,1,1,1,0,0,0,0,0,0],"id":50,"left_children":[1,3,5,-1,7,9,11,-1,-1,-1,-1,-1,-1],"loss_changes":[1.5008467E-2,2.63145E-2,4.177738E-2,0E0,2.0226108E-2,3.516397E-2,3.1500116E-2,0E0,0E0,0E0,0E0,0E0,0E0],"parents":[2147483647,0,0,1,1,2,2,4,4,5,5,6,6],"right_children":[2,4,6,-1,8,10,12,-1,-1,-1,-1,-1,-1],"split_conditions":[1.8203032E0,-9.201627E-1,-4.7652003E-1,2.3813674E-2,1.0600283E0,-1.5393906E0,-2.9141462E-1,-1.162169E-4,-7.287586E-3,-3.405954E-2,7.371469E-4,-3.4271397E-3,2.1552213E-2],"split_indices":[8,0,9,0,1,2,7,0,0,0,0,0,0],"split_type":[0,0,0,0,0,0,0,0,0,0,0,0,0],"sum_hessian":[6E2,5.57E2,4.3E1,3E0,5.54E2,2.2E1,2.1E1,5.17E2,3.7E1,2E0,2E1,6E0,1.5E1],"tree_param":{"num_deleted":"0","num_feature":"10","num_nodes":"13","size_leaf_vector":"0"}},{"base_weights":[-2.7981087E-5,6.7773727E-3,-3.516082E-3,3.4289095E-3,1.3936041E-1,-7.5358085E-2,-2.0371764E-3,-1.9828748E-2,1.1522663E-2,-1.8110394E-2,-8.094913E-2,8.318781E-3,-1.0730506E-2],"categories":[],"categories_nodes":[],"categories_segments":[],"categories_sizes":[],"default_left":[1,1,1,1,0,1,1,0,0,0,0,0,0],"id":51,"left_children":[1,3,5,7,-1,9,11,-1,-1,-1,-1,-1,-1],"loss_changes":[1.4290224E-2,9.008782E-2,4.2133003E-2,3.787683E-2,0E0,1.0945722E-3,3.5290115E-2,0E0,0E0,0E0,0E0,0E0,0E0],"parents":[2147483647,0,0,1,1,2,2,3,3,5,5,6,6],"right_children":[2,4,6,8,-1,10,12,-1,-1,-1,-1,-1,-1],"split_conditions":[-2.9419154E-1,1.820708E0,-2.5990814E-1,-5.911764E-1,4.1808125E-2,-1.33025E0,-4.7899568E-1,-5.9486246E-3,3.456799E-3,-5.4331184E-3,-2.4284739E-2,2.4956344E-3,-3.2191519E-3],"split_indices":[2,6,2,6,0,7,6,0,0,0,0,0,0],"split_type":[0,0,0,0,0,0,0,0,0,0,0,0,0],"sum_hessian":[6E2,2.03E2,3.97E2,1.99E2,4E0,7E0,3.9E2,5.1E1,1.48E2,1E0,6E0,1.78E2,2.12E2],"tree_param":{"num_deleted":"0","num_feature":"10","num_nodes":"13","size_leaf_vector":"0"}},{"base_weights":[-4.83044E-6,-7.438138E-3,2.5281338E-3,2.852183E-3,-2.6907654E-2,6.474266E-2,1.539353E-3,9.985095E-3,-5.0882336E-2,-1.0472682E-2,-7.6671205E-2,-4.2896185E-2,1.1637744E-1,-9.228009E-3,4.9535027E-3],"categories":[],"categories_nodes":[],"categories_segments":[],"categories_sizes":[],"default_left":[1,1,1,1,1,1,1,0,0,0,0,0,0,0,0],"id":52,"left_children":[1,3,5,7,9,11,13,-1,-1,-1,-1,-1,-1,-1,-1],"loss_changes":[1.1334615E-2,3.0729922E-2,2.752126E-2,3.9219704E-2,4.2543765E-2,4.3897502E-2,1.6331002E-2,0E0,0E0,0E0,0E0,0E0,0E0,0E0,0E0],"parents":[2147483647,0,0,1,1,2,2,3,3,4,4,5,5,6,6],"right_children":[2,4,6,8,10,12,14,-1,-1,-1,-1,-1,-1,-1,-1],"split_conditions":[-3.3722407E-1,-2.7196378E-1,-3.267213E-1,6.916849E-1,-4.523651E-1,-5.984671E-1,-7.370393E-1,2.9955285E-3,-1.5264701E-2,-3.1418048E-3,-2.3001362E-2,-1.2868856E-2,3.4913234E-2,-2.7684027E-3,1.4860509E-3],"split_indices":[1,4,1,9,1,8,8,0,0,0,0,0,0,0,0],"split_type":[0,0,0,0,0,0,0,0,0,0,0,0,0,0,0],"sum_hessian":[6E2,1.52E2,4.48E2,1E2,5.2E1,6E0,4.42E2,8.9E1,1.1E1,4E1,1.2E1,2E0,4E0,1.06E2,3.36E2],"tree_param":{"num_deleted":"0","num_feature":"10","num_nodes":"15","size_leaf_vector":"0"}},{"base_weights":[-3.2754095E-5,-1.1088044E-3,1.3614264E-2,-8.3074665E-5,-3.5850205E-2,3.801602E-2,-8.304534E-3,-8.9584297E-4,7.2808996E-2,-1.3601275E-2,-5.6398977E-2,-4.8411965E-2,4.4758018E-2,3.7884396E-2,-1.4225544E-2],"categories":[],"categories_nodes":[],"categories_segments":[],"categories_sizes":[],"default_left":[1,1,1,1,1,1,1,0,0,0,0,0,0,0,0],"id":53,"left_children":[1,3,5,7,9,11,13,-1,-1,-1,-1,-1,-1,-1,-1],"loss_changes":[8.840707E-3,1.9881513E-2,2.384942E-2,3.2234915E-2,6.547911E-3,1.4403464E-2,7.10257E-3,0E0,0E0,0E0,0E0,0E0,0E0,0E0,0E0],"parents":[2147483647,0,0,1,1,2,2,3,3,4,4,5,5,6,6],"right_children":[2,4,6,8,10,12,14,-1,-1,-1,-1,-1,-1,-1,-1],"split_conditions":[1.4642429E0,1.0653404E0,2.0822148E0,8.103044E-1,-3.644147E-1,-9.1459686E-1,-8.1083226E-1,-2.687529E-4,2.18427E-2,-4.0803826E-3,-1.6919693E-2,-1.452359E-2,1.3427406E-2,1.1365319E-2,-4.2676637E-3],"split_indices":[4,4,4,4,3,9,7,0,0,0,0,0,0,0,0],"split_type":[0,0,0,0,0,0,0,0,0,0,0,0,0,0,0],"sum_hessian":[6E2,5.57E2,4.3E1,5.42E2,1.5E1,2E1,2.3E1,5.37E2,5E0,8E0,7E0,1E0,1.9E1,2E0,2.1E1],"tree_param":{"num_deleted":"0","num_feature":"10","num_nodes":"15","size_leaf_vector":"0"}},{"base_weights":[-1.1996752E-5,-2.0454687E-3,7.518298E-3,2.4995094E-4,-3.0843731E-2,-7.4746134E-3,2.4108456E-2,-1.04671E-2,5.773345E-3,7.873793E-3,-6.7847714E-2,2.7716788E-2,-1.7111585E-2,-1.5582247E-2,3.979764E-2],"categories":[],"categories_nodes":[],"categories_segments":[],"categories_sizes":[],"default_left":[1,1,1,1,1,1,1,0,0,0,0,0,0,0,0],"id":54,"left_children":[1,3,5,7,9,11,13,-1,-1,-1,-1,-1,-1,-1,-1],"loss_changes":[9.2182765E-3,3.1341054E-2,3.201825E-2,2.6106006E-2,5.067881E-2,2.3535695E-2,3.8605746E-2,0E0,0E0,0E0,0E0,0E0,0E0,0E0,0E0],"parents":[2147483647,0,0,1,1,2,2,3,3,4,4,5,5,6,6],"right_children":[2,4,6,8,10,12,14,-1,-1,-1,-1,-1,-1,-1,-1],"split_conditions":[7.682674E-1,7.316148E-1,2.2175977E-1,-3.304944E-1,-8.1579614E-1,-8.62774E-1,-4.6455383E-1,-3.14013E-3,1.7320035E-3,2.3621381E-3,-2.0354316E-2,8.315037E-3,-5.1334756E-3,-4.674674E-3,1.1939293E-2],"split_indices":[3,3,4,9,0,7,7,0,0,0,0,0,0,0,0],"split_type":[0,0,0,0,0,0,0,0,0,0,0,0,0,0,0],"sum_hessian":[6E2,4.73E2,1.27E2,4.39E2,3.4E1,6.7E1,6E1,1.49E2,2.9E2,1.7E1,1.7E1,1.4E1,5.3E1,1.7E1,4.3E1],"tree_param":{"num_deleted":"0","num_feature":"10","num_nodes":"15","size_leaf_vector":"0"}},{"base_weights":[-2.3294882E-5,-3.0858553E-4,5.6947503E-2,-1.4112124E-3,1.3631621E-2,8.448004E-4,-1.3582646E-2,-7.5646397E-3,3.517173E-2],"categories":[],"categories_nodes":[],"categories_segments":[],"categories_sizes":[],"default_left":[1,1,0,1,1,0,0,0,0],"id":55,"left_children":[1,3,-1,5,7,-1,-1,-1,-1],"loss_changes":[9.785768E-3,9.226374E-3,0E0,1.5278628E-2,2.0355131E-2,0E0,0E0,0E0,0E0],"parents":[2147483647,0,0,1,1,3,3,4,4],"right_children":[2,4,-1,6,8,-1,-1,-1,-1],"split_conditions":[1.9157286E0,1.8203032E0,1.7084252E-2,6.308415E-1,-4.7652003E-1,2.534401E-4,-4.074794E-3,-2.269392E-3,1.0551519E-2],"split_indices":[3,8,0,8,9,0,0,0,0],"split_type":[0,0,0,0,0,0,0,0,0],"sum_hessian":[6E2,5.98E2,2E0,5.55E2,4.3E1,4.69E2,8.6E1,2.2E1,2.1E1],"tree_param":{"num_deleted":"0","num_feature":"10","num_nodes":"9","size_leaf_vector":"0"}},{"base_weights":[1.9544546E-5,-5.8227046E-3,3.6316353E-3,5.4610195E-4,-2.1998078E-2,4.7513165E-2,1.1351418E-3,6.0480656E-3,-1.94901E-2,-5.4301925E-2,9.3017827E-4,7.84309E-3,7.330629E-2,-2.625464E-3,2.3976922E-2],"categories":[],"categories_nodes":[],"categories_segments":[],"categories_sizes":[],"default_left":[1,1,1,1,1,1,1,0,0,0,0,0,0,0,0],"id":56,"left_children":[1,3,5,7,9,11,13,-1,-1,-1,-1,-1,-1,-1,-1],"loss_changes":[1.2703889E-2,2.370611E-2,4.069865E-2,1.8417463E-2,4.819412E-2,1.9889362E-2,3.038527E-2,0E0,0E0,0E0,0E0,0E0,0E0,0E0,0E0],"parents":[2147483647,0,0,1,1,2,2,3,3,4,4,5,5,6,6],"right_children":[2,4,6,8,10,12,14,-1,-1,-1,-1,-1,-1,-1,-1],"split_conditions":[-5.203254E-1,-7.0630914E-1,-4.7899568E-1,7.440133E-1,9.2297625E-3,6.998872E-2,6.2474847E-1,1.8144198E-3,-5.8470303E-3,-1.6290579E-2,2.790535E-4,2.352927E-3,2.1991888E-2,-7.8763923E-4,7.193077E-3],"split_indices":[6,6,6,2,4,2,1,0,0,0,0,0,0,0,0],"split_type":[0,0,0,0,0,0,0,0,0,0,0,0,0,0,0],"sum_hessian":[6E2,2.29E2,3.71E2,1.65E2,6.4E1,1.9E1,3.52E2,1.3E2,3.5E1,2.6E1,3.8E1,8E0,1.1E1,3.03E2,4.9E1],"tree_param":{"num_deleted":"0","num_feature":"10","num_nodes":"15","size_leaf_vector":"0"}},{"base_weights":[3.1493273E-5,-2.0877104E-2,7.8717154E-4,-4.017384E-2,9.315636E-3,2.6215052E-3,-1.040739E-2,-5.726075E-2,1.2586892E-2,1.6519317E-2,-3.818795E-3,4.180203E-4,3.9751038E-2,-2.111478E-2,2.5462925E-3],"categories":[],"categories_nodes":[],"categories_segments":[],"categories_sizes":[],"default_left":[1,1,1,1,1,1,1,0,0,0,0,0,0,0,0],"id":57,"left_children":[1,3,5,7,9,11,13,-1,-1,-1,-1,-1,-1,-1,-1],"loss_changes":[9.512338E-3,1.2609295E-2,1.1957863E-2,1.2440465E-2,9.1463025E-4,4.0890567E-2,1.1427175E-2,0E0,0E0,0E0,0E0,0E0,0E0,0E0,0E0],"parents":[2147483647,0,0,1,1,2,2,3,3,4,4,5,5,6,6],"right_children":[2,4,6,8,10,12,14,-1,-1,-1,-1,-1,-1,-1,-1],"split_conditions":[-1.427208E0,6.045132E-1,8.910362E-1,9.7374415E-1,2.0868099E-1,7.476061E-1,1.3558755E0,-1.7178226E-2,3.7760676E-3,4.9557956E-3,-1.1456385E-3,1.2540609E-4,1.1925312E-2,-6.3344343E-3,7.638878E-4],"split_indices":[7,3,5,5,4,5,5,0,0,0,0,0,0,0,0],"split_type":[0,0,0,0,0,0,0,0,0,0,0,0,0,0,0],"sum_hessian":[6E2,2E1,5.8E2,1.2E1,8E0,4.99E2,8.1E1,9E0,3E0,5E0,3E0,4.72E2,2.7E1,4.4E1,3.7E1],"tree_param":{"num_deleted":"0","num_feature":"10","num_nodes":"15","size_leaf_vector":"0"}},{"base_weights":[1.6864165E-5,-1.164738E-2,1.2604474E-3,-4.7598854E-3,-4.8617084E-2,7.3321573E-3,-1.8888521E-3,1.6817985E-2,-9.270384E-3,-5.5455346E-2,-1.6455451E-2,4.789326E-3,1.2183365E-1,-4.628428E-2,-8.74499E-4],"categories":[],"categories_nodes":[],"categories_segments":[],"categories_sizes":[],"default_left":[1,1,1,1,1,1,1,0,0,0,0,0,0,0,0],"id":58,"left_children":[1,3,5,7,9,11,13,-1,-1,-1,-1,-1,-1,-1,-1],"loss_changes":[8.73246E-3,1.4537049E-2,1.0416018E-2,5.0222576E-3,1.0668244E-3,5.357188E-2,1.6126242E-2,0E0,0E0,0E0,0E0,0E0,0E0,0E0,0E0],"parents":[2147483647,0,0,1,1,2,2,3,3,4,4,5,5,6,6],"right_children":[2,4,6,8,10,12,14,-1,-1,-1,-1,-1,-1,-1,-1],"split_conditions":[-9.3096566E-1,6.916849E-1,-2.9419154E-1,-8.62774E-1,2.7360435E0,1.8856547E0,-2.5990814E-1,5.045396E-3,-2.7811152E-3,-1.6636604E-2,-4.9366355E-3,1.4367978E-3,3.6550097E-2,-1.3885285E-2,-2.623497E-4],"split_indices":[6,9,2,7,9,6,2,0,0,0,0,0,0,0,0],"split_type":[0,0,0,0,0,0,0,0,0,0,0,0,0,0,0],"sum_hessian":[6E2,5.7E1,5.43E2,4.9E1,8E0,1.85E2,3.58E2,8E0,4.1E1,6E0,2E0,1.82E2,3E0,7E0,3.51E2],"tree_param":{"num_deleted":"0","num_feature":"10","num_nodes":"15","size_leaf_vector":"0"}},{"base_weights":[1.9340381E-5,3.4121748E-3,-3.8051596E-3,1.7788906E-3,1.05626635E-1,1.1839336E-3,-2.4984535E-2,-3.0159203E-3,1.6386405E-2,-1.194787E-2,1.3800722E-1,-3.3502004E-3,3.2725696E-2,-4.6953082E-2,1.4709647E-2],"categories":[],"categories_nodes":[],"categories_segments":[],"categories_sizes":[],"default_left":[1,1,1,1,1,1,1,0,0,0,0,0,0,0,0],"id":59,"left_children":[1,3,5,7,9,11,13,-1,-1,-1,-1,-1,-1,-1,-1],"loss_changes":[7.8114965E-3,5.306764E-2,2.9933024E-2,2.2112105E-2,2.0684555E-2,3.300299E-2,4.7779933E-2,0E0,0E0,0E0,0E0,0E0,0E0,0E0,0E0],"parents":[2147483647,0,0,1,1,2,2,3,3,4,4,5,5,6,6],"right_children":[2,4,6,8,10,12,14,-1,-1,-1,-1,-1,-1,-1,-1],"split_conditions":[-3.4625077E-1,-3.5144487E-1,1.645732E-1,-5.2839005E-1,-1.6765285E0,-1.265859E-1,2.2800304E-1,-9.047761E-4,4.9159215E-3,-3.5843612E-3,4.140217E-2,-1.0050602E-3,9.817709E-3,-1.4085925E-2,4.412894E-3],"split_indices":[0,0,1,0,7,1,7,0,0,0,0,0,0,0,0],"split_type":[0,0,0,0,0,0,0,0,0,0,0,0,0,0,0],"sum_hessian":[6E2,3.18E2,2.82E2,3.14E2,4E0,2.29E2,5.3E1,2.37E2,7.7E1,1E0,3E0,2.01E2,2.8E1,3.4E1,1.9E1],"tree_param":{"num_deleted":"0","num_feature":"10","num_nodes":"15","size_leaf_vector":"0"}},{"base_weights":[8.172093E-5,-9.997204E-4,1.3794506E-2,9.514474E-4,-1.1573875E-2,-3.123789E-2,1.9078692E-2,-1.350811E-3,2.3376843E-2,8.113817E-3,-2.0098364E-2,-8.896498E-2,3.690183E-2,3.283953E-2,-1.2027621E-2],"categories":[],"categories_nodes":[],"categories_segments":[],"categories_sizes":[],"default_left":[1,1,1,1,1,1,1,0,0,0,0,0,0,0,0],"id":60,"left_children":[1,3,5,7,9,11,13,-1,-1,-1,-1,-1,-1,-1,-1],"loss_changes":[8.926364E-3,1.152364E-2,1.1066199E-2,2.440049E-2,1.4764069E-2,2.2950508E-2,1.7516937E-2,0E0,0E0,0E0,0E0,0E0,0E0,0E0,0E0],"parents":[2147483647,0,0,1,1,2,2,3,3,4,4,5,5,6,6],"right_children":[2,4,6,8,10,12,14,-1,-1,-1,-1,-1,-1,-1,-1],"split_conditions":[1.8203032E0,6.308415E-1,-8.9740187E-1,8.525443E-1,-1.719749E-1,7.591224E-1,8.0414057E-1,-4.052433E-4,7.013053E-3,2.4341452E-3,-6.0295095E-3,-2.6689494E-2,1.10705495E-2,9.851859E-3,-3.6082866E-3],"split_indices":[8,8,7,0,6,5,5,0,0,0,0,0,0,0,0],"split_type":[0,0,0,0,0,0,0,0,0,0,0,0,0,0,0],"sum_hessian":[6E2,5.57E2,4.3E1,4.71E2,8.6E1,4E0,3.9E1,4.28E2,4.3E1,2.6E1,6E1,2E0,2E0,2.7E1,1.2E1],"tree_param":{"num_deleted":"0","num_feature":"10","num_nodes":"15","size_leaf_vector":"0"}},{"base_weights":[4.6614827E-5,-5.3345074E-4,2.0004952E-2,4.9703E-4,-2.2707902E-2,3.5549145E-2,8.294561E-3,-1.4873011E-3,1.1759278E-2,-1.3686407E-1,-7.4922196E-3,4.4366956E-2,-8.6788535E-3,-3.775847E-2,3.0284256E-2],"categories":[],"categories_nodes":[],"categories_segments":[],"categories_sizes":[],"default_left":[1,1,1,1,1,1,1,0,0,0,0,0,0,0,0],"id":61,"left_children":[1,3,5,7,9,11,13,-1,-1,-1,-1,-1,-1,-1,-1],"loss_changes":[6.968536E-3,1.33787375E-2,2.7996218E-3,1.2532386E-2,4.413565E-2,3.1150132E-3,1.22831E-2,0E0,0E0,0E0,0E0,0E0,0E0,0E0,0E0],"parents":[2147483647,0,0,1,1,2,2,3,3,4,4,5,5,6,6],"right_children":[2,4,6,8,10,12,14,-1,-1,-1,-1,-1,-1,-1,-1],"split_conditions":[2.8969367E0,2.0492618E0,-2.9141462E-1,4.872269E-1,2.1728811E0,-2.004912E0,4.0114224E-1,-4.4619033E-4,3.5277836E-3,-4.1059222E-2,-2.247666E-3,1.3310087E-2,-2.6036561E-3,-1.1327541E-2,9.085277E-3],"split_indices":[0,0,7,0,0,3,7,0,0,0,0,0,0,0,0],"split_type":[0,0,0,0,0,0,0,0,0,0,0,0,0,0,0],"sum_hessian":[6E2,5.84E2,1.6E1,5.59E2,2.5E1,6E0,1E1,4.76E2,8.3E1,2E0,2.3E1,5E0,1E0,3E0,7E0],"tree_param":{"num_deleted":"0","num_feature":"10","num_nodes":"15","size_leaf_vector":"0"}},{"base_weights":[-2.0210227E-5,3.3917457E-3,-3.8661244E-3,2.1303173E-3,8.218338E-2,2.5238118E-3,-1.6339477E-2,1.0652145E-2,-3.097997E-3,-9.729952E-3,1.0759421E-1,6.7167875E-4,8.755401E-2,-5.841206E-3,-6.846576E-2],"categories":[],"categories_nodes":[],"categories_segments":[],"categories_sizes":[],"default_left":[1,1,1,1,1,1,1,0,0,0,0,0,0,0,0],"id":62,"left_children":[1,3,5,7,9,11,13,-1,-1,-1,-1,-1,-1,-1,-1],"loss_changes":[7.899488E-3,3.153033E-2,2.2597449E-2,1.4067762E-2,1.2724858E-2,2.9548792E-2,5.2134722E-2,0E0,0E0,0E0,0E0,0E0,0E0,0E0,0E0],"parents":[2147483647,0,0,1,1,2,2,3,3,4,4,5,5,6,6],"right_children":[2,4,6,8,10,12,14,-1,-1,-1,-1,-1,-1,-1,-1],"split_conditions":[-3.4625077E-1,-3.5144487E-1,-1.0193978E-1,5.684518E-1,-1.6765285E0,1.941745E0,3.2055822E-1,3.1956437E-3,-9.2939916E-4,-2.9189857E-3,3.2278262E-2,2.0150363E-4,2.6266204E-2,-1.7523618E-3,-2.0539729E-2],"split_indices":[0,0,4,3,7,6,1,0,0,0,0,0,0,0,0],"split_type":[0,0,0,0,0,0,0,0,0,0,0,0,0,0,0],"sum_hessian":[6E2,3.18E2,2.82E2,3.14E2,4E0,1.87E2,9.5E1,1.19E2,1.95E2,1E0,3E0,1.84E2,3E0,8E1,1.5E1],"tree_param":{"num_deleted":"0","num_feature":"10","num_nodes":"15","size_leaf_vector":"0"}},{"base_weights":[4.5428475E-5,-6.0191946E-3,2.0938225E-3,1.300151E-3,-2.0119863E-2,-3.340218E-4,2.1094682E-2,5.20308E-3,-3.4736812E-2,-9.3362145E-3,-5.5287335E-2,-1.2126694E-2,3.9590052E-3,7.0267975E-2,2.4230822E-3],"categories":[],"categories_nodes":[],"categories_segments":[],"categories_sizes":[],"default_left":[1,1,1,1,1,1,1,0,0,0,0,0,0,0,0],"id":63,"left_children":[1,3,5,7,9,11,13,-1,-1,-1,-1,-1,-1,-1,-1],"loss_changes":[7.478668E-3,1.5713725E-2,2.0766055E-2,1.4386359E-2,1.9203968E-2,2.0298515E-2,4.665508E-2,0E0,0E0,0E0,0E0,0E0,0E0,0E0,0E0],"parents":[2147483647,0,0,1,1,2,2,3,3,4,4,5,5,6,6],"right_children":[2,4,6,8,10,12,14,-1,-1,-1,-1,-1,-1,-1,-1],"split_conditions":[-3.4383687E-1,-2.7196378E-1,1.4157381E0,1.2255723E0,-4.523651E-1,-4.3967396E-1,-3.0110168E-1,1.560924E-3,-1.0421044E-2,-2.8008644E-3,-1.6586201E-2,-3.6380084E-3,1.1877016E-3,2.1080393E-2,7.269247E-4],"split_indices":[1,4,7,8,1,8,8,0,0,0,0,0,0,0,0],"split_type":[0,0,0,0,0,0,0,0,0,0,0,0,0,0,0],"sum_hessian":[6E2,1.51E2,4.49E2,1E2,5.1E1,3.99E2,5E1,9.1E1,9E0,4E1,1.1E1,1.06E2,2.93E2,1.3E1,3.7E1],"tree_param":{"num_deleted":"0","num_feature":"10","num_nodes":"15","size_leaf_vector":"0"}},{"base_weights":[1.7014318E-5,2.1942934E-2,-4.289654E-4,5.5008054E-2,-9.533303E-3,-6.1724255E-5,-4.3383837E-2,2.4067005E-2,-2.7786827E-2,-1.779833E-2,5.640145E-4,1.4723301E-2,-6.1591446E-2],"categories":[],"categories_nodes":[],"categories_segments":[],"categories_sizes":[],"default_left":[1,1,1,0,1,1,1,0,0,0,0,0,0],"id":64,"left_children":[1,3,5,-1,7,9,11,-1,-1,-1,-1,-1,-1],"loss_changes":[5.8863005E-3,1.3013594E-2,9.304452E-3,0E0,4.962014E-3,6.513749E-3,6.1967894E-3,0E0,0E0,0E0,0E0,0E0,0E0],"parents":[2147483647,0,0,1,1,2,2,4,4,5,5,6,6],"right_children":[2,4,6,-1,8,10,12,-1,-1,-1,-1,-1,-1],"split_conditions":[-9.201627E-1,-4.7652003E-1,1.6446805E0,1.6502418E-2,-2.9141462E-1,-1.427208E0,-1.33025E0,7.220102E-3,-8.336049E-3,-5.3394996E-3,1.6920434E-4,4.4169906E-3,-1.8477434E-2],"split_indices":[0,9,1,0,7,7,7,0,0,0,0,0,0],"split_type":[0,0,0,0,0,0,0,0,0,0,0,0,0],"sum_hessian":[6E2,1.1E1,5.89E2,5E0,6E0,5.85E2,4E0,2E0,4E0,1.9E1,5.66E2,1E0,3E0],"tree_param":{"num_deleted":"0","num_feature":"10","num_nodes":"13","size_leaf_vector":"0"}},{"base_weights":[5.5103055E-6,-8.2242405E-3,1.0016523E-3,-6.1586555E-3,-7.021083E-2,1.1073649E-2,-6.32044E-4,1.49051435E-2,-1.0811617E-2,-9.3480037E-4,2.48243E-2,-6.500758E-2,7.059156E-5],"categories":[],"categories_nodes":[],"categories_segments":[],"categories_sizes":[],"default_left":[1,1,1,1,0,1,1,0,0,0,0,0,0],"id":65,"left_children":[1,3,5,7,-1,9,11,-1,-1,-1,-1,-1,-1],"loss_changes":[4.9352366E-3,7.8901015E-3,8.843112E-3,6.4337263E-3,0E0,1.2407505E-2,2.0947255E-2,0E0,0E0,0E0,0E0,0E0,0E0],"parents":[2147483647,0,0,1,1,2,2,3,3,5,5,6,6],"right_children":[2,4,6,8,-1,10,12,-1,-1,-1,-1,-1,-1],"split_conditions":[-9.18862E-1,4.2697552E-1,-7.97825E-1,-8.62774E-1,-2.106325E-2,1.7598408E-1,-1.2553234E0,4.4715432E-3,-3.2434852E-3,-2.8044012E-4,7.4472907E-3,-1.9502275E-2,2.1177468E-5],"split_indices":[6,0,6,7,0,4,9,0,0,0,0,0,0],"split_type":[0,0,0,0,0,0,0,0,0,0,0,0,0],"sum_hessian":[6E2,6.4E1,5.36E2,6.3E1,1E0,7.4E1,4.62E2,1.1E1,5.2E1,4E1,3.4E1,4E0,4.58E2],"tree_param":{"num_deleted":"0","num_feature":"10","num_nodes":"13","size_leaf_vector":"0"}},{"base_weights":[-4.96387E-5,-5.938028E-3,1.6042273E-3,2.3539154E-2,-1.3045212E-2,-1.0528125E-2,4.1954154E-3,5.814365E-2,-2.8934581E-2,-2.6792223E-2,5.7669585E-3,-1.9282463E-3,-5.6686837E-2,5.0154873E-3,-5.962517E-2],"categories":[],"categories_nodes":[],"categories_segments":[],"categories_sizes":[],"default_left":[1,1,1,1,1,1,1,0,0,0,0,0,0,0,0],"id":66,"left_children":[1,3,5,7,9,11,13,-1,-1,-1,-1,-1,-1,-1,-1],"loss_changes":[5.862429E-3,2.7961042E-2,1.4819657E-2,4.889387E-2,2.7825896E-2,3.2838322E-2,2.0605983E-2,0E0,0E0,0E0,0E0,0E0,0E0,0E0,0E0],"parents":[2147483647,0,0,1,1,2,2,3,3,4,4,5,5,6,6],"right_children":[2,4,6,8,10,12,14,-1,-1,-1,-1,-1,-1,-1,-1],"split_conditions":[-7.313057E-1,-6.86172E-1,-1.1571107E0,-6.8859637E-1,7.6294684E-1,1.4664533E0,2.5979042E0,1.7443096E-2,-8.680374E-3,-8.037667E-3,1.7300876E-3,-5.784739E-4,-1.7006053E-2,1.5046463E-3,-1.7887551E-2],"split_indices":[0,7,7,6,3,6,2,0,0,0,0,0,0,0,0],"split_type":[0,0,0,0,0,0,0,0,0,0,0,0,0,0,0],"sum_hessian":[6E2,1.31E2,4.69E2,2.5E1,1.06E2,8.2E1,3.87E2,1.5E1,1E1,6.1E1,4.5E1,7E1,1.2E1,3.83E2,4E0],"tree_param":{"num_deleted":"0","num_feature":"10","num_nodes":"15","size_leaf_vector":"0"}},{"base_weights":[-8.718595E-5,1.662857E-2,-5.7279394E-4,2.79939E-2,-3.6067453E-3,-1.842792E-2,5.28016E-4,6.469173E-3,5.252974E-2,2.5921792E-2,-3.2233596E-2,-9.847647E-3,-1.038082E-1,-1.3981998E-3,1.1276435E-2],"categories":[],"categories_nodes":[],"categories_segments":[],"categories_sizes":[],"default_left":[1,1,1,1,1,1,1,0,0,0,0,0,0,0,0],"id":67,"left_children":[1,3,5,7,9,11,13,-1,-1,-1,-1,-1,-1,-1,-1],"loss_changes":[4.8880246E-3,4.0106447E-3,1.1507964E-2,5.4695755E-3,6.7527154E-3,2.3885667E-2,1.144425E-2,0E0,0E0,0E0,0E0,0E0,0E0,0E0,0E0],"parents":[2147483647,0,0,1,1,2,2,3,3,4,4,5,5,6,6],"right_children":[2,4,6,8,10,12,14,-1,-1,-1,-1,-1,-1,-1,-1],"split_conditions":[-2.252387E0,3.9963368E-1,-1.7776017E0,4.0114224E-1,-2.9141462E-1,-1.8404179E0,4.872269E-1,1.9407519E-3,1.5758922E-2,7.776538E-3,-9.670079E-3,-2.9542942E-3,-3.1142462E-2,-4.1945998E-4,3.3829308E-3],"split_indices":[5,9,5,7,7,5,0,0,0,0,0,0,0,0,0],"split_type":[0,0,0,0,0,0,0,0,0,0,0,0,0,0,0],"sum_hessian":[6E2,1.6E1,5.84E2,1E1,6E0,3.3E1,5.51E2,6E0,4E0,3E0,3E0,3.1E1,2E0,4.68E2,8.3E1],"tree_param":{"num_deleted":"0","num_feature":"10","num_nodes":"15","size_leaf_vector":"0"}},{"base_weights":[-8.653864E-5,2.291938E-3,-4.4936375E-3,8.1157376E-4,2.0078601E-2,-1.5420134E-2,3.1471539E-3,1.9307921E-3,-3.1993195E-2,1.0854331E-2,1.4379123E-1,-5.4464824E-2,-7.824921E-3,-5.2899193E-2,5.437109E-3],"categories":[],"categories_nodes":[],"categories_segments":[],"categories_sizes":[],"default_left":[1,1,1,1,1,1,1,0,0,0,0,0,0,0,0],"id":68,"left_children":[1,3,5,7,9,11,13,-1,-1,-1,-1,-1,-1,-1,-1],"loss_changes":[6.31009E-3,1.0279024E-2,1.7664304E-2,1.3352856E-2,3.2674007E-2,2.5373908E-2,1.6330572E-2,0E0,0E0,0E0,0E0,0E0,0E0,0E0,0E0],"parents":[2147483647,0,0,1,1,2,2,3,3,4,4,5,5,6,6],"right_children":[2,4,6,8,10,12,14,-1,-1,-1,-1,-1,-1,-1,-1],"split_conditions":[5.4040127E-2,6.811886E-1,4.872269E-1,4.0368906E-1,1.2668383E0,-1.1571107E0,-1.2066481E0,5.7923765E-4,-9.597959E-3,3.2562993E-3,4.313737E-2,-1.6339447E-2,-2.3474763E-3,-1.5869759E-2,1.6311328E-3],"split_indices":[0,6,0,6,7,7,9,0,0,0,0,0,0,0,0],"split_type":[0,0,0,0,0,0,0,0,0,0,0,0,0,0,0],"sum_hessian":[6E2,3.9E2,2.1E2,3.61E2,2.9E1,8.6E1,1.24E2,3.5E2,1.1E1,2.8E1,1E0,1.3E1,7.3E1,4E0,1.2E2],"tree_param":{"num_deleted":"0","num_feature":"10","num_nodes":"15","size_leaf_vector":"0"}},{"base_weights":[-5.3169915E-5,-5.2075847E-3,1.687995E-3,1.194161E-2,-9.176287E-3,-1.2545049E-4,1.5878E-2,-1.6763356E-2,6.0437314E-2,4.5420416E-3,-1.7048018E-2,-6.568635E-3,4.8139305E-3,7.6336907E-3,9.01989E-2],"categories":[],"categories_nodes":[],"categories_segments":[],"categories_sizes":[],"default_left":[1,1,1,1,1,1,1,0,0,0,0,0,0,0,0],"id":69,"left_children":[1,3,5,7,9,11,13,-1,-1,-1,-1,-1,-1,-1,-1],"loss_changes":[5.4025766E-3,1.0454707E-2,1.1581751E-2,4.1383088E-2,1.346782E-2,1.2761758E-2,3.0560397E-2,0E0,0E0,0E0,0E0,0E0,0E0,0E0,0E0],"parents":[2147483647,0,0,1,1,2,2,3,3,4,4,5,5,6,6],"right_children":[2,4,6,8,10,12,14,-1,-1,-1,-1,-1,-1,-1,-1],"split_conditions":[-3.4383687E-1,-3.8020086E-1,1.4157381E0,2.2800304E-1,-2.9141462E-1,-3.304944E-1,1.3070387E0,-5.029007E-3,1.8131195E-2,1.3626125E-3,-5.1144054E-3,-1.9705906E-3,1.4441792E-3,2.2901073E-3,2.705967E-2],"split_indices":[1,8,7,7,7,9,6,0,0,0,0,0,0,0,0],"split_type":[0,0,0,0,0,0,0,0,0,0,0,0,0,0,0],"sum_hessian":[6E2,1.51E2,4.49E2,2.8E1,1.23E2,3.99E2,5E1,1.8E1,1E1,4.5E1,7.8E1,1.73E2,2.26E2,4.6E1,4E0],"tree_param":{"num_deleted":"0","num_feature":"10","num_nodes":"15","size_leaf_vector":"0"}},{"base_weights":[2.6298294E-5,-3.4596971E-3,2.1815472E-3,-6.085293E-3,2.0435242E-2,2.163342E-2,-3.5970146E-4,-3.1315654E-3,-2.7581314E-2,-3.3920348E-2,2.722722E-2,5.3527392E-3,5.1667176E-2,-2.4183417E-2,1.3376494E-3],"categories":[],"categories_nodes":[],"categories_segments":[],"categories_sizes":[],"default_left":[1,1,1,1,1,1,1,0,0,0,0,0,0,0,0],"id":70,"left_children":[1,3,5,7,9,11,13,-1,-1,-1,-1,-1,-1,-1,-1],"loss_changes":[4.522973E-3,1.4554199E-2,1.8396504E-2,1.3120252E-2,9.414742E-3,2.074915E-2,1.3376626E-2,0E0,0E0,0E0,0E0,0E0,0E0,0E0,0E0],"parents":[2147483647,0,0,1,1,2,2,3,3,4,4,5,5,6,6],"right_children":[2,4,6,8,10,12,14,-1,-1,-1,-1,-1,-1,-1,-1],"split_conditions":[-5.203254E-1,1.1209252E0,-4.170011E-1,-6.5021884E-1,-9.1459686E-1,4.4083897E-2,-9.749317E-1,-9.3946967E-4,-8.274394E-3,-1.01761045E-2,8.1681665E-3,1.6058219E-3,1.5500153E-2,-7.255025E-3,4.0129485E-4],"split_indices":[6,4,6,6,9,3,8,0,0,0,0,0,0,0,0],"split_type":[0,0,0,0,0,0,0,0,0,0,0,0,0,0,0],"sum_hessian":[6E2,2.29E2,3.71E2,2.07E2,2.2E1,4.2E1,3.29E2,1.83E2,2.4E1,2E0,2E1,2.8E1,1.4E1,2.1E1,3.08E2],"tree_param":{"num_deleted":"0","num_feature":"10","num_nodes":"15","size_leaf_vector":"0"}},{"base_weights":[1.6801965E-5,-7.4248464E-4,9.645554E-3,-2.563968E-5,-2.6690563E-2,-6.182772E-3,2.5754916E-2,-1.9861266E-3,7.6399194E-3,7.1305037E-3,-3.5740037E-2,2.539253E-2,-3.2424737E-2,-1.5843133E-2,4.234438E-2],"categories":[],"categories_nodes":[],"categories_segments":[],"categories_sizes":[],"default_left":[1,1,1,1,1,1,1,0,0,0,0,0,0,0,0],"id":71,"left_children":[1,3,5,7,9,11,13,-1,-1,-1,-1,-1,-1,-1,-1],"loss_changes":[4.4010626E-3,1.0378533E-2,1.1378543E-2,8.19053E-3,4.8457887E-3,1.98811E-2,1.5852831E-2,0E0,0E0,0E0,0E0,0E0,0E0,0E0,0E0],"parents":[2147483647,0,0,1,1,2,2,3,3,4,4,5,5,6,6],"right_children":[2,4,6,8,10,12,14,-1,-1,-1,-1,-1,-1,-1,-1],"split_conditions":[1.8203032E0,1.2276831E0,-4.7652003E-1,6.2474847E-1,-9.839715E-1,6.03743E-1,-2.9141462E-1,-5.95838E-4,2.291976E-3,2.139151E-3,-1.0722011E-2,7.6177595E-3,-9.727421E-3,-4.75294E-3,1.2703314E-2],"split_indices":[8,1,9,1,7,1,7,0,0,0,0,0,0,0,0],"split_type":[0,0,0,0,0,0,0,0,0,0,0,0,0,0,0],"sum_hessian":[6E2,5.57E2,4.3E1,5.43E2,1.4E1,2.2E1,2.1E1,4.33E2,1.1E2,3E0,1.1E1,1E1,1.2E1,6E0,1.5E1],"tree_param":{"num_deleted":"0","num_feature":"10","num_nodes":"15","size_leaf_vector":"0"}},{"base_weights":[1.0027328E-5,-3.6672421E-3,1.8808936E-3,-1.4657876E-2,1.4986462E-3,1.1573073E-2,-2.1327669E-3,1.2690768E-2,-2.3116285E-2,1.0553202E-2,-7.84008E-3,2.1809222E-2,-1.5143463E-2,-2.442113E-2,6.0664816E-4],"categories":[],"categories_nodes":[],"categories_segments":[],"categories_sizes":[],"default_left":[1,1,1,1,1,1,1,0,0,0,0,0,0,0,0],"id":72,"left_children":[1,3,5,7,9,11,13,-1,-1,-1,-1,-1,-1,-1,-1],"loss_changes":[4.141585E-3,1.1547573E-2,1.5546227E-2,1.5329554E-2,1.1836303E-2,3.232678E-2,1.7293967E-2,0E0,0E0,0E0,0E0,0E0,0E0,0E0,0E0],"parents":[2147483647,0,0,1,1,2,2,3,3,4,4,5,5,6,6],"right_children":[2,4,6,8,10,12,14,-1,-1,-1,-1,-1,-1,-1,-1],"split_conditions":[-5.879489E-1,1.4655684E-1,-3.4625077E-1,-8.1083226E-1,-5.941285E-1,6.308415E-1,-1.904282E-1,3.8072304E-3,-6.934886E-3,3.1659605E-3,-2.3520242E-3,6.542767E-3,-4.543039E-3,-7.326339E-3,1.8199446E-4],"split_indices":[0,4,0,7,6,8,0,0,0,0,0,0,0,0,0],"split_type":[0,0,0,0,0,0,0,0,0,0,0,0,0,0,0],"sum_hessian":[6E2,2.02E2,3.98E2,6.4E1,1.38E2,1.16E2,2.82E2,1.5E1,4.9E1,7E1,6.8E1,8.4E1,3.2E1,3E1,2.52E2],"tree_param":{"num_deleted":"0","num_feature":"10","num_nodes":"15","size_leaf_vector":"0"}},{"base_weights":[-5.3875506E-6,-4.2544263E-3,1.9692397E-3,-2.3217092E-3,-1.8573536E-1,2.541547E-4,1.6268833E-2,-1.0237797E-3,-5.0140336E-2,1.2332258E-3,-7.1073055E-2,5.8585197E-2,-3.3665856E-3],"categories":[],"categories_nodes":[],"categories_segments":[],"categories_sizes":[],"default_left":[1,1,1,1,0,1,1,0,0,0,0,0,0],"id":73,"left_children":[1,3,5,7,-1,9,11,-1,-1,-1,-1,-1,-1],"loss_changes":[5.050929E-3,6.656228E-2,1.0075647E-2,1.1741054E-2,0E0,2.5786713E-2,3.6756806E-2,0E0,0E0,0E0,0E0,0E0,0E0],"parents":[2147483647,0,0,1,1,2,2,3,3,5,5,6,6],"right_children":[2,4,6,8,-1,10,12,-1,-1,-1,-1,-1,-1],"split_conditions":[-6.325061E-1,-6.5021884E-1,6.696094E-1,4.2247397E-1,-5.572061E-2,6.539054E-1,9.140688E-1,-3.0713395E-4,-1.5042101E-2,3.6996775E-4,-2.1321917E-2,1.757556E-2,-1.0099757E-3],"split_indices":[6,6,5,0,0,5,5,0,0,0,0,0,0],"split_type":[0,0,0,0,0,0,0,0,0,0,0,0,0],"sum_hessian":[6E2,1.9E2,4.1E2,1.89E2,1E0,3.67E2,4.3E1,1.85E2,4E0,3.63E2,4E0,1.3E1,3E1],"tree_param":{"num_deleted":"0","num_feature":"10","num_nodes":"13","size_leaf_vector":"0"}},{"base_weights":[-1.2933348E-4,-2.3186434E-2,2.6036304E-4,-5.1947337E-2,1.5963936E-2,-1.1969795E-2,9.34517E-4,-5.7770602E-2,-1.1415511E-2,-7.552716E-2,-2.4626788E-3,2.3075799E-3,-5.0635524E-3],"categories":[],"categories_nodes":[],"categories_segments":[],"categories_sizes":[],"default_left":[1,1,1,1,0,1,1,0,0,0,0,0,0],"id":74,"left_children":[1,3,5,7,-1,9,11,-1,-1,-1,-1,-1,-1],"loss_changes":[5.4061855E-3,1.2089284E-2,4.892232E-3,7.5668097E-4,0E0,1.8545667E-2,4.640163E-3,0E0,0E0,0E0,0E0,0E0,0E0],"parents":[2147483647,0,0,1,1,2,2,3,3,5,5,6,6],"right_children":[2,4,6,8,-1,10,12,-1,-1,-1,-1,-1,-1],"split_conditions":[-1.9016094E0,1.6617501E-1,-1.2553234E0,3.449895E-1,4.789181E-3,-1.1328712E0,7.643893E-1,-1.7331181E-2,-3.4246536E-3,-2.2658149E-2,-7.388037E-4,6.9227396E-4,-1.5190658E-3],"split_indices":[7,4,9,3,0,7,2,0,0,0,0,0,0],"split_type":[0,0,0,0,0,0,0,0,0,0,0,0,0],"sum_hessian":[6E2,9E0,5.91E2,5E0,4E0,3E1,5.61E2,4E0,1E0,3E0,2.7E1,4.57E2,1.04E2],"tree_param":{"num_deleted":"0","num_feature":"10","num_nodes":"13","size_leaf_vector":"0"}},{"base_weights":[-1.5739723E-4,-9.462077E-4,9.849731E-3,-1.7977442E-3,9.042145E-3,-2.3072034E-2,1.3718708E-2,-1.0143379E-3,-2.6166834E-2,1.5132644E-2,-3.2053128E-2,-6.144886E-2,2.2995472E-2,6.323828E-2,1.0827482E-2],"categories":[],"categories_nodes":[],"categories_segments":[],"categories_sizes":[],"default_left":[1,1,1,1,1,1,1,0,0,0,0,0,0,0,0],"id":75,"left_children":[1,3,5,7,9,11,13,-1,-1,-1,-1,-1,-1,-1,-1],"loss_changes":[4.7534504E-3,4.7622947E-3,5.920955E-3,9.8052705E-3,1.149784E-2,1.0252669E-2,5.0421804E-3,0E0,0E0,0E0,0E0,0E0,0E0,0E0,0E0],"parents":[2147483647,0,0,1,1,2,2,3,3,4,4,5,5,6,6],"right_children":[2,4,6,8,10,12,14,-1,-1,-1,-1,-1,-1,-1,-1],"split_conditions":[1.8203032E0,1.4642429E0,-8.9740187E-1,1.0653404E0,9.205599E-1,7.591224E-1,-7.2426265E-1,-3.043014E-4,-7.850051E-3,4.5397934E-3,-9.615939E-3,-1.8434659E-2,6.898642E-3,1.8971484E-2,3.2482448E-3],"split_indices":[8,4,7,4,7,5,7,0,0,0,0,0,0,0,0],"split_type":[0,0,0,0,0,0,0,0,0,0,0,0,0,0,0],"sum_hessian":[6E2,5.57E2,4.3E1,5.14E2,4.3E1,4E0,3.9E1,4.99E2,1.5E1,3.8E1,5E0,2E0,2E0,1E0,3.8E1],"tree_param":{"num_deleted":"0","num_feature":"10","num_nodes":"15","size_leaf_vector":"0"}},{"base_weights":[-1.14420196E-4,1.3594441E-2,-5.126018E-4,2.031756E-2,1.0874782E-3,-6.9540422E-3,1.1298908E-3,4.766081E-3,3.8026117E-2,2.1057934E-2,-1.9154847E-2,-4.1346243E-3,-4.0954195E-2,1.5647737E-2,-1.2564469E-3],"categories":[],"categories_nodes":[],"categories_segments":[],"categories_sizes":[],"default_left":[1,1,1,1,1,1,1,0,0,0,0,0,0,0,0],"id":76,"left_children":[1,3,5,7,9,11,13,-1,-1,-1,-1,-1,-1,-1,-1],"loss_changes":[3.287597E-3,1.4073632E-3,6.1971676E-3,2.8481022E-3,3.2331005E-3,1.1238087E-2,1.6198637E-2,0E0,0E0,0E0,0E0,0E0,0E0,0E0,0E0],"parents":[2147483647,0,0,1,1,2,2,3,3,4,4,5,5,6,6],"right_children":[2,4,6,8,10,12,14,-1,-1,-1,-1,-1,-1,-1,-1],"split_conditions":[-2.252387E0,3.9963368E-1,-5.144744E-1,4.0114224E-1,-2.9141462E-1,-5.6001604E-1,-3.0456385E-1,1.4298244E-3,1.1407835E-2,6.3173804E-3,-5.746454E-3,-1.2403873E-3,-1.2286259E-2,4.694321E-3,-3.769341E-4],"split_indices":[5,9,5,7,7,5,5,0,0,0,0,0,0,0,0],"split_type":[0,0,0,0,0,0,0,0,0,0,0,0,0,0,0],"sum_hessian":[6E2,1.6E1,5.84E2,1E1,6E0,1.18E2,4.66E2,6E0,4E0,3E0,3E0,1.1E2,8E0,6.5E1,4.01E2],"tree_param":{"num_deleted":"0","num_feature":"10","num_nodes":"15","size_leaf_vector":"0"}},{"base_weights":[-7.31035E-5,-1.3253E-3,4.3430864E-3,-7.091432E-4,-9.679861E-2,-3.657746E-3,2.0609718E-2,-1.49181E-2,2.684594E-5,-1.5441485E-2,4.433507E-2,9.829482E-4,8.724244E-2],"categories":[],"categories_nodes":[],"categories_segments":[],"categories_sizes":[],"default_left":[1,1,1,1,0,1,1,0,0,0,0,0,0],"id":77,"left_children":[1,3,5,7,-1,9,11,-1,-1,-1,-1,-1,-1],"loss_changes":[3.329248E-3,2.7521E-2,1.7384883E-2,4.884117E-3,0E0,5.158273E-2,5.745679E-2,0E0,0E0,0E0,0E0,0E0,0E0],"parents":[2147483647,0,0,1,1,2,2,3,3,5,5,6,6],"right_children":[2,4,6,8,-1,10,12,-1,-1,-1,-1,-1,-1],"split_conditions":[6.575717E-1,5.867207E-1,5.7428145E-1,-1.2452582E0,-2.9039586E-2,-1.1297469E-1,4.4114456E-2,-4.47543E-3,8.053783E-6,-4.6324455E-3,1.3300522E-2,2.948845E-4,2.6172733E-2],"split_indices":[6,6,7,3,0,5,2,0,0,0,0,0,0],"split_type":[0,0,0,0,0,0,0,0,0,0,0,0,0],"sum_hessian":[6E2,4.68E2,1.32E2,4.66E2,2E0,8.9E1,4.3E1,2.2E1,4.44E2,7.2E1,1.7E1,3.4E1,9E0],"tree_param":{"num_deleted":"0","num_feature":"10","num_nodes":"13","size_leaf_vector":"0"}},{"base_weights":[-4.8466434E-5,-1.8000187E-2,2.5485398E-4,-4.1476887E-2,1.3771889E-2,3.6425171E-3,-1.6726657E-3,-2.7490854E-3,-4.867263E-2,4.090905E-3,1.5169408E-2,7.7412548E-3,-2.9299157E-2,-4.208761E-3,2.3301316E-2],"categories":[],"categories_nodes":[],"categories_segments":[],"categories_sizes":[],"default_left":[1,1,1,1,1,1,1,0,0,0,0,0,0,0,0],"id":78,"left_children":[1,3,5,7,9,11,13,-1,-1,-1,-1,-1,-1,-1,-1],"loss_changes":[3.2771067E-3,8.03025E-3,3.8717266E-3,1.5382478E-3,5.5902055E-6,2.9255958E-2,2.4039226E-2,0E0,0E0,0E0,0E0,0E0,0E0,0E0,0E0],"parents":[2147483647,0,0,1,1,2,2,3,3,4,4,5,5,6,6],"right_children":[2,4,6,8,10,12,14,-1,-1,-1,-1,-1,-1,-1,-1],"split_conditions":[-1.9016094E0,1.6617501E-1,-6.1691636E-1,-6.9944865E-1,-8.2202905E-1,1.5520649E0,1.5520649E0,-8.2472566E-4,-1.460179E-2,1.2272716E-3,4.5508225E-3,2.3223765E-3,-8.789747E-3,-1.2626282E-3,6.990395E-3],"split_indices":[7,4,7,0,0,6,6,0,0,0,0,0,0,0,0],"split_type":[0,0,0,0,0,0,0,0,0,0,0,0,0,0,0],"sum_hessian":[6E2,9E0,5.91E2,5E0,4E0,2.14E2,3.77E2,1E0,4E0,1E0,3E0,1.91E2,2.3E1,3.43E2,3.4E1],"tree_param":{"num_deleted":"0","num_feature":"10","num_nodes":"15","size_leaf_vector":"0"}},{"base_weights":[-5.121648E-5,1.3666703E-2,-4.4976934E-4,1.8303854E-2,4.427365E-3,-5.2742874E-3,1.0093066E-3,8.06501E-3,2.8977465E-2,2.3569286E-2,-1.5821397E-2,-2.5340905E-3,-2.7209602E-2,-4.8459365E-4,1.2706382E-2],"categories":[],"categories_nodes":[],"categories_segments":[],"categories_sizes":[],"default_left":[1,1,1,1,1,1,1,0,0,0,0,0,0,0,0],"id":79,"left_children":[1,3,5,7,9,11,13,-1,-1,-1,-1,-1,-1,-1,-1],"loss_changes":[3.2920039E-3,6.473134E-4,4.123336E-3,9.6843694E-4,3.0861003E-3,8.105611E-3,7.869577E-3,0E0,0E0,0E0,0E0,0E0,0E0,0E0,0E0],"parents":[2147483647,0,0,1,1,2,2,3,3,4,4,5,5,6,6],"right_children":[2,4,6,8,10,12,14,-1,-1,-1,-1,-1,-1,-1,-1],"split_conditions":[-2.252387E0,3.9963368E-1,-3.4383687E-1,4.0114224E-1,-2.9141462E-1,6.916849E-1,1.4157381E0,2.4195032E-3,8.69324E-3,7.070786E-3,-4.7464194E-3,-7.602272E-4,-8.162881E-3,-1.453781E-4,3.8119147E-3],"split_indices":[5,9,1,7,7,9,7,0,0,0,0,0,0,0,0],"split_type":[0,0,0,0,0,0,0,0,0,0,0,0,0,0,0],"sum_hessian":[6E2,1.6E1,5.84E2,1E1,6E0,1.35E2,4.49E2,6E0,4E0,3E0,3E0,1.21E2,1.4E1,3.99E2,5E1],"tree_param":{"num_deleted":"0","num_feature":"10","num_nodes":"15","size_leaf_vector":"0"}},{"base_weights":[-2.2235217E-5,6.583513E-4,-8.247972E-3,-2.5065002E-4,6.295627E-2,-1.7020678E-2,6.3440534E-3,2.766807E-3,-2.8391075E-3,2.8561115E-2,9.021115E-2,-2.2355739E-2,6.618053E-2,1.2524072E-2,-2.873073E-2],"categories":[],"categories_nodes":[],"categories_segments":[],"categories_sizes":[],"default_left":[1,1,1,1,1,1,1,0,0,0,0,0,0,0,0],"id":80,"left_children":[1,3,5,7,9,11,13,-1,-1,-1,-1,-1,-1,-1,-1],"loss_changes":[3.3700236E-3,3.1501446E-2,5.996511E-3,4.2958525E-3,4.922956E-3,1.4352138E-2,4.261557E-3,0E0,0E0,0E0,0E0,0E0,0E0,0E0,0E0],"parents":[2147483647,0,0,1,1,2,2,3,3,4,4,5,5,6,6],"right_children":[2,4,6,8,10,12,14,-1,-1,-1,-1,-1,-1,-1,-1],"split_conditions":[1.0603054E0,9.739946E-1,1.5202358E0,-5.550146E-2,-4.5394152E-1,1.2668383E0,1.0936991E0,8.300422E-4,-8.517323E-4,8.568335E-3,2.7063347E-2,-6.706722E-3,1.9854158E-2,3.7572219E-3,-8.619219E-3],"split_indices":[3,3,3,2,0,7,7,0,0,0,0,0,0,0,0],"split_type":[0,0,0,0,0,0,0,0,0,0,0,0,0,0,0],"sum_hessian":[6E2,5.55E2,4.5E1,5.48E2,7E0,2.8E1,1.7E1,2.53E2,2.95E2,4E0,3E0,2.7E1,1E0,1.5E1,2E0],"tree_param":{"num_deleted":"0","num_feature":"10","num_nodes":"15","size_leaf_vector":"0"}},{"base_weights":[5.7479283E-5,-9.3499115E-3,5.681126E-4,-6.1551765E-2,-1.5585785E-3,3.883978E-3,-1.4304284E-3,9.292384E-3,-1.370421E-1,-1.39502995E-2,6.1007272E-3,2.0524176E-2,-8.493298E-3,-1.0603416E-2,6.779441E-3],"categories":[],"categories_nodes":[],"categories_segments":[],"categories_sizes":[],"default_left":[1,1,1,1,1,1,1,0,0,0,0,0,0,0,0],"id":81,"left_children":[1,3,5,7,9,11,13,-1,-1,-1,-1,-1,-1,-1,-1],"loss_changes":[2.8923517E-3,1.2512449E-2,3.7895113E-3,2.2665644E-2,2.7426423E-3,4.4455785E-2,2.695721E-2,0E0,0E0,0E0,0E0,0E0,0E0,0E0,0E0],"parents":[2147483647,0,0,1,1,2,2,3,3,4,4,5,5,6,6],"right_children":[2,4,6,8,10,12,14,-1,-1,-1,-1,-1,-1,-1,-1],"split_conditions":[-1.2553234E0,-1.1328712E0,-4.6455383E-1,2.4171977E-1,-4.4377714E-1,-8.632543E-2,1.2139528E-1,2.7877153E-3,-4.111263E-2,-4.18509E-3,1.8302182E-3,6.157253E-3,-2.5479894E-3,-3.181025E-3,2.0338325E-3],"split_indices":[9,7,7,0,7,1,1,0,0,0,0,0,0,0,0],"split_type":[0,0,0,0,0,0,0,0,0,0,0,0,0,0,0],"sum_hessian":[6E2,3E1,5.7E2,3E0,2.7E1,2.14E2,3.56E2,2E0,1E0,1E1,1.7E1,9.1E1,1.23E2,1.68E2,1.88E2],"tree_param":{"num_deleted":"0","num_feature":"10","num_nodes":"15","size_leaf_vector":"0"}},{"base_weights":[-2.3361605E-5,1.41388E-3,-3.5585114E-3,-6.606013E-5,1.0491948E-2,-1.5811412E-1,-1.751172E-3,-1.9839361E-2,2.0653917E-3,7.629883E-2,-2.6170877E-3,1.3655398E-4,-4.653675E-2],"categories":[],"categories_nodes":[],"categories_segments":[],"categories_sizes":[],"default_left":[1,1,1,1,1,0,1,0,0,0,0,0,0],"id":82,"left_children":[1,3,5,7,9,-1,11,-1,-1,-1,-1,-1,-1],"loss_changes":[3.0586307E-3,5.7508717E-3,4.832731E-2,1.5592791E-2,5.1959567E-2,0E0,1.4632276E-2,0E0,0E0,0E0,0E0,0E0,0E0],"parents":[2147483647,0,0,1,1,2,2,3,3,4,4,6,6],"right_children":[2,4,6,8,10,-1,12,-1,-1,-1,-1,-1,-1],"split_conditions":[5.162202E-1,1.2045083E0,5.3022385E-1,-1.5219259E0,-1.7288353E0,-4.7434237E-2,4.8268324E-1,-5.9518088E-3,6.196175E-4,2.2889651E-2,-7.8512635E-4,4.0966195E-5,-1.39610255E-2],"split_indices":[1,7,1,3,3,0,2,0,0,0,0,0,0],"split_type":[0,0,0,0,0,0,0,0,0,0,0,0,0],"sum_hessian":[6E2,4.27E2,1.73E2,3.68E2,5.9E1,1E0,1.72E2,3.5E1,3.33E2,9E0,5E1,1.66E2,6E0],"tree_param":{"num_deleted":"0","num_feature":"10","num_nodes":"13","size_leaf_vector":"0"}},{"base_weights":[-9.052734E-5,-1.5266865E-3,3.097155E-3,1.8370487E-3,-8.594199E-3,-2.3845052E-3,1.2506146E-2,1.0931685E-3,1.0543369E-1,-3.912305E-2,-3.5196953E-3,2.0874102E-2,-8.480092E-3,3.8645945E-2,-5.517583E-4],"categories":[],"categories_nodes":[],"categories_segments":[],"categories_sizes":[],"default_left":[1,1,1,1,1,1,1,0,0,0,0,0,0,0,0],"id":83,"left_children":[1,3,5,7,9,11,13,-1,-1,-1,-1,-1,-1,-1,-1],"loss_changes":[2.7561178E-3,9.881683E-3,9.6747E-3,2.1616645E-2,2.0621412E-2,1.7048221E-2,2.3573162E-2,0E0,0E0,0E0,0E0,0E0,0E0,0E0,0E0],"parents":[2147483647,0,0,1,1,2,2,3,3,4,4,5,5,6,6],"right_children":[2,4,6,8,10,12,14,-1,-1,-1,-1,-1,-1,-1,-1],"split_conditions":[5.9161276E-1,1.136868E-1,-6.409286E-1,8.856035E-2,2.2256806E-1,-6.86172E-1,-3.5525388E-1,3.2795058E-4,3.1630106E-2,-1.1736915E-2,-1.0559086E-3,6.2622307E-3,-2.5440275E-3,1.1593784E-2,-1.6552748E-4],"split_indices":[5,5,0,5,5,7,0,0,0,0,0,0,0,0,0],"split_type":[0,0,0,0,0,0,0,0,0,0,0,0,0,0,0],"sum_hessian":[6E2,4.14E2,1.86E2,2.81E2,1.33E2,1.18E2,6.8E1,2.8E2,1E0,1.8E1,1.15E2,2.4E1,9.4E1,2.2E1,4.6E1],"tree_param":{"num_deleted":"0","num_feature":"10","num_nodes":"15","size_leaf_vector":"0"}},{"base_weights":[-6.2791905E-6,-1.2091211E-2,4.3053637E-4,-2.87075E-2,1.3253563E-2,1.2156226E-3,-7.5795837E-3,-3.8922638E-2,4.0072203E-3,1.5817061E-2,-3.6272109E-3,8.181289E-4,4.278884E-2,-5.856073E-4,-3.3594802E-2],"categories":[],"categories_nodes":[],"categories_segments":[],"categories_sizes":[],"default_left":[1,1,1,1,1,1,1,0,0,0,0,0,0,0,0],"id":84,"left_children":[1,3,5,7,9,11,13,-1,-1,-1,-1,-1,-1,-1,-1],"loss_changes":[3.1778165E-3,9.224335E-3,3.6629108E-3,4.5003816E-3,4.4683623E-4,8.7232925E-3,9.441718E-3,0E0,0E0,0E0,0E0,0E0,0E0,0E0,0E0],"parents":[2147483647,0,0,1,1,2,2,3,3,4,4,5,5,6,6],"right_children":[2,4,6,8,10,12,14,-1,-1,-1,-1,-1,-1,-1,-1],"split_conditions":[-1.427208E0,6.045132E-1,1.0600283E0,9.7374415E-1,-1.600347E0,1.0421348E0,3.819747E-1,-1.1676792E-2,1.2021661E-3,4.7451183E-3,-1.0881633E-3,2.4543868E-4,1.2836653E-2,-1.756822E-4,-1.0078441E-2],"split_indices":[7,3,1,5,7,1,4,0,0,0,0,0,0,0,0],"split_type":[0,0,0,0,0,0,0,0,0,0,0,0,0,0,0],"sum_hessian":[6E2,2E1,5.8E2,1.2E1,8E0,5.29E2,5.1E1,9E0,3E0,7E0,1E0,5.25E2,4E0,4.1E1,1E1],"tree_param":{"num_deleted":"0","num_feature":"10","num_nodes":"15","size_leaf_vector":"0"}},{"base_weights":[-1.1037818E-5,-1.1522536E-3,4.215113E-3,8.0596794E-5,-1.6618023E-2,9.009255E-4,2.912193E-2,-5.047427E-4,2.2954725E-2,-6.1210204E-2,-7.145651E-3,1.320854E-2,-2.7046802E-3,3.921784E-2,-2.4334332E-2],"categories":[],"categories_nodes":[],"categories_segments":[],"categories_sizes":[],"default_left":[1,1,1,1,1,1,1,0,0,0,0,0,0,0,0],"id":85,"left_children":[1,3,5,7,9,11,13,-1,-1,-1,-1,-1,-1,-1,-1],"loss_changes":[2.9034498E-3,9.039087E-3,1.0539632E-2,5.9028044E-3,1.4346392E-2,5.094635E-3,9.049687E-3,0E0,0E0,0E0,0E0,0E0,0E0,0E0,0E0],"parents":[2147483647,0,0,1,1,2,2,3,3,4,4,5,5,6,6],"right_children":[2,4,6,8,10,12,14,-1,-1,-1,-1,-1,-1,-1,-1],"split_conditions":[7.682674E-1,7.316148E-1,9.205599E-1,2.7360435E0,-1.6927779E-2,7.8068197E-1,1.3807197E0,-1.5142282E-4,6.8864175E-3,-1.8363062E-2,-2.1436955E-3,3.9625624E-3,-8.114041E-4,1.1765352E-2,-7.3003E-3],"split_indices":[3,3,7,9,4,3,3,0,0,0,0,0,0,0,0],"split_type":[0,0,0,0,0,0,0,0,0,0,0,0,0,0,0],"sum_hessian":[6E2,4.73E2,1.27E2,4.39E2,3.4E1,1.13E2,1.4E1,4.29E2,1E1,5E0,2.9E1,2.5E1,8.8E1,1.2E1,2E0],"tree_param":{"num_deleted":"0","num_feature":"10","num_nodes":"15","size_leaf_vector":"0"}},{"base_weights":[-1.7979273E-5,-3.615597E-3,1.218742E-3,-1.0108717E-2,6.182399E-3,2.4166323E-2,-6.6423754E-4,-1.0058879E-3,-1.4193209E-1,-1.4800848E-2,1.1677537E-1,6.1888777E-2,3.4343335E-3,-1.3167439E-3,1.5689936E-2],"categories":[],"categories_nodes":[],"categories_segments":[],"categories_sizes":[],"default_left":[1,1,1,1,1,1,1,0,0,0,0,0,0,0,0],"id":86,"left_children":[1,3,5,7,9,11,13,-1,-1,-1,-1,-1,-1,-1,-1],"loss_changes":[2.678406E-3,9.859908E-3,1.9374054E-2,1.1145403E-1,1.4560555E-1,2.6377544E-2,4.449208E-3,0E0,0E0,0E0,0E0,0E0,0E0,0E0,0E0],"parents":[2147483647,0,0,1,1,2,2,3,3,4,4,5,5,6,6],"right_children":[2,4,6,8,10,12,14,-1,-1,-1,-1,-1,-1,-1,-1],"split_conditions":[-7.075329E-1,2.2800304E-1,-3.549961E-1,1.6583413E0,1.3070387E0,-1.0520947E-1,1.6131167E0,-3.0176638E-4,-4.257963E-2,-4.4402545E-3,3.503261E-2,1.8566635E-2,1.0303E-3,-3.9502318E-4,4.7069807E-3],"split_indices":[2,7,2,6,6,4,7,0,0,0,0,0,0,0,0],"split_type":[0,0,0,0,0,0,0,0,0,0,0,0,0,0,0],"sum_hessian":[6E2,1.53E2,4.47E2,9.2E1,6.1E1,3.3E1,4.14E2,8.7E1,5E0,5.2E1,9E0,1.1E1,2.2E1,3.99E2,1.5E1],"tree_param":{"num_deleted":"0","num_feature":"10","num_nodes":"15","size_leaf_vector":"0"}},{"base_weights":[6.7488004E-6,9.834985E-3,-4.5476272E-4,3.2471724E-2,-3.2873685E-3,-1.4725506E-2,4.9746234E-4,6.8349816E-2,1.4958471E-2,-3.9151702E-2,1.790744E-2,-2.82261E-2,1.1331398E-2,-1.11024034E-4,1.3036723E-2],"categories":[],"categories_nodes":[],"categories_segments":[],"categories_sizes":[],"default_left":[1,1,1,1,1,1,1,0,0,0,0,0,0,0,0],"id":87,"left_children":[1,3,5,7,9,11,13,-1,-1,-1,-1,-1,-1,-1,-1],"loss_changes":[2.7305149E-3,8.127023E-3,7.820978E-3,5.2610133E-3,1.4383585E-2,1.2984052E-2,4.121631E-3,0E0,0E0,0E0,0E0,0E0,0E0,0E0,0E0],"parents":[2147483647,0,0,1,1,2,2,3,3,4,4,5,5,6,6],"right_children":[2,4,6,8,10,12,14,-1,-1,-1,-1,-1,-1,-1,-1],"split_conditions":[-2.2903433E0,-4.6455383E-1,-1.4602385E0,2.3300886E0,4.0114224E-1,2.2800304E-1,8.525443E-1,